<?xml version="1.0"?>
<opencv_storage>
<cascade>
  <stageType>BOOST</stageType>
  <featureType>HAAR</featureType>
  <height>40</height>
  <width>40</width>
  <stageParams>
    <boostType>GAB</boostType>
    <minHitRate>9.9900001287460327e-01</minHitRate>
    <maxFalseAlarm>5.0000000000000000e-01</maxFalseAlarm>
    <weightTrimRate>9.4999999999999996e-01</weightTrimRate>
    <maxDepth>1</maxDepth>
    <maxWeakCount>100</maxWeakCount></stageParams>
  <featureParams>
    <maxCatCount>0</maxCatCount>
    <featSize>1</featSize>
    <mode>ALL</mode></featureParams>
  <stageNum>20</stageNum>
  <stages>
    <!-- stage 0 -->
    <_>
      <maxWeakCount>2</maxWeakCount>
      <stageThreshold>-2.1882343292236328e-01</stageThreshold>
      <weakClassifiers>
        <_>
          <internalNodes>
            0 -1 94 7.8825093805789948e-03</internalNodes>
          <leafValues>
            -9.2265194654464722e-01 8.4022557735443115e-01</leafValues></_>
        <_>
          <internalNodes>
            0 -1 73 7.3284376412630081e-03</internalNodes>
          <leafValues>
            -9.2314946651458740e-01 7.0382851362228394e-01</leafValues></_></weakClassifiers></_>
    <!-- stage 1 -->
    <_>
      <maxWeakCount>5</maxWeakCount>
      <stageThreshold>-1.1039271354675293e+00</stageThreshold>
      <weakClassifiers>
        <_>
          <internalNodes>
            0 -1 19 5.3188498131930828e-03</internalNodes>
          <leafValues>
            -7.0154374837875366e-01 7.8320312500000000e-01</leafValues></_>
        <_>
          <internalNodes>
            0 -1 69 -8.1645818427205086e-03</internalNodes>
          <leafValues>
            6.4484012126922607e-01 -7.5447499752044678e-01</leafValues></_>
        <_>
          <internalNodes>
            0 -1 133 8.9180953800678253e-03</internalNodes>
          <leafValues>
            -6.4781898260116577e-01 6.5336638689041138e-01</leafValues></_>
        <_>
          <internalNodes>
            0 -1 132 1.2901476584374905e-03</internalNodes>
          <leafValues>
            -6.7362707853317261e-01 5.8449453115463257e-01</leafValues></_>
        <_>
          <internalNodes>
            0 -1 158 2.3714378476142883e-02</internalNodes>
          <leafValues>
            4.1541612148284912e-01 -8.6871337890625000e-01</leafValues></_></weakClassifiers></_>
    <!-- stage 2 -->
    <_>
      <maxWeakCount>6</maxWeakCount>
      <stageThreshold>-1.1970673799514771e+00</stageThreshold>
      <weakClassifiers>
        <_>
          <internalNodes>
            0 -1 18 1.2197613716125488e-02</internalNodes>
          <leafValues>
            -5.4153847694396973e-01 7.7847439050674438e-01</leafValues></_>
        <_>
          <internalNodes>
            0 -1 93 2.4116273969411850e-02</internalNodes>
          <leafValues>
            -5.2764868736267090e-01 7.1102303266525269e-01</leafValues></_>
        <_>
          <internalNodes>
            0 -1 60 7.9884007573127747e-03</internalNodes>
          <leafValues>
            -9.0899586677551270e-01 3.6096563935279846e-01</leafValues></_>
        <_>
          <internalNodes>
            0 -1 193 -6.1817844398319721e-03</internalNodes>
          <leafValues>
            7.0641076564788818e-01 -4.2176344990730286e-01</leafValues></_>
        <_>
          <internalNodes>
            0 -1 149 1.4803946251049638e-03</internalNodes>
          <leafValues>
            -4.2799815535545349e-01 6.8325853347778320e-01</leafValues></_>
        <_>
          <internalNodes>
            0 -1 170 3.5172947682440281e-03</internalNodes>
          <leafValues>
            3.6091569066047668e-01 -8.2919585704803467e-01</leafValues></_></weakClassifiers></_>
    <!-- stage 3 -->
    <_>
      <maxWeakCount>5</maxWeakCount>
      <stageThreshold>-9.0742987394332886e-01</stageThreshold>
      <weakClassifiers>
        <_>
          <internalNodes>
            0 -1 66 -6.2511907890439034e-04</internalNodes>
          <leafValues>
            6.1221122741699219e-01 -8.8354432582855225e-01</leafValues></_>
        <_>
          <internalNodes>
            0 -1 189 -1.1982919648289680e-02</internalNodes>
          <leafValues>
            6.1342316865921021e-01 -5.1281118392944336e-01</leafValues></_>
        <_>
          <internalNodes>
            0 -1 75 1.5492336824536324e-02</internalNodes>
          <leafValues>
            -4.3308109045028687e-01 6.6627401113510132e-01</leafValues></_>
        <_>
          <internalNodes>
            0 -1 100 2.2535494063049555e-03</internalNodes>
          <leafValues>
            -5.7693117856979370e-01 4.9858498573303223e-01</leafValues></_>
        <_>
          <internalNodes>
            0 -1 113 4.3883419129997492e-04</internalNodes>
          <leafValues>
            4.2342171072959900e-01 -6.4160007238388062e-01</leafValues></_></weakClassifiers></_>
    <!-- stage 4 -->
    <_>
      <maxWeakCount>7</maxWeakCount>
      <stageThreshold>-1.0007462501525879e+00</stageThreshold>
      <weakClassifiers>
        <_>
          <internalNodes>
            0 -1 98 -1.4276496367529035e-03</internalNodes>
          <leafValues>
            4.8844146728515625e-01 -9.8496240377426147e-01</leafValues></_>
        <_>
          <internalNodes>
            0 -1 53 1.4771185815334320e-02</internalNodes>
          <leafValues>
            -6.2011206150054932e-01 4.3275555968284607e-01</leafValues></_>
        <_>
          <internalNodes>
            0 -1 107 1.0186432627961040e-03</internalNodes>
          <leafValues>
            -5.0290232896804810e-01 6.2874746322631836e-01</leafValues></_>
        <_>
          <internalNodes>
            0 -1 187 8.4572890773415565e-03</internalNodes>
          <leafValues>
            -3.3639410138130188e-01 6.7749691009521484e-01</leafValues></_>
        <_>
          <internalNodes>
            0 -1 23 1.9359164871275425e-03</internalNodes>
          <leafValues>
            -4.1962400078773499e-01 5.6666117906570435e-01</leafValues></_>
        <_>
          <internalNodes>
            0 -1 141 4.6329339966177940e-03</internalNodes>
          <leafValues>
            3.6027559638023376e-01 -7.6616531610488892e-01</leafValues></_>
        <_>
          <internalNodes>
            0 -1 129 -5.5086729844333604e-06</internalNodes>
          <leafValues>
            -9.5659589767456055e-01 1.6972491145133972e-01</leafValues></_></weakClassifiers></_>
    <!-- stage 5 -->
    <_>
      <maxWeakCount>9</maxWeakCount>
      <stageThreshold>-1.2368100881576538e+00</stageThreshold>
      <weakClassifiers>
        <_>
          <internalNodes>
            0 -1 88 2.4864608421921730e-03</internalNodes>
          <leafValues>
            -4.6448087692260742e-01 6.1247634887695312e-01</leafValues></_>
        <_>
          <internalNodes>
            0 -1 177 6.4197447500191629e-05</internalNodes>
          <leafValues>
            3.3822906017303467e-01 -6.9095999002456665e-01</leafValues></_>
        <_>
          <internalNodes>
            0 -1 175 1.1084424331784248e-02</internalNodes>
          <leafValues>
            -3.7628325819969177e-01 6.0428506135940552e-01</leafValues></_>
        <_>
          <internalNodes>
            0 -1 14 -1.6809886321425438e-02</internalNodes>
          <leafValues>
            4.4867160916328430e-01 -4.9779900908470154e-01</leafValues></_>
        <_>
          <internalNodes>
            0 -1 180 4.0339058614335954e-05</internalNodes>
          <leafValues>
            3.1326583027839661e-01 -6.8742781877517700e-01</leafValues></_>
        <_>
          <internalNodes>
            0 -1 37 -3.1267830636352301e-03</internalNodes>
          <leafValues>
            4.5923095941543579e-01 -4.8765179514884949e-01</leafValues></_>
        <_>
          <internalNodes>
            0 -1 110 -7.0827943272888660e-04</internalNodes>
          <leafValues>
            6.0540729761123657e-01 -2.6898330450057983e-01</leafValues></_>
        <_>
          <internalNodes>
            0 -1 120 2.3581509594805539e-05</internalNodes>
          <leafValues>
            1.9534988701343536e-01 -9.5148688554763794e-01</leafValues></_>
        <_>
          <internalNodes>
            0 -1 157 8.9188767597079277e-03</internalNodes>
          <leafValues>
            -8.9487648010253906e-01 1.3784642517566681e-01</leafValues></_></weakClassifiers></_>
    <!-- stage 6 -->
    <_>
      <maxWeakCount>10</maxWeakCount>
      <stageThreshold>-9.2822384834289551e-01</stageThreshold>
      <weakClassifiers>
        <_>
          <internalNodes>
            0 -1 9 4.3732970952987671e-03</internalNodes>
          <leafValues>
            -3.1707316637039185e-01 6.3196635246276855e-01</leafValues></_>
        <_>
          <internalNodes>
            0 -1 161 5.3654354996979237e-03</internalNodes>
          <leafValues>
            -2.9493075609207153e-01 6.5848833322525024e-01</leafValues></_>
        <_>
          <internalNodes>
            0 -1 186 -1.5235316008329391e-02</internalNodes>
          <leafValues>
            5.8535140752792358e-01 -3.2355678081512451e-01</leafValues></_>
        <_>
          <internalNodes>
            0 -1 26 -2.5255857035517693e-02</internalNodes>
          <leafValues>
            9.0680390596389771e-01 -2.3953111469745636e-01</leafValues></_>
        <_>
          <internalNodes>
            0 -1 35 -9.6855070441961288e-03</internalNodes>
          <leafValues>
            -5.9564286470413208e-01 3.2005310058593750e-01</leafValues></_>
        <_>
          <internalNodes>
            0 -1 138 2.8687929734587669e-03</internalNodes>
          <leafValues>
            1.6735790669918060e-01 -9.2370724678039551e-01</leafValues></_>
        <_>
          <internalNodes>
            0 -1 47 -1.6513831913471222e-02</internalNodes>
          <leafValues>
            5.9072297811508179e-01 -3.0696520209312439e-01</leafValues></_>
        <_>
          <internalNodes>
            0 -1 29 -2.7058571577072144e-02</internalNodes>
          <leafValues>
            8.4611982107162476e-01 -2.3773652315139771e-01</leafValues></_>
        <_>
          <internalNodes>
            0 -1 76 8.5074454545974731e-03</internalNodes>
          <leafValues>
            -6.9127398729324341e-01 2.7570533752441406e-01</leafValues></_>
        <_>
          <internalNodes>
            0 -1 8 1.4575126767158508e-01</internalNodes>
          <leafValues>
            1.7047896981239319e-01 -8.6585724353790283e-01</leafValues></_></weakClassifiers></_>
    <!-- stage 7 -->
    <_>
      <maxWeakCount>10</maxWeakCount>
      <stageThreshold>-1.1414332389831543e+00</stageThreshold>
      <weakClassifiers>
        <_>
          <internalNodes>
            0 -1 22 -1.7542863264679909e-02</internalNodes>
          <leafValues>
            -7.4172186851501465e-01 4.7279694676399231e-01</leafValues></_>
        <_>
          <internalNodes>
            0 -1 96 -3.2030113507062197e-03</internalNodes>
          <leafValues>
            4.9372419714927673e-01 -4.3164965510368347e-01</leafValues></_>
        <_>
          <internalNodes>
            0 -1 77 3.4085139632225037e-02</internalNodes>
          <leafValues>
            2.5867751240730286e-01 -7.9923945665359497e-01</leafValues></_>
        <_>
          <internalNodes>
            0 -1 166 -2.6297010481357574e-03</internalNodes>
          <leafValues>
            -9.3032479286193848e-01 1.4042630791664124e-01</leafValues></_>
        <_>
          <internalNodes>
            0 -1 174 -5.0285635516047478e-03</internalNodes>
          <leafValues>
            4.8920530080795288e-01 -3.5385471582412720e-01</leafValues></_>
        <_>
          <internalNodes>
            0 -1 56 -9.0318676084280014e-03</internalNodes>
          <leafValues>
            2.2680778801441193e-01 -6.2889486551284790e-01</leafValues></_>
        <_>
          <internalNodes>
            0 -1 49 2.0086858421564102e-02</internalNodes>
          <leafValues>
            -2.8952759504318237e-01 6.4183121919631958e-01</leafValues></_>
        <_>
          <internalNodes>
            0 -1 0 2.6845213025808334e-02</internalNodes>
          <leafValues>
            -3.0726918578147888e-01 6.0847908258438110e-01</leafValues></_>
        <_>
          <internalNodes>
            0 -1 151 -6.5652711782604456e-04</internalNodes>
          <leafValues>
            -8.2331013679504395e-01 1.9600445032119751e-01</leafValues></_>
        <_>
          <internalNodes>
            0 -1 34 -2.2597089409828186e-02</internalNodes>
          <leafValues>
            -7.5507456064224243e-01 2.0402947068214417e-01</leafValues></_></weakClassifiers></_>
    <!-- stage 8 -->
    <_>
      <maxWeakCount>9</maxWeakCount>
      <stageThreshold>-1.3562529087066650e+00</stageThreshold>
      <weakClassifiers>
        <_>
          <internalNodes>
            0 -1 145 -1.0062502697110176e-03</internalNodes>
          <leafValues>
            5.0354611873626709e-01 -7.2781062126159668e-01</leafValues></_>
        <_>
          <internalNodes>
            0 -1 118 1.4360116438183468e-05</internalNodes>
          <leafValues>
            2.2655637562274933e-01 -8.9601051807403564e-01</leafValues></_>
        <_>
          <internalNodes>
            0 -1 89 9.1471022460609674e-04</internalNodes>
          <leafValues>
            -4.2597132921218872e-01 4.5184746384620667e-01</leafValues></_>
        <_>
          <internalNodes>
            0 -1 90 5.5005750618875027e-03</internalNodes>
          <leafValues>
            -5.1306545734405518e-01 3.9040133357048035e-01</leafValues></_>
        <_>
          <internalNodes>
            0 -1 125 1.0427995584905148e-02</internalNodes>
          <leafValues>
            -3.8119775056838989e-01 4.9984973669052124e-01</leafValues></_>
        <_>
          <internalNodes>
            0 -1 117 -1.2648783158510923e-03</internalNodes>
          <leafValues>
            1.8703463673591614e-01 -8.3004307746887207e-01</leafValues></_>
        <_>
          <internalNodes>
            0 -1 152 -8.1496264101588167e-06</internalNodes>
          <leafValues>
            -7.4431151151657104e-01 1.8396620452404022e-01</leafValues></_>
        <_>
          <internalNodes>
            0 -1 126 1.0085555259138346e-03</internalNodes>
          <leafValues>
            2.0797793567180634e-01 -8.2135838270187378e-01</leafValues></_>
        <_>
          <internalNodes>
            0 -1 64 -1.8131684511899948e-02</internalNodes>
          <leafValues>
            6.2850171327590942e-01 -3.2802194356918335e-01</leafValues></_></weakClassifiers></_>
    <!-- stage 9 -->
    <_>
      <maxWeakCount>12</maxWeakCount>
      <stageThreshold>-1.6702165603637695e+00</stageThreshold>
      <weakClassifiers>
        <_>
          <internalNodes>
            0 -1 20 6.6867317073047161e-03</internalNodes>
          <leafValues>
            -4.2076501250267029e-01 5.8979207277297974e-01</leafValues></_>
        <_>
          <internalNodes>
            0 -1 59 1.3916799798607826e-02</internalNodes>
          <leafValues>
            -8.0323076248168945e-01 3.2344338297843933e-01</leafValues></_>
        <_>
          <internalNodes>
            0 -1 165 5.2233180031180382e-03</internalNodes>
          <leafValues>
            -4.9256074428558350e-01 4.6658807992935181e-01</leafValues></_>
        <_>
          <internalNodes>
            0 -1 83 1.6446165740489960e-02</internalNodes>
          <leafValues>
            -7.4795997142791748e-01 2.9467713832855225e-01</leafValues></_>
        <_>
          <internalNodes>
            0 -1 146 2.2908800019649789e-05</internalNodes>
          <leafValues>
            3.1117177009582520e-01 -6.1264038085937500e-01</leafValues></_>
        <_>
          <internalNodes>
            0 -1 101 1.2664236128330231e-03</internalNodes>
          <leafValues>
            -3.9630591869354248e-01 5.3397732973098755e-01</leafValues></_>
        <_>
          <internalNodes>
            0 -1 124 -1.0687864851206541e-03</internalNodes>
          <leafValues>
            7.5231552124023438e-01 -2.7157568931579590e-01</leafValues></_>
        <_>
          <internalNodes>
            0 -1 44 1.3286602916195989e-03</internalNodes>
          <leafValues>
            3.0568361282348633e-01 -7.5877308845520020e-01</leafValues></_>
        <_>
          <internalNodes>
            0 -1 167 -4.5844892156310380e-04</internalNodes>
          <leafValues>
            3.3226957917213440e-01 -6.1521470546722412e-01</leafValues></_>
        <_>
          <internalNodes>
            0 -1 13 1.0202208533883095e-02</internalNodes>
          <leafValues>
            -4.3650490045547485e-01 4.7150331735610962e-01</leafValues></_>
        <_>
          <internalNodes>
            0 -1 147 3.2424723030999303e-04</internalNodes>
          <leafValues>
            2.4122151732444763e-01 -8.8275378942489624e-01</leafValues></_>
        <_>
          <internalNodes>
            0 -1 196 -2.7246463578194380e-03</internalNodes>
          <leafValues>
            5.8951503038406372e-01 -3.4892711043357849e-01</leafValues></_></weakClassifiers></_>
    <!-- stage 10 -->
    <_>
      <maxWeakCount>11</maxWeakCount>
      <stageThreshold>-1.2705734968185425e+00</stageThreshold>
      <weakClassifiers>
        <_>
          <internalNodes>
            0 -1 163 5.6623509153723717e-03</internalNodes>
          <leafValues>
            4.8873350024223328e-01 -7.3750001192092896e-01</leafValues></_>
        <_>
          <internalNodes>
            0 -1 40 6.7623645067214966e-02</internalNodes>
          <leafValues>
            -4.0479215979576111e-01 5.6831407546997070e-01</leafValues></_>
        <_>
          <internalNodes>
            0 -1 114 -1.0185142746195197e-03</internalNodes>
          <leafValues>
            2.5972580909729004e-01 -8.0717605352401733e-01</leafValues></_>
        <_>
          <internalNodes>
            0 -1 72 5.0142705440521240e-03</internalNodes>
          <leafValues>
            -7.9189121723175049e-01 2.1290242671966553e-01</leafValues></_>
        <_>
          <internalNodes>
            0 -1 191 1.1849527247250080e-02</internalNodes>
          <leafValues>
            -3.9534547924995422e-01 5.2917879819869995e-01</leafValues></_>
        <_>
          <internalNodes>
            0 -1 130 -1.6934412997215986e-05</internalNodes>
          <leafValues>
            -9.3022102117538452e-01 1.8288367986679077e-01</leafValues></_>
        <_>
          <internalNodes>
            0 -1 121 -9.5121719641610980e-04</internalNodes>
          <leafValues>
            7.2590726613998413e-01 -2.9327863454818726e-01</leafValues></_>
        <_>
          <internalNodes>
            0 -1 55 4.9924844643101096e-04</internalNodes>
          <leafValues>
            -6.2538599967956543e-01 3.0617299675941467e-01</leafValues></_>
        <_>
          <internalNodes>
            0 -1 122 4.3568955152295530e-04</internalNodes>
          <leafValues>
            -3.4320962429046631e-01 6.2295097112655640e-01</leafValues></_>
        <_>
          <internalNodes>
            0 -1 81 4.4710235670208931e-03</internalNodes>
          <leafValues>
            -8.1657588481903076e-01 2.9018351435661316e-01</leafValues></_>
        <_>
          <internalNodes>
            0 -1 188 -4.1889566928148270e-03</internalNodes>
          <leafValues>
            7.2213500738143921e-01 -3.1906732916831970e-01</leafValues></_></weakClassifiers></_>
    <!-- stage 11 -->
    <_>
      <maxWeakCount>13</maxWeakCount>
      <stageThreshold>-1.3383363485336304e+00</stageThreshold>
      <weakClassifiers>
        <_>
          <internalNodes>
            0 -1 54 -1.3655489310622215e-03</internalNodes>
          <leafValues>
            4.6910753846168518e-01 -7.5000000000000000e-01</leafValues></_>
        <_>
          <internalNodes>
            0 -1 78 5.1510473713278770e-03</internalNodes>
          <leafValues>
            -4.7763195633888245e-01 4.7625550627708435e-01</leafValues></_>
        <_>
          <internalNodes>
            0 -1 105 4.3135862797498703e-03</internalNodes>
          <leafValues>
            -7.2166162729263306e-01 3.5756987333297729e-01</leafValues></_>
        <_>
          <internalNodes>
            0 -1 16 4.1070831939578056e-03</internalNodes>
          <leafValues>
            -4.6499687433242798e-01 4.0641537308692932e-01</leafValues></_>
        <_>
          <internalNodes>
            0 -1 99 2.3438767530024052e-03</internalNodes>
          <leafValues>
            -4.8110201954841614e-01 3.5696256160736084e-01</leafValues></_>
        <_>
          <internalNodes>
            0 -1 194 -1.1977219954133034e-02</internalNodes>
          <leafValues>
            5.5942243337631226e-01 -3.7530514597892761e-01</leafValues></_>
        <_>
          <internalNodes>
            0 -1 182 1.3502431102097034e-05</internalNodes>
          <leafValues>
            2.8792977333068848e-01 -7.0429813861846924e-01</leafValues></_>
        <_>
          <internalNodes>
            0 -1 160 3.5146806389093399e-02</internalNodes>
          <leafValues>
            1.7693468928337097e-01 -7.5509768724441528e-01</leafValues></_>
        <_>
          <internalNodes>
            0 -1 43 7.1361176669597626e-03</internalNodes>
          <leafValues>
            -6.4343011379241943e-01 2.6169845461845398e-01</leafValues></_>
        <_>
          <internalNodes>
            0 -1 154 4.4095108023611829e-05</internalNodes>
          <leafValues>
            2.2490113973617554e-01 -7.6983618736267090e-01</leafValues></_>
        <_>
          <internalNodes>
            0 -1 57 -1.1167598888278008e-02</internalNodes>
          <leafValues>
            -9.0982043743133545e-01 1.3547793030738831e-01</leafValues></_>
        <_>
          <internalNodes>
            0 -1 116 -1.2443235391401686e-05</internalNodes>
          <leafValues>
            2.4858522415161133e-01 -6.6031008958816528e-01</leafValues></_>
        <_>
          <internalNodes>
            0 -1 31 2.6238117367029190e-02</internalNodes>
          <leafValues>
            -2.9451784491539001e-01 7.1077704429626465e-01</leafValues></_></weakClassifiers></_>
    <!-- stage 12 -->
    <_>
      <maxWeakCount>11</maxWeakCount>
      <stageThreshold>-1.2017664909362793e+00</stageThreshold>
      <weakClassifiers>
        <_>
          <internalNodes>
            0 -1 46 6.1246581375598907e-02</internalNodes>
          <leafValues>
            4.4786196947097778e-01 -7.4452555179595947e-01</leafValues></_>
        <_>
          <internalNodes>
            0 -1 3 -1.0039597749710083e-02</internalNodes>
          <leafValues>
            5.8060473203659058e-01 -2.5515925884246826e-01</leafValues></_>
        <_>
          <internalNodes>
            0 -1 164 -2.2629892919212580e-03</internalNodes>
          <leafValues>
            3.4120532870292664e-01 -4.5109397172927856e-01</leafValues></_>
        <_>
          <internalNodes>
            0 -1 87 1.6480087069794536e-03</internalNodes>
          <leafValues>
            -4.9476733803749084e-01 3.3486542105674744e-01</leafValues></_>
        <_>
          <internalNodes>
            0 -1 38 -2.5353919714689255e-02</internalNodes>
          <leafValues>
            7.3808258771896362e-01 -2.1133999526500702e-01</leafValues></_>
        <_>
          <internalNodes>
            0 -1 41 2.0104316994547844e-02</internalNodes>
          <leafValues>
            -3.5494950413703918e-01 5.5648678541183472e-01</leafValues></_>
        <_>
          <internalNodes>
            0 -1 131 -1.5452746083610691e-05</internalNodes>
          <leafValues>
            -9.1432160139083862e-01 1.8734546005725861e-01</leafValues></_>
        <_>
          <internalNodes>
            0 -1 169 5.8115404099225998e-03</internalNodes>
          <leafValues>
            1.8362744152545929e-01 -6.9909518957138062e-01</leafValues></_>
        <_>
          <internalNodes>
            0 -1 67 2.0280503667891026e-03</internalNodes>
          <leafValues>
            -5.8480465412139893e-01 2.5461959838867188e-01</leafValues></_>
        <_>
          <internalNodes>
            0 -1 176 4.2516998946666718e-03</internalNodes>
          <leafValues>
            2.1778394281864166e-01 -6.5310889482498169e-01</leafValues></_>
        <_>
          <internalNodes>
            0 -1 50 2.0956251770257950e-02</internalNodes>
          <leafValues>
            1.4885832369327545e-01 -8.2579600811004639e-01</leafValues></_></weakClassifiers></_>
    <!-- stage 13 -->
    <_>
      <maxWeakCount>12</maxWeakCount>
      <stageThreshold>-1.0087450742721558e+00</stageThreshold>
      <weakClassifiers>
        <_>
          <internalNodes>
            0 -1 185 2.1514968946576118e-02</internalNodes>
          <leafValues>
            -5.0428163260221481e-02 8.0215829610824585e-01</leafValues></_>
        <_>
          <internalNodes>
            0 -1 5 -1.4716709032654762e-02</internalNodes>
          <leafValues>
            6.2991911172866821e-01 -2.1083658933639526e-01</leafValues></_>
        <_>
          <internalNodes>
            0 -1 127 2.6966200675815344e-03</internalNodes>
          <leafValues>
            -7.0310801267623901e-01 2.5534182786941528e-01</leafValues></_>
        <_>
          <internalNodes>
            0 -1 85 -3.3046321477741003e-03</internalNodes>
          <leafValues>
            2.6614254713058472e-01 -5.3492200374603271e-01</leafValues></_>
        <_>
          <internalNodes>
            0 -1 86 8.2247089594602585e-03</internalNodes>
          <leafValues>
            1.8963403999805450e-01 -9.1902464628219604e-01</leafValues></_>
        <_>
          <internalNodes>
            0 -1 71 1.1539352126419544e-03</internalNodes>
          <leafValues>
            -7.6514524221420288e-01 1.5932247042655945e-01</leafValues></_>
        <_>
          <internalNodes>
            0 -1 7 -1.6716527752578259e-03</internalNodes>
          <leafValues>
            6.6595864295959473e-01 -2.4913345277309418e-01</leafValues></_>
        <_>
          <internalNodes>
            0 -1 172 1.1138649424538016e-03</internalNodes>
          <leafValues>
            -2.2997660934925079e-01 5.6310540437698364e-01</leafValues></_>
        <_>
          <internalNodes>
            0 -1 148 4.9354252405464649e-04</internalNodes>
          <leafValues>
            -1.4125221967697144e-01 8.0907195806503296e-01</leafValues></_>
        <_>
          <internalNodes>
            0 -1 62 6.8114893510937691e-03</internalNodes>
          <leafValues>
            -8.4137392044067383e-01 2.2430884838104248e-01</leafValues></_>
        <_>
          <internalNodes>
            0 -1 199 -4.6441081212833524e-04</internalNodes>
          <leafValues>
            6.4494264125823975e-01 -2.7304568886756897e-01</leafValues></_>
        <_>
          <internalNodes>
            0 -1 179 5.9723950922489166e-02</internalNodes>
          <leafValues>
            1.6781906783580780e-01 -9.4172674417495728e-01</leafValues></_></weakClassifiers></_>
    <!-- stage 14 -->
    <_>
      <maxWeakCount>10</maxWeakCount>
      <stageThreshold>-1.4426696300506592e+00</stageThreshold>
      <weakClassifiers>
        <_>
          <internalNodes>
            0 -1 63 1.6832441091537476e-02</internalNodes>
          <leafValues>
            -4.4398340582847595e-01 5.3955554962158203e-01</leafValues></_>
        <_>
          <internalNodes>
            0 -1 17 2.5891792029142380e-02</internalNodes>
          <leafValues>
            -4.2054104804992676e-01 4.1570630669593811e-01</leafValues></_>
        <_>
          <internalNodes>
            0 -1 197 -5.9846686199307442e-03</internalNodes>
          <leafValues>
            5.9862333536148071e-01 -2.9296943545341492e-01</leafValues></_>
        <_>
          <internalNodes>
            0 -1 109 8.5370114538818598e-04</internalNodes>
          <leafValues>
            -3.1552931666374207e-01 5.7725775241851807e-01</leafValues></_>
        <_>
          <internalNodes>
            0 -1 32 8.1595353782176971e-02</internalNodes>
          <leafValues>
            1.5894338488578796e-01 -9.0407836437225342e-01</leafValues></_>
        <_>
          <internalNodes>
            0 -1 27 -2.3649466037750244e-01</internalNodes>
          <leafValues>
            -9.3031400442123413e-01 1.4239214360713959e-01</leafValues></_>
        <_>
          <internalNodes>
            0 -1 184 -1.3000085949897766e-02</internalNodes>
          <leafValues>
            5.1219117641448975e-01 -3.3712458610534668e-01</leafValues></_>
        <_>
          <internalNodes>
            0 -1 143 -2.4064676836133003e-04</internalNodes>
          <leafValues>
            -9.7939163446426392e-01 1.5913939476013184e-01</leafValues></_>
        <_>
          <internalNodes>
            0 -1 108 1.1168319906573743e-04</internalNodes>
          <leafValues>
            1.6152295470237732e-01 -8.4938502311706543e-01</leafValues></_>
        <_>
          <internalNodes>
            0 -1 123 8.7835022713989019e-04</internalNodes>
          <leafValues>
            -2.5451964139938354e-01 7.8492760658264160e-01</leafValues></_></weakClassifiers></_>
    <!-- stage 15 -->
    <_>
      <maxWeakCount>15</maxWeakCount>
      <stageThreshold>-1.2307033538818359e+00</stageThreshold>
      <weakClassifiers>
        <_>
          <internalNodes>
            0 -1 21 -1.2558431364595890e-02</internalNodes>
          <leafValues>
            7.0540541410446167e-01 -1.4878892898559570e-01</leafValues></_>
        <_>
          <internalNodes>
            0 -1 111 -7.6346481218934059e-03</internalNodes>
          <leafValues>
            3.7719503045082092e-01 -4.6225190162658691e-01</leafValues></_>
        <_>
          <internalNodes>
            0 -1 24 4.5918814837932587e-02</internalNodes>
          <leafValues>
            -8.8188457489013672e-01 2.1104790270328522e-01</leafValues></_>
        <_>
          <internalNodes>
            0 -1 115 7.6140240707900375e-05</internalNodes>
          <leafValues>
            1.6775071620941162e-01 -7.9572296142578125e-01</leafValues></_>
        <_>
          <internalNodes>
            0 -1 173 2.0505874999798834e-04</internalNodes>
          <leafValues>
            2.0694203674793243e-01 -7.2082877159118652e-01</leafValues></_>
        <_>
          <internalNodes>
            0 -1 192 2.0505867898464203e-02</internalNodes>
          <leafValues>
            -2.9220771789550781e-01 5.3267002105712891e-01</leafValues></_>
        <_>
          <internalNodes>
            0 -1 2 -1.5777178108692169e-02</internalNodes>
          <leafValues>
            7.0066684484481812e-01 -1.9260601699352264e-01</leafValues></_>
        <_>
          <internalNodes>
            0 -1 106 -4.0956860175356269e-04</internalNodes>
          <leafValues>
            7.3035687208175659e-01 -1.8644829094409943e-01</leafValues></_>
        <_>
          <internalNodes>
            0 -1 82 6.4146532677114010e-03</internalNodes>
          <leafValues>
            -2.4414262175559998e-01 5.3848695755004883e-01</leafValues></_>
        <_>
          <internalNodes>
            0 -1 140 3.7237296346575022e-03</internalNodes>
          <leafValues>
            2.1343435347080231e-01 -8.5353094339370728e-01</leafValues></_>
        <_>
          <internalNodes>
            0 -1 162 4.5559327118098736e-03</internalNodes>
          <leafValues>
            -2.8068584203720093e-01 7.1774828433990479e-01</leafValues></_>
        <_>
          <internalNodes>
            0 -1 144 -9.0411202108953148e-05</internalNodes>
          <leafValues>
            -3.1337791681289673e-01 5.6304550170898438e-01</leafValues></_>
        <_>
          <internalNodes>
            0 -1 91 3.0178399756550789e-02</internalNodes>
          <leafValues>
            2.2559803724288940e-01 -8.7081706523895264e-01</leafValues></_>
        <_>
          <internalNodes>
            0 -1 68 -2.3739095777273178e-02</internalNodes>
          <leafValues>
            -8.3296555280685425e-01 1.1115114390850067e-01</leafValues></_>
        <_>
          <internalNodes>
            0 -1 61 8.6327213793992996e-03</internalNodes>
          <leafValues>
            -8.5804951190948486e-01 1.2526765465736389e-01</leafValues></_></weakClassifiers></_>
    <!-- stage 16 -->
    <_>
      <maxWeakCount>14</maxWeakCount>
      <stageThreshold>-1.2737100124359131e+00</stageThreshold>
      <weakClassifiers>
        <_>
          <internalNodes>
            0 -1 33 7.2756424546241760e-02</internalNodes>
          <leafValues>
            -3.9272728562355042e-01 5.7615894079208374e-01</leafValues></_>
        <_>
          <internalNodes>
            0 -1 42 -2.6206588372588158e-03</internalNodes>
          <leafValues>
            3.3567145466804504e-01 -5.7672536373138428e-01</leafValues></_>
        <_>
          <internalNodes>
            0 -1 159 9.6501344814896584e-03</internalNodes>
          <leafValues>
            -4.1562098264694214e-01 3.9225685596466064e-01</leafValues></_>
        <_>
          <internalNodes>
            0 -1 128 -1.7823034431785345e-03</internalNodes>
          <leafValues>
            2.3329301178455353e-01 -7.3025888204574585e-01</leafValues></_>
        <_>
          <internalNodes>
            0 -1 153 4.1859664634102955e-05</internalNodes>
          <leafValues>
            1.4497640728950500e-01 -7.2223550081253052e-01</leafValues></_>
        <_>
          <internalNodes>
            0 -1 150 -2.6017832569777966e-03</internalNodes>
          <leafValues>
            -8.8456797599792480e-01 1.5719856321811676e-01</leafValues></_>
        <_>
          <internalNodes>
            0 -1 25 5.7177683338522911e-03</internalNodes>
          <leafValues>
            -5.7629114389419556e-01 2.1913549304008484e-01</leafValues></_>
        <_>
          <internalNodes>
            0 -1 4 -1.0493742302060127e-02</internalNodes>
          <leafValues>
            6.1865103244781494e-01 -2.3157615959644318e-01</leafValues></_>
        <_>
          <internalNodes>
            0 -1 181 -9.9104130640625954e-05</internalNodes>
          <leafValues>
            -5.2733093500137329e-01 2.7022221684455872e-01</leafValues></_>
        <_>
          <internalNodes>
            0 -1 198 -1.5860281884670258e-02</internalNodes>
          <leafValues>
            5.9584784507751465e-01 -2.2116348147392273e-01</leafValues></_>
        <_>
          <internalNodes>
            0 -1 102 1.7875501653179526e-03</internalNodes>
          <leafValues>
            -5.0060129165649414e-01 2.9359364509582520e-01</leafValues></_>
        <_>
          <internalNodes>
            0 -1 119 1.2886164768133312e-05</internalNodes>
          <leafValues>
            1.2993150949478149e-01 -9.7827267646789551e-01</leafValues></_>
        <_>
          <internalNodes>
            0 -1 142 3.5844469675794244e-04</internalNodes>
          <leafValues>
            -2.4774655699729919e-01 5.9399646520614624e-01</leafValues></_>
        <_>
          <internalNodes>
            0 -1 171 -3.0401023104786873e-03</internalNodes>
          <leafValues>
            -8.9158952236175537e-01 1.8726429343223572e-01</leafValues></_></weakClassifiers></_>
    <!-- stage 17 -->
    <_>
      <maxWeakCount>11</maxWeakCount>
      <stageThreshold>-1.2816518545150757e+00</stageThreshold>
      <weakClassifiers>
        <_>
          <internalNodes>
            0 -1 48 -2.3331409320235252e-03</internalNodes>
          <leafValues>
            -7.4301677942276001e-01 5.2762210369110107e-01</leafValues></_>
        <_>
          <internalNodes>
            0 -1 183 2.5148112326860428e-02</internalNodes>
          <leafValues>
            -2.5699856877326965e-01 8.4128421545028687e-01</leafValues></_>
        <_>
          <internalNodes>
            0 -1 36 5.2093393169343472e-03</internalNodes>
          <leafValues>
            -4.5957690477371216e-01 3.9252656698226929e-01</leafValues></_>
        <_>
          <internalNodes>
            0 -1 45 -9.6255224198102951e-03</internalNodes>
          <leafValues>
            5.0056046247482300e-01 -3.1694418191909790e-01</leafValues></_>
        <_>
          <internalNodes>
            0 -1 178 -9.3814432621002197e-03</internalNodes>
          <leafValues>
            6.9512087106704712e-01 -2.3229567706584930e-01</leafValues></_>
        <_>
          <internalNodes>
            0 -1 139 -2.9833748703822494e-04</internalNodes>
          <leafValues>
            3.5007256269454956e-01 -4.5059469342231750e-01</leafValues></_>
        <_>
          <internalNodes>
            0 -1 195 -2.4612905690446496e-04</internalNodes>
          <leafValues>
            -4.8094651103019714e-01 3.3224800229072571e-01</leafValues></_>
        <_>
          <internalNodes>
            0 -1 12 -1.1026959866285324e-02</internalNodes>
          <leafValues>
            5.3294646739959717e-01 -2.7788570523262024e-01</leafValues></_>
        <_>
          <internalNodes>
            0 -1 136 4.5583027531392872e-04</internalNodes>
          <leafValues>
            -1.7203725874423981e-01 8.2192158699035645e-01</leafValues></_>
        <_>
          <internalNodes>
            0 -1 135 4.9559748731553555e-04</internalNodes>
          <leafValues>
            -1.8275976181030273e-01 7.8999733924865723e-01</leafValues></_>
        <_>
          <internalNodes>
            0 -1 51 -1.4505796134471893e-02</internalNodes>
          <leafValues>
            -8.6056941747665405e-01 2.2009813785552979e-01</leafValues></_></weakClassifiers></_>
    <!-- stage 18 -->
    <_>
      <maxWeakCount>14</maxWeakCount>
      <stageThreshold>-1.2404997348785400e+00</stageThreshold>
      <weakClassifiers>
        <_>
          <internalNodes>
            0 -1 6 1.9660656154155731e-01</internalNodes>
          <leafValues>
            4.5692306756973267e-01 -6.5472310781478882e-01</leafValues></_>
        <_>
          <internalNodes>
            0 -1 28 -2.2530615329742432e-02</internalNodes>
          <leafValues>
            6.9641679525375366e-01 -2.0989364385604858e-01</leafValues></_>
        <_>
          <internalNodes>
            0 -1 58 1.4913300052285194e-02</internalNodes>
          <leafValues>
            -1.9564676284790039e-01 7.7696174383163452e-01</leafValues></_>
        <_>
          <internalNodes>
            0 -1 70 1.8348414450883865e-02</internalNodes>
          <leafValues>
            2.2146660089492798e-01 -7.3524665832519531e-01</leafValues></_>
        <_>
          <internalNodes>
            0 -1 11 -2.0114485174417496e-02</internalNodes>
          <leafValues>
            3.9304766058921814e-01 -3.4530228376388550e-01</leafValues></_>
        <_>
          <internalNodes>
            0 -1 74 3.2468931749463081e-03</internalNodes>
          <leafValues>
            -4.9823218584060669e-01 2.6200270652770996e-01</leafValues></_>
        <_>
          <internalNodes>
            0 -1 15 1.2988058850169182e-02</internalNodes>
          <leafValues>
            -2.7615356445312500e-01 5.1397937536239624e-01</leafValues></_>
        <_>
          <internalNodes>
            0 -1 84 1.1303299106657505e-03</internalNodes>
          <leafValues>
            -3.8653743267059326e-01 3.2856476306915283e-01</leafValues></_>
        <_>
          <internalNodes>
            0 -1 190 -1.4133512740954757e-04</internalNodes>
          <leafValues>
            -4.9427038431167603e-01 2.4863912165164948e-01</leafValues></_>
        <_>
          <internalNodes>
            0 -1 92 -9.7329299896955490e-03</internalNodes>
          <leafValues>
            5.4003345966339111e-01 -2.1785318851470947e-01</leafValues></_>
        <_>
          <internalNodes>
            0 -1 134 1.0164987761527300e-03</internalNodes>
          <leafValues>
            -1.6271646320819855e-01 6.7239075899124146e-01</leafValues></_>
        <_>
          <internalNodes>
            0 -1 39 -2.7432404458522797e-02</internalNodes>
          <leafValues>
            -7.3406076431274414e-01 1.9738009572029114e-01</leafValues></_>
        <_>
          <internalNodes>
            0 -1 1 3.5000242292881012e-02</internalNodes>
          <leafValues>
            -2.7147325873374939e-01 5.2286148071289062e-01</leafValues></_>
        <_>
          <internalNodes>
            0 -1 65 1.0606608120724559e-03</internalNodes>
          <leafValues>
            -2.4458551406860352e-01 5.5031144618988037e-01</leafValues></_></weakClassifiers></_>
    <!-- stage 19 -->
    <_>
      <maxWeakCount>14</maxWeakCount>
      <stageThreshold>-1.2594157457351685e+00</stageThreshold>
      <weakClassifiers>
        <_>
          <internalNodes>
            0 -1 168 1.3121329247951508e-02</internalNodes>
          <leafValues>
            -1.4846625924110413e-01 6.4898991584777832e-01</leafValues></_>
        <_>
          <internalNodes>
            0 -1 95 -3.5465245600789785e-03</internalNodes>
          <leafValues>
            4.0304014086723328e-01 -3.8967159390449524e-01</leafValues></_>
        <_>
          <internalNodes>
            0 -1 155 2.4486174806952477e-03</internalNodes>
          <leafValues>
            -5.7981884479522705e-01 2.5635468959808350e-01</leafValues></_>
        <_>
          <internalNodes>
            0 -1 80 -8.6567195830866694e-04</internalNodes>
          <leafValues>
            -9.0578413009643555e-01 1.3480974733829498e-01</leafValues></_>
        <_>
          <internalNodes>
            0 -1 137 -1.1855809716507792e-03</internalNodes>
          <leafValues>
            1.8934312462806702e-01 -5.9928703308105469e-01</leafValues></_>
        <_>
          <internalNodes>
            0 -1 104 -2.8451236430555582e-03</internalNodes>
          <leafValues>
            6.4540517330169678e-01 -2.1155984699726105e-01</leafValues></_>
        <_>
          <internalNodes>
            0 -1 30 2.5646125897765160e-02</internalNodes>
          <leafValues>
            -3.7388578057289124e-01 5.1583063602447510e-01</leafValues></_>
        <_>
          <internalNodes>
            0 -1 52 1.4606594108045101e-02</internalNodes>
          <leafValues>
            -2.5911456346511841e-01 5.8154988288879395e-01</leafValues></_>
        <_>
          <internalNodes>
            0 -1 156 1.2568058446049690e-02</internalNodes>
          <leafValues>
            -2.0052982866764069e-01 6.8164545297622681e-01</leafValues></_>
        <_>
          <internalNodes>
            0 -1 10 -7.7913245186209679e-03</internalNodes>
          <leafValues>
            6.6523891687393188e-01 -2.0056192576885223e-01</leafValues></_>
        <_>
          <internalNodes>
            0 -1 112 -7.8010261058807373e-03</internalNodes>
          <leafValues>
            -8.7864780426025391e-01 1.5928886830806732e-01</leafValues></_>
        <_>
          <internalNodes>
            0 -1 79 2.8096549212932587e-03</internalNodes>
          <leafValues>
            -5.6732326745986938e-01 2.1626788377761841e-01</leafValues></_>
        <_>
          <internalNodes>
            0 -1 103 6.5879419445991516e-02</internalNodes>
          <leafValues>
            1.9207242131233215e-01 -7.0967483520507812e-01</leafValues></_>
        <_>
          <internalNodes>
            0 -1 97 -2.2587431885767728e-04</internalNodes>
          <leafValues>
            -9.3036401271820068e-01 1.3020108640193939e-01</leafValues></_></weakClassifiers></_></stages>
  <features>
    <_>
      <rects>
        <_>
          0 2 12 28 -1.</_>
        <_>
          0 2 6 14 2.</_>
        <_>
          6 16 6 14 2.</_></rects>
      <tilted>0</tilted></_>
    <_>
      <rects>
        <_>
          0 3 12 28 -1.</_>
        <_>
          0 3 6 14 2.</_>
        <_>
          6 17 6 14 2.</_></rects>
      <tilted>0</tilted></_>
    <_>
      <rects>
        <_>
          0 8 8 18 -1.</_>
        <_>
          2 8 4 18 2.</_></rects>
      <tilted>0</tilted></_>
    <_>
      <rects>
        <_>
          0 8 12 9 -1.</_>
        <_>
          3 8 6 9 2.</_></rects>
      <tilted>0</tilted></_>
    <_>
      <rects>
        <_>
          0 10 6 18 -1.</_>
        <_>
          2 10 2 18 3.</_></rects>
      <tilted>0</tilted></_>
    <_>
      <rects>
        <_>
          0 10 8 22 -1.</_>
        <_>
          2 10 4 22 2.</_></rects>
      <tilted>0</tilted></_>
    <_>
      <rects>
        <_>
          0 10 40 21 -1.</_>
        <_>
          0 17 40 7 3.</_></rects>
      <tilted>0</tilted></_>
    <_>
      <rects>
        <_>
          0 12 3 15 -1.</_>
        <_>
          1 12 1 15 3.</_></rects>
      <tilted>0</tilted></_>
    <_>
      <rects>
        <_>
          0 12 32 20 -1.</_>
        <_>
          0 17 32 10 2.</_></rects>
      <tilted>0</tilted></_>
    <_>
      <rects>
        <_>
          0 16 26 4 -1.</_>
        <_>
          0 16 13 2 2.</_>
        <_>
          13 18 13 2 2.</_></rects>
      <tilted>0</tilted></_>
    <_>
      <rects>
        <_>
          0 24 9 5 -1.</_>
        <_>
          3 24 3 5 3.</_></rects>
      <tilted>0</tilted></_>
    <_>
      <rects>
        <_>
          0 24 18 16 -1.</_>
        <_>
          0 24 9 8 2.</_>
        <_>
          9 32 9 8 2.</_></rects>
      <tilted>0</tilted></_>
    <_>
      <rects>
        <_>
          1 13 6 26 -1.</_>
        <_>
          1 13 3 13 2.</_>
        <_>
          4 26 3 13 2.</_></rects>
      <tilted>0</tilted></_>
    <_>
      <rects>
        <_>
          1 17 8 8 -1.</_>
        <_>
          5 17 4 8 2.</_></rects>
      <tilted>0</tilted></_>
    <_>
      <rects>
        <_>
          1 19 12 20 -1.</_>
        <_>
          1 19 6 10 2.</_>
        <_>
          7 29 6 10 2.</_></rects>
      <tilted>0</tilted></_>
    <_>
      <rects>
        <_>
          2 1 14 12 -1.</_>
        <_>
          2 1 7 6 2.</_>
        <_>
          9 7 7 6 2.</_></rects>
      <tilted>0</tilted></_>
    <_>
      <rects>
        <_>
          2 10 18 1 -1.</_>
        <_>
          11 10 9 1 2.</_></rects>
      <tilted>0</tilted></_>
    <_>
      <rects>
        <_>
          2 11 10 16 -1.</_>
        <_>
          7 11 5 16 2.</_></rects>
      <tilted>0</tilted></_>
    <_>
      <rects>
        <_>
          3 22 18 4 -1.</_>
        <_>
          9 22 6 4 3.</_></rects>
      <tilted>0</tilted></_>
    <_>
      <rects>
        <_>
          4 22 15 4 -1.</_>
        <_>
          9 22 5 4 3.</_></rects>
      <tilted>0</tilted></_>
    <_>
      <rects>
        <_>
          4 23 15 3 -1.</_>
        <_>
          9 23 5 3 3.</_></rects>
      <tilted>0</tilted></_>
    <_>
      <rects>
        <_>
          5 7 12 10 -1.</_>
        <_>
          5 7 6 5 2.</_>
        <_>
          11 12 6 5 2.</_></rects>
      <tilted>0</tilted></_>
    <_>
      <rects>
        <_>
          5 10 16 16 -1.</_>
        <_>
          9 10 8 16 2.</_></rects>
      <tilted>0</tilted></_>
    <_>
      <rects>
        <_>
          5 13 8 5 -1.</_>
        <_>
          7 13 4 5 2.</_></rects>
      <tilted>0</tilted></_>
    <_>
      <rects>
        <_>
          5 16 33 9 -1.</_>
        <_>
          16 19 11 3 9.</_></rects>
      <tilted>0</tilted></_>
    <_>
      <rects>
        <_>
          5 22 15 3 -1.</_>
        <_>
          10 23 5 1 9.</_></rects>
      <tilted>0</tilted></_>
    <_>
      <rects>
        <_>
          6 1 9 6 -1.</_>
        <_>
          9 4 3 6 3.</_></rects>
      <tilted>1</tilted></_>
    <_>
      <rects>
        <_>
          6 4 34 35 -1.</_>
        <_>
          23 4 17 35 2.</_></rects>
      <tilted>0</tilted></_>
    <_>
      <rects>
        <_>
          6 9 22 12 -1.</_>
        <_>
          6 9 11 6 2.</_>
        <_>
          17 15 11 6 2.</_></rects>
      <tilted>0</tilted></_>
    <_>
      <rects>
        <_>
          6 11 24 10 -1.</_>
        <_>
          6 11 12 5 2.</_>
        <_>
          18 16 12 5 2.</_></rects>
      <tilted>0</tilted></_>
    <_>
      <rects>
        <_>
          6 14 14 12 -1.</_>
        <_>
          6 18 14 4 3.</_></rects>
      <tilted>0</tilted></_>
    <_>
      <rects>
        <_>
          7 12 26 8 -1.</_>
        <_>
          7 12 13 4 2.</_>
        <_>
          20 16 13 4 2.</_></rects>
      <tilted>0</tilted></_>
    <_>
      <rects>
        <_>
          7 12 30 20 -1.</_>
        <_>
          22 12 15 20 2.</_></rects>
      <tilted>0</tilted></_>
    <_>
      <rects>
        <_>
          7 12 26 24 -1.</_>
        <_>
          7 20 26 8 3.</_></rects>
      <tilted>0</tilted></_>
    <_>
      <rects>
        <_>
          7 24 16 10 -1.</_>
        <_>
          15 24 8 10 2.</_></rects>
      <tilted>0</tilted></_>
    <_>
      <rects>
        <_>
          7 27 27 4 -1.</_>
        <_>
          16 27 9 4 3.</_></rects>
      <tilted>0</tilted></_>
    <_>
      <rects>
        <_>
          8 8 24 3 -1.</_>
        <_>
          14 8 12 3 2.</_></rects>
      <tilted>0</tilted></_>
    <_>
      <rects>
        <_>
          8 10 8 8 -1.</_>
        <_>
          8 10 4 4 2.</_>
        <_>
          12 14 4 4 2.</_></rects>
      <tilted>0</tilted></_>
    <_>
      <rects>
        <_>
          8 11 20 10 -1.</_>
        <_>
          8 11 10 5 2.</_>
        <_>
          18 16 10 5 2.</_></rects>
      <tilted>0</tilted></_>
    <_>
      <rects>
        <_>
          8 14 24 21 -1.</_>
        <_>
          16 14 8 21 3.</_></rects>
      <tilted>0</tilted></_>
    <_>
      <rects>
        <_>
          9 3 21 12 -1.</_>
        <_>
          16 7 7 4 9.</_></rects>
      <tilted>0</tilted></_>
    <_>
      <rects>
        <_>
          9 11 26 10 -1.</_>
        <_>
          9 11 13 5 2.</_>
        <_>
          22 16 13 5 2.</_></rects>
      <tilted>0</tilted></_>
    <_>
      <rects>
        <_>
          9 13 12 7 -1.</_>
        <_>
          13 13 4 7 3.</_></rects>
      <tilted>0</tilted></_>
    <_>
      <rects>
        <_>
          9 15 9 8 -1.</_>
        <_>
          9 15 9 4 2.</_></rects>
      <tilted>1</tilted></_>
    <_>
      <rects>
        <_>
          9 23 10 8 -1.</_>
        <_>
          9 27 10 4 2.</_></rects>
      <tilted>0</tilted></_>
    <_>
      <rects>
        <_>
          10 7 17 6 -1.</_>
        <_>
          8 9 17 2 3.</_></rects>
      <tilted>1</tilted></_>
    <_>
      <rects>
        <_>
          10 10 21 18 -1.</_>
        <_>
          10 16 21 6 3.</_></rects>
      <tilted>0</tilted></_>
    <_>
      <rects>
        <_>
          10 12 9 12 -1.</_>
        <_>
          10 16 9 4 3.</_></rects>
      <tilted>0</tilted></_>
    <_>
      <rects>
        <_>
          10 12 9 16 -1.</_>
        <_>
          10 20 9 8 2.</_></rects>
      <tilted>0</tilted></_>
    <_>
      <rects>
        <_>
          10 12 22 8 -1.</_>
        <_>
          10 12 11 4 2.</_>
        <_>
          21 16 11 4 2.</_></rects>
      <tilted>0</tilted></_>
    <_>
      <rects>
        <_>
          10 13 20 14 -1.</_>
        <_>
          15 13 10 14 2.</_></rects>
      <tilted>0</tilted></_>
    <_>
      <rects>
        <_>
          10 13 14 15 -1.</_>
        <_>
          17 13 7 15 2.</_></rects>
      <tilted>0</tilted></_>
    <_>
      <rects>
        <_>
          10 13 22 8 -1.</_>
        <_>
          10 13 11 4 2.</_>
        <_>
          21 17 11 4 2.</_></rects>
      <tilted>0</tilted></_>
    <_>
      <rects>
        <_>
          10 17 22 16 -1.</_>
        <_>
          10 21 22 8 2.</_></rects>
      <tilted>0</tilted></_>
    <_>
      <rects>
        <_>
          10 23 21 4 -1.</_>
        <_>
          17 23 7 4 3.</_></rects>
      <tilted>0</tilted></_>
    <_>
      <rects>
        <_>
          10 24 2 4 -1.</_>
        <_>
          10 24 2 2 2.</_></rects>
      <tilted>1</tilted></_>
    <_>
      <rects>
        <_>
          11 9 18 16 -1.</_>
        <_>
          11 13 18 8 2.</_></rects>
      <tilted>0</tilted></_>
    <_>
      <rects>
        <_>
          11 10 18 22 -1.</_>
        <_>
          17 10 6 22 3.</_></rects>
      <tilted>0</tilted></_>
    <_>
      <rects>
        <_>
          11 14 18 6 -1.</_>
        <_>
          11 14 9 3 2.</_>
        <_>
          20 17 9 3 2.</_></rects>
      <tilted>0</tilted></_>
    <_>
      <rects>
        <_>
          11 15 18 7 -1.</_>
        <_>
          17 15 6 7 3.</_></rects>
      <tilted>0</tilted></_>
    <_>
      <rects>
        <_>
          11 17 18 3 -1.</_>
        <_>
          17 18 6 1 9.</_></rects>
      <tilted>0</tilted></_>
    <_>
      <rects>
        <_>
          11 17 18 4 -1.</_>
        <_>
          17 17 6 4 3.</_></rects>
      <tilted>0</tilted></_>
    <_>
      <rects>
        <_>
          11 17 21 5 -1.</_>
        <_>
          18 17 7 5 3.</_></rects>
      <tilted>0</tilted></_>
    <_>
      <rects>
        <_>
          12 5 16 17 -1.</_>
        <_>
          16 5 8 17 2.</_></rects>
      <tilted>0</tilted></_>
    <_>
      <rects>
        <_>
          12 21 6 12 -1.</_>
        <_>
          9 24 6 6 2.</_></rects>
      <tilted>1</tilted></_>
    <_>
      <rects>
        <_>
          12 22 6 2 -1.</_>
        <_>
          14 22 2 2 3.</_></rects>
      <tilted>0</tilted></_>
    <_>
      <rects>
        <_>
          12 23 16 4 -1.</_>
        <_>
          16 23 8 4 2.</_></rects>
      <tilted>0</tilted></_>
    <_>
      <rects>
        <_>
          13 3 16 8 -1.</_>
        <_>
          17 3 8 8 2.</_></rects>
      <tilted>0</tilted></_>
    <_>
      <rects>
        <_>
          13 8 14 24 -1.</_>
        <_>
          13 8 7 12 2.</_>
        <_>
          20 20 7 12 2.</_></rects>
      <tilted>0</tilted></_>
    <_>
      <rects>
        <_>
          13 10 14 12 -1.</_>
        <_>
          13 13 14 6 2.</_></rects>
      <tilted>0</tilted></_>
    <_>
      <rects>
        <_>
          13 11 8 16 -1.</_>
        <_>
          17 11 4 16 2.</_></rects>
      <tilted>0</tilted></_>
    <_>
      <rects>
        <_>
          13 14 6 18 -1.</_>
        <_>
          13 20 6 6 3.</_></rects>
      <tilted>0</tilted></_>
    <_>
      <rects>
        <_>
          13 15 12 8 -1.</_>
        <_>
          13 19 12 4 2.</_></rects>
      <tilted>0</tilted></_>
    <_>
      <rects>
        <_>
          13 16 15 5 -1.</_>
        <_>
          18 16 5 5 3.</_></rects>
      <tilted>0</tilted></_>
    <_>
      <rects>
        <_>
          13 16 15 10 -1.</_>
        <_>
          13 21 15 5 2.</_></rects>
      <tilted>0</tilted></_>
    <_>
      <rects>
        <_>
          14 2 9 11 -1.</_>
        <_>
          17 5 3 11 3.</_></rects>
      <tilted>1</tilted></_>
    <_>
      <rects>
        <_>
          14 2 12 20 -1.</_>
        <_>
          17 2 6 20 2.</_></rects>
      <tilted>0</tilted></_>
    <_>
      <rects>
        <_>
          14 10 14 20 -1.</_>
        <_>
          14 10 7 10 2.</_>
        <_>
          21 20 7 10 2.</_></rects>
      <tilted>0</tilted></_>
    <_>
      <rects>
        <_>
          14 15 6 5 -1.</_>
        <_>
          16 17 2 5 3.</_></rects>
      <tilted>1</tilted></_>
    <_>
      <rects>
        <_>
          14 19 6 6 -1.</_>
        <_>
          12 21 6 2 3.</_></rects>
      <tilted>1</tilted></_>
    <_>
      <rects>
        <_>
          14 19 12 2 -1.</_>
        <_>
          14 20 12 1 2.</_></rects>
      <tilted>0</tilted></_>
    <_>
      <rects>
        <_>
          15 12 12 2 -1.</_>
        <_>
          19 16 4 2 3.</_></rects>
      <tilted>1</tilted></_>
    <_>
      <rects>
        <_>
          15 13 8 7 -1.</_>
        <_>
          17 13 4 7 2.</_></rects>
      <tilted>0</tilted></_>
    <_>
      <rects>
        <_>
          15 14 11 12 -1.</_>
        <_>
          15 18 11 4 3.</_></rects>
      <tilted>0</tilted></_>
    <_>
      <rects>
        <_>
          15 19 6 1 -1.</_>
        <_>
          15 19 3 1 2.</_></rects>
      <tilted>1</tilted></_>
    <_>
      <rects>
        <_>
          15 23 18 8 -1.</_>
        <_>
          15 23 9 4 2.</_>
        <_>
          24 27 9 4 2.</_></rects>
      <tilted>0</tilted></_>
    <_>
      <rects>
        <_>
          16 15 8 12 -1.</_>
        <_>
          16 21 8 6 2.</_></rects>
      <tilted>0</tilted></_>
    <_>
      <rects>
        <_>
          16 16 4 7 -1.</_>
        <_>
          17 17 2 7 2.</_></rects>
      <tilted>1</tilted></_>
    <_>
      <rects>
        <_>
          16 20 4 8 -1.</_>
        <_>
          14 22 4 4 2.</_></rects>
      <tilted>1</tilted></_>
    <_>
      <rects>
        <_>
          16 21 5 4 -1.</_>
        <_>
          15 22 5 2 2.</_></rects>
      <tilted>1</tilted></_>
    <_>
      <rects>
        <_>
          17 0 8 13 -1.</_>
        <_>
          19 2 4 13 2.</_></rects>
      <tilted>1</tilted></_>
    <_>
      <rects>
        <_>
          17 10 7 18 -1.</_>
        <_>
          17 19 7 9 2.</_></rects>
      <tilted>0</tilted></_>
    <_>
      <rects>
        <_>
          17 13 12 17 -1.</_>
        <_>
          20 13 6 17 2.</_></rects>
      <tilted>0</tilted></_>
    <_>
      <rects>
        <_>
          17 14 6 12 -1.</_>
        <_>
          19 18 2 4 9.</_></rects>
      <tilted>0</tilted></_>
    <_>
      <rects>
        <_>
          17 14 7 12 -1.</_>
        <_>
          17 18 7 4 3.</_></rects>
      <tilted>0</tilted></_>
    <_>
      <rects>
        <_>
          17 15 4 16 -1.</_>
        <_>
          17 15 2 8 2.</_>
        <_>
          19 23 2 8 2.</_></rects>
      <tilted>0</tilted></_>
    <_>
      <rects>
        <_>
          17 17 4 12 -1.</_>
        <_>
          17 17 2 6 2.</_>
        <_>
          19 23 2 6 2.</_></rects>
      <tilted>0</tilted></_>
    <_>
      <rects>
        <_>
          17 17 4 4 -1.</_>
        <_>
          17 18 4 2 2.</_></rects>
      <tilted>0</tilted></_>
    <_>
      <rects>
        <_>
          17 17 5 10 -1.</_>
        <_>
          17 22 5 5 2.</_></rects>
      <tilted>0</tilted></_>
    <_>
      <rects>
        <_>
          17 19 6 3 -1.</_>
        <_>
          19 19 2 3 3.</_></rects>
      <tilted>0</tilted></_>
    <_>
      <rects>
        <_>
          17 19 6 4 -1.</_>
        <_>
          19 19 2 4 3.</_></rects>
      <tilted>0</tilted></_>
    <_>
      <rects>
        <_>
          17 21 6 2 -1.</_>
        <_>
          19 21 2 2 3.</_></rects>
      <tilted>0</tilted></_>
    <_>
      <rects>
        <_>
          17 22 3 6 -1.</_>
        <_>
          15 24 3 2 3.</_></rects>
      <tilted>1</tilted></_>
    <_>
      <rects>
        <_>
          18 8 9 27 -1.</_>
        <_>
          21 17 3 9 9.</_></rects>
      <tilted>0</tilted></_>
    <_>
      <rects>
        <_>
          18 13 8 7 -1.</_>
        <_>
          20 13 4 7 2.</_></rects>
      <tilted>0</tilted></_>
    <_>
      <rects>
        <_>
          18 13 7 20 -1.</_>
        <_>
          18 18 7 10 2.</_></rects>
      <tilted>0</tilted></_>
    <_>
      <rects>
        <_>
          18 15 3 3 -1.</_>
        <_>
          19 15 1 3 3.</_></rects>
      <tilted>0</tilted></_>
    <_>
      <rects>
        <_>
          18 18 4 4 -1.</_>
        <_>
          19 18 2 4 2.</_></rects>
      <tilted>0</tilted></_>
    <_>
      <rects>
        <_>
          18 18 4 1 -1.</_>
        <_>
          18 18 2 1 2.</_></rects>
      <tilted>1</tilted></_>
    <_>
      <rects>
        <_>
          18 21 4 4 -1.</_>
        <_>
          18 22 4 2 2.</_></rects>
      <tilted>0</tilted></_>
    <_>
      <rects>
        <_>
          18 23 4 7 -1.</_>
        <_>
          19 23 2 7 2.</_></rects>
      <tilted>0</tilted></_>
    <_>
      <rects>
        <_>
          19 12 12 10 -1.</_>
        <_>
          23 12 4 10 3.</_></rects>
      <tilted>0</tilted></_>
    <_>
      <rects>
        <_>
          19 12 15 4 -1.</_>
        <_>
          24 17 5 4 3.</_></rects>
      <tilted>1</tilted></_>
    <_>
      <rects>
        <_>
          19 15 6 1 -1.</_>
        <_>
          19 15 3 1 2.</_></rects>
      <tilted>1</tilted></_>
    <_>
      <rects>
        <_>
          19 15 4 14 -1.</_>
        <_>
          19 22 4 7 2.</_></rects>
      <tilted>0</tilted></_>
    <_>
      <rects>
        <_>
          19 16 6 8 -1.</_>
        <_>
          17 18 6 4 2.</_></rects>
      <tilted>1</tilted></_>
    <_>
      <rects>
        <_>
          19 17 9 4 -1.</_>
        <_>
          22 20 3 4 3.</_></rects>
      <tilted>1</tilted></_>
    <_>
      <rects>
        <_>
          19 18 20 3 -1.</_>
        <_>
          29 18 10 3 2.</_></rects>
      <tilted>0</tilted></_>
    <_>
      <rects>
        <_>
          19 19 2 1 -1.</_>
        <_>
          19 19 1 1 2.</_></rects>
      <tilted>1</tilted></_>
    <_>
      <rects>
        <_>
          19 19 4 2 -1.</_>
        <_>
          21 19 2 2 2.</_></rects>
      <tilted>0</tilted></_>
    <_>
      <rects>
        <_>
          19 19 4 3 -1.</_>
        <_>
          21 19 2 3 2.</_></rects>
      <tilted>0</tilted></_>
    <_>
      <rects>
        <_>
          19 23 2 2 -1.</_>
        <_>
          19 24 2 1 2.</_></rects>
      <tilted>0</tilted></_>
    <_>
      <rects>
        <_>
          19 23 2 3 -1.</_>
        <_>
          19 24 2 1 3.</_></rects>
      <tilted>0</tilted></_>
    <_>
      <rects>
        <_>
          19 23 2 4 -1.</_>
        <_>
          19 24 2 2 2.</_></rects>
      <tilted>0</tilted></_>
    <_>
      <rects>
        <_>
          19 25 4 3 -1.</_>
        <_>
          19 26 4 1 3.</_></rects>
      <tilted>0</tilted></_>
    <_>
      <rects>
        <_>
          20 3 12 6 -1.</_>
        <_>
          24 7 4 6 3.</_></rects>
      <tilted>1</tilted></_>
    <_>
      <rects>
        <_>
          20 13 10 2 -1.</_>
        <_>
          20 13 5 2 2.</_></rects>
      <tilted>1</tilted></_>
    <_>
      <rects>
        <_>
          20 15 5 8 -1.</_>
        <_>
          20 19 5 4 2.</_></rects>
      <tilted>0</tilted></_>
    <_>
      <rects>
        <_>
          20 16 8 9 -1.</_>
        <_>
          17 19 8 3 3.</_></rects>
      <tilted>1</tilted></_>
    <_>
      <rects>
        <_>
          20 17 2 4 -1.</_>
        <_>
          20 17 2 2 2.</_></rects>
      <tilted>1</tilted></_>
    <_>
      <rects>
        <_>
          20 18 1 2 -1.</_>
        <_>
          20 18 1 1 2.</_></rects>
      <tilted>1</tilted></_>
    <_>
      <rects>
        <_>
          20 18 2 2 -1.</_>
        <_>
          20 18 2 1 2.</_></rects>
      <tilted>1</tilted></_>
    <_>
      <rects>
        <_>
          20 18 4 10 -1.</_>
        <_>
          20 18 2 5 2.</_>
        <_>
          22 23 2 5 2.</_></rects>
      <tilted>0</tilted></_>
    <_>
      <rects>
        <_>
          20 22 18 5 -1.</_>
        <_>
          26 22 6 5 3.</_></rects>
      <tilted>0</tilted></_>
    <_>
      <rects>
        <_>
          20 24 3 3 -1.</_>
        <_>
          21 25 1 1 9.</_></rects>
      <tilted>0</tilted></_>
    <_>
      <rects>
        <_>
          20 27 1 3 -1.</_>
        <_>
          20 28 1 1 3.</_></rects>
      <tilted>0</tilted></_>
    <_>
      <rects>
        <_>
          20 28 1 3 -1.</_>
        <_>
          20 29 1 1 3.</_></rects>
      <tilted>0</tilted></_>
    <_>
      <rects>
        <_>
          21 2 6 18 -1.</_>
        <_>
          24 2 3 18 2.</_></rects>
      <tilted>0</tilted></_>
    <_>
      <rects>
        <_>
          21 13 12 2 -1.</_>
        <_>
          21 13 6 2 2.</_></rects>
      <tilted>1</tilted></_>
    <_>
      <rects>
        <_>
          21 14 4 12 -1.</_>
        <_>
          22 14 2 12 2.</_></rects>
      <tilted>0</tilted></_>
    <_>
      <rects>
        <_>
          21 14 2 8 -1.</_>
        <_>
          21 14 2 4 2.</_></rects>
      <tilted>1</tilted></_>
    <_>
      <rects>
        <_>
          21 15 2 8 -1.</_>
        <_>
          21 15 2 4 2.</_></rects>
      <tilted>1</tilted></_>
    <_>
      <rects>
        <_>
          21 17 2 4 -1.</_>
        <_>
          21 17 1 2 2.</_>
        <_>
          22 19 1 2 2.</_></rects>
      <tilted>0</tilted></_>
    <_>
      <rects>
        <_>
          21 17 4 2 -1.</_>
        <_>
          21 17 2 2 2.</_></rects>
      <tilted>1</tilted></_>
    <_>
      <rects>
        <_>
          21 18 4 1 -1.</_>
        <_>
          23 18 2 1 2.</_></rects>
      <tilted>0</tilted></_>
    <_>
      <rects>
        <_>
          21 18 4 8 -1.</_>
        <_>
          19 20 4 4 2.</_></rects>
      <tilted>1</tilted></_>
    <_>
      <rects>
        <_>
          21 19 1 3 -1.</_>
        <_>
          21 20 1 1 3.</_></rects>
      <tilted>0</tilted></_>
    <_>
      <rects>
        <_>
          21 21 16 1 -1.</_>
        <_>
          29 21 8 1 2.</_></rects>
      <tilted>0</tilted></_>
    <_>
      <rects>
        <_>
          21 22 1 4 -1.</_>
        <_>
          21 23 1 2 2.</_></rects>
      <tilted>0</tilted></_>
    <_>
      <rects>
        <_>
          22 4 12 3 -1.</_>
        <_>
          21 5 12 1 3.</_></rects>
      <tilted>1</tilted></_>
    <_>
      <rects>
        <_>
          22 12 5 12 -1.</_>
        <_>
          19 15 5 6 2.</_></rects>
      <tilted>1</tilted></_>
    <_>
      <rects>
        <_>
          22 16 4 6 -1.</_>
        <_>
          22 16 2 6 2.</_></rects>
      <tilted>1</tilted></_>
    <_>
      <rects>
        <_>
          22 17 4 2 -1.</_>
        <_>
          22 17 2 2 2.</_></rects>
      <tilted>1</tilted></_>
    <_>
      <rects>
        <_>
          22 17 8 3 -1.</_>
        <_>
          24 19 4 3 2.</_></rects>
      <tilted>1</tilted></_>
    <_>
      <rects>
        <_>
          22 19 1 2 -1.</_>
        <_>
          22 19 1 1 2.</_></rects>
      <tilted>1</tilted></_>
    <_>
      <rects>
        <_>
          22 22 15 3 -1.</_>
        <_>
          27 23 5 1 9.</_></rects>
      <tilted>0</tilted></_>
    <_>
      <rects>
        <_>
          23 6 9 7 -1.</_>
        <_>
          26 9 3 7 3.</_></rects>
      <tilted>1</tilted></_>
    <_>
      <rects>
        <_>
          23 12 6 9 -1.</_>
        <_>
          20 15 6 3 3.</_></rects>
      <tilted>1</tilted></_>
    <_>
      <rects>
        <_>
          24 5 8 17 -1.</_>
        <_>
          24 5 4 17 2.</_></rects>
      <tilted>1</tilted></_>
    <_>
      <rects>
        <_>
          24 6 10 14 -1.</_>
        <_>
          24 6 5 7 2.</_>
        <_>
          29 13 5 7 2.</_></rects>
      <tilted>0</tilted></_>
    <_>
      <rects>
        <_>
          24 6 11 16 -1.</_>
        <_>
          20 10 11 8 2.</_></rects>
      <tilted>1</tilted></_>
    <_>
      <rects>
        <_>
          24 11 10 6 -1.</_>
        <_>
          24 11 5 3 2.</_>
        <_>
          29 14 5 3 2.</_></rects>
      <tilted>0</tilted></_>
    <_>
      <rects>
        <_>
          24 13 4 3 -1.</_>
        <_>
          24 13 2 3 2.</_></rects>
      <tilted>1</tilted></_>
    <_>
      <rects>
        <_>
          24 13 10 5 -1.</_>
        <_>
          24 13 5 5 2.</_></rects>
      <tilted>1</tilted></_>
    <_>
      <rects>
        <_>
          24 14 8 8 -1.</_>
        <_>
          24 14 4 4 2.</_>
        <_>
          28 18 4 4 2.</_></rects>
      <tilted>0</tilted></_>
    <_>
      <rects>
        <_>
          24 15 15 4 -1.</_>
        <_>
          29 15 5 4 3.</_></rects>
      <tilted>0</tilted></_>
    <_>
      <rects>
        <_>
          24 16 4 10 -1.</_>
        <_>
          24 16 4 5 2.</_></rects>
      <tilted>1</tilted></_>
    <_>
      <rects>
        <_>
          24 21 4 5 -1.</_>
        <_>
          24 21 2 5 2.</_></rects>
      <tilted>1</tilted></_>
    <_>
      <rects>
        <_>
          25 6 10 14 -1.</_>
        <_>
          25 6 5 7 2.</_>
        <_>
          30 13 5 7 2.</_></rects>
      <tilted>0</tilted></_>
    <_>
      <rects>
        <_>
          25 15 3 10 -1.</_>
        <_>
          25 15 3 5 2.</_></rects>
      <tilted>1</tilted></_>
    <_>
      <rects>
        <_>
          25 16 1 10 -1.</_>
        <_>
          25 16 1 5 2.</_></rects>
      <tilted>1</tilted></_>
    <_>
      <rects>
        <_>
          25 16 2 12 -1.</_>
        <_>
          25 16 2 6 2.</_></rects>
      <tilted>1</tilted></_>
    <_>
      <rects>
        <_>
          25 21 3 5 -1.</_>
        <_>
          26 22 1 5 3.</_></rects>
      <tilted>1</tilted></_>
    <_>
      <rects>
        <_>
          25 23 6 8 -1.</_>
        <_>
          25 27 6 4 2.</_></rects>
      <tilted>0</tilted></_>
    <_>
      <rects>
        <_>
          25 29 6 8 -1.</_>
        <_>
          25 33 6 4 2.</_></rects>
      <tilted>0</tilted></_>
    <_>
      <rects>
        <_>
          26 2 12 9 -1.</_>
        <_>
          23 5 12 3 3.</_></rects>
      <tilted>1</tilted></_>
    <_>
      <rects>
        <_>
          26 6 4 22 -1.</_>
        <_>
          26 6 2 22 2.</_></rects>
      <tilted>1</tilted></_>
    <_>
      <rects>
        <_>
          26 15 1 10 -1.</_>
        <_>
          26 15 1 5 2.</_></rects>
      <tilted>1</tilted></_>
    <_>
      <rects>
        <_>
          26 16 5 4 -1.</_>
        <_>
          26 16 5 2 2.</_></rects>
      <tilted>1</tilted></_>
    <_>
      <rects>
        <_>
          27 10 10 20 -1.</_>
        <_>
          27 10 5 20 2.</_></rects>
      <tilted>1</tilted></_>
    <_>
      <rects>
        <_>
          27 22 4 5 -1.</_>
        <_>
          29 22 2 5 2.</_></rects>
      <tilted>0</tilted></_>
    <_>
      <rects>
        <_>
          27 23 2 1 -1.</_>
        <_>
          27 23 1 1 2.</_></rects>
      <tilted>1</tilted></_>
    <_>
      <rects>
        <_>
          27 23 8 2 -1.</_>
        <_>
          31 23 4 2 2.</_></rects>
      <tilted>0</tilted></_>
    <_>
      <rects>
        <_>
          28 2 12 8 -1.</_>
        <_>
          26 4 12 4 2.</_></rects>
      <tilted>1</tilted></_>
    <_>
      <rects>
        <_>
          28 5 12 13 -1.</_>
        <_>
          32 5 4 13 3.</_></rects>
      <tilted>0</tilted></_>
    <_>
      <rects>
        <_>
          29 3 10 8 -1.</_>
        <_>
          27 5 10 4 2.</_></rects>
      <tilted>1</tilted></_>
    <_>
      <rects>
        <_>
          30 1 8 26 -1.</_>
        <_>
          30 1 4 13 2.</_>
        <_>
          34 14 4 13 2.</_></rects>
      <tilted>0</tilted></_>
    <_>
      <rects>
        <_>
          31 8 6 6 -1.</_>
        <_>
          29 10 6 2 3.</_></rects>
      <tilted>1</tilted></_>
    <_>
      <rects>
        <_>
          31 12 9 3 -1.</_>
        <_>
          34 12 3 3 3.</_></rects>
      <tilted>0</tilted></_>
    <_>
      <rects>
        <_>
          31 14 8 11 -1.</_>
        <_>
          35 14 4 11 2.</_></rects>
      <tilted>0</tilted></_>
    <_>
      <rects>
        <_>
          32 0 6 1 -1.</_>
        <_>
          34 0 2 1 3.</_></rects>
      <tilted>0</tilted></_>
    <_>
      <rects>
        <_>
          32 15 8 22 -1.</_>
        <_>
          32 15 4 11 2.</_>
        <_>
          36 26 4 11 2.</_></rects>
      <tilted>0</tilted></_>
    <_>
      <rects>
        <_>
          32 17 8 22 -1.</_>
        <_>
          32 17 4 11 2.</_>
        <_>
          36 28 4 11 2.</_></rects>
      <tilted>0</tilted></_>
    <_>
      <rects>
        <_>
          33 0 4 26 -1.</_>
        <_>
          33 0 2 13 2.</_>
        <_>
          35 13 2 13 2.</_></rects>
      <tilted>0</tilted></_>
    <_>
      <rects>
        <_>
          33 5 6 20 -1.</_>
        <_>
          33 5 3 10 2.</_>
        <_>
          36 15 3 10 2.</_></rects>
      <tilted>0</tilted></_>
    <_>
      <rects>
        <_>
          34 0 6 3 -1.</_>
        <_>
          36 0 2 3 3.</_></rects>
      <tilted>0</tilted></_>
    <_>
      <rects>
        <_>
          34 7 4 23 -1.</_>
        <_>
          35 7 2 23 2.</_></rects>
      <tilted>0</tilted></_>
    <_>
      <rects>
        <_>
          34 10 6 13 -1.</_>
        <_>
          36 10 2 13 3.</_></rects>
      <tilted>0</tilted></_>
    <_>
      <rects>
        <_>
          37 1 1 39 -1.</_>
        <_>
          37 14 1 13 3.</_></rects>
      <tilted>0</tilted></_>
    <_>
      <rects>
        <_>
          37 24 3 3 -1.</_>
        <_>
          38 24 1 3 3.</_></rects>
      <tilted>0</tilted></_></features></cascade>
</opencv_storage>
