<?xml version="1.0"?>
<opencv_storage>
<cascade>
  <stageType>BOOST</stageType>
  <featureType>HAAR</featureType>
  <height>40</height>
  <width>40</width>
  <stageParams>
    <boostType>GAB</boostType>
    <minHitRate>9.9900001287460327e-01</minHitRate>
    <maxFalseAlarm>5.0000000000000000e-01</maxFalseAlarm>
    <weightTrimRate>9.4999999999999996e-01</weightTrimRate>
    <maxDepth>1</maxDepth>
    <maxWeakCount>100</maxWeakCount></stageParams>
  <featureParams>
    <maxCatCount>0</maxCatCount>
    <featSize>1</featSize>
    <mode>ALL</mode></featureParams>
  <stageNum>20</stageNum>
  <stages>
    <!-- stage 0 -->
    <_>
      <maxWeakCount>3</maxWeakCount>
      <stageThreshold>-9.3944454193115234e-01</stageThreshold>
      <weakClassifiers>
        <_>
          <internalNodes>
            0 -1 113 1.3580676168203354e-02</internalNodes>
          <leafValues>
            -8.8948309421539307e-01 9.0748029947280884e-01</leafValues></_>
        <_>
          <internalNodes>
            0 -1 29 3.2873675227165222e-03</internalNodes>
          <leafValues>
            -7.6046186685562134e-01 8.3835703134536743e-01</leafValues></_>
        <_>
          <internalNodes>
            0 -1 183 6.4600738696753979e-03</internalNodes>
          <leafValues>
            -8.1469434499740601e-01 7.1050035953521729e-01</leafValues></_></weakClassifiers></_>
    <!-- stage 1 -->
    <_>
      <maxWeakCount>5</maxWeakCount>
      <stageThreshold>-1.8274414539337158e+00</stageThreshold>
      <weakClassifiers>
        <_>
          <internalNodes>
            0 -1 112 3.6324225366115570e-03</internalNodes>
          <leafValues>
            -7.8609627485275269e-01 8.5039371252059937e-01</leafValues></_>
        <_>
          <internalNodes>
            0 -1 157 4.1535980999469757e-03</internalNodes>
          <leafValues>
            -7.2949630022048950e-01 7.4034565687179565e-01</leafValues></_>
        <_>
          <internalNodes>
            0 -1 126 2.3307865485548973e-02</internalNodes>
          <leafValues>
            -6.0694044828414917e-01 7.3593580722808838e-01</leafValues></_>
        <_>
          <internalNodes>
            0 -1 181 2.6888996362686157e-02</internalNodes>
          <leafValues>
            -4.6472918987274170e-01 8.3572721481323242e-01</leafValues></_>
        <_>
          <internalNodes>
            0 -1 189 2.1219113841652870e-03</internalNodes>
          <leafValues>
            -4.4319486618041992e-01 7.5982069969177246e-01</leafValues></_></weakClassifiers></_>
    <!-- stage 2 -->
    <_>
      <maxWeakCount>6</maxWeakCount>
      <stageThreshold>-1.5410120487213135e+00</stageThreshold>
      <weakClassifiers>
        <_>
          <internalNodes>
            0 -1 180 7.9211527481675148e-03</internalNodes>
          <leafValues>
            -6.4093357324600220e-01 7.6470589637756348e-01</leafValues></_>
        <_>
          <internalNodes>
            0 -1 8 1.2099247425794601e-02</internalNodes>
          <leafValues>
            -8.3681261539459229e-01 6.1959224939346313e-01</leafValues></_>
        <_>
          <internalNodes>
            0 -1 108 -3.9517940022051334e-03</internalNodes>
          <leafValues>
            6.1932015419006348e-01 -6.3285261392593384e-01</leafValues></_>
        <_>
          <internalNodes>
            0 -1 136 -7.8540609683841467e-04</internalNodes>
          <leafValues>
            3.8799595832824707e-01 -8.9618164300918579e-01</leafValues></_>
        <_>
          <internalNodes>
            0 -1 168 6.8694408982992172e-03</internalNodes>
          <leafValues>
            -6.0819804668426514e-01 5.5016386508941650e-01</leafValues></_>
        <_>
          <internalNodes>
            0 -1 91 2.5842946488410234e-03</internalNodes>
          <leafValues>
            -4.5298364758491516e-01 7.8978878259658813e-01</leafValues></_></weakClassifiers></_>
    <!-- stage 3 -->
    <_>
      <maxWeakCount>4</maxWeakCount>
      <stageThreshold>-1.3367518186569214e+00</stageThreshold>
      <weakClassifiers>
        <_>
          <internalNodes>
            0 -1 140 -4.1700606234371662e-03</internalNodes>
          <leafValues>
            7.2651165723800659e-01 -7.1314740180969238e-01</leafValues></_>
        <_>
          <internalNodes>
            0 -1 200 -1.4108118601143360e-02</internalNodes>
          <leafValues>
            5.9979701042175293e-01 -5.7671338319778442e-01</leafValues></_>
        <_>
          <internalNodes>
            0 -1 110 -4.9615278840065002e-03</internalNodes>
          <leafValues>
            5.7596027851104736e-01 -5.4745310544967651e-01</leafValues></_>
        <_>
          <internalNodes>
            0 -1 114 6.4630890265107155e-03</internalNodes>
          <leafValues>
            -6.7594832181930542e-01 4.1735512018203735e-01</leafValues></_></weakClassifiers></_>
    <!-- stage 4 -->
    <_>
      <maxWeakCount>10</maxWeakCount>
      <stageThreshold>-1.7483478784561157e+00</stageThreshold>
      <weakClassifiers>
        <_>
          <internalNodes>
            0 -1 84 1.0258533060550690e-02</internalNodes>
          <leafValues>
            -7.3995274305343628e-01 6.3778162002563477e-01</leafValues></_>
        <_>
          <internalNodes>
            0 -1 127 1.2774772942066193e-02</internalNodes>
          <leafValues>
            -6.1343306303024292e-01 5.3692209720611572e-01</leafValues></_>
        <_>
          <internalNodes>
            0 -1 63 1.4922199770808220e-03</internalNodes>
          <leafValues>
            -5.5385071039199829e-01 4.4047212600708008e-01</leafValues></_>
        <_>
          <internalNodes>
            0 -1 199 1.1772118508815765e-02</internalNodes>
          <leafValues>
            -4.4077441096305847e-01 6.2774735689163208e-01</leafValues></_>
        <_>
          <internalNodes>
            0 -1 77 -3.6500608548521996e-03</internalNodes>
          <leafValues>
            6.8244415521621704e-01 -3.8677921891212463e-01</leafValues></_>
        <_>
          <internalNodes>
            0 -1 206 -4.0572443976998329e-03</internalNodes>
          <leafValues>
            6.1809474229812622e-01 -4.5684182643890381e-01</leafValues></_>
        <_>
          <internalNodes>
            0 -1 90 -7.6541875023394823e-04</internalNodes>
          <leafValues>
            5.3222763538360596e-01 -4.3530198931694031e-01</leafValues></_>
        <_>
          <internalNodes>
            0 -1 87 -1.9883247092366219e-02</internalNodes>
          <leafValues>
            -9.6151900291442871e-01 2.4356986582279205e-01</leafValues></_>
        <_>
          <internalNodes>
            0 -1 96 1.7331202980130911e-03</internalNodes>
          <leafValues>
            3.0403760075569153e-01 -6.8546968698501587e-01</leafValues></_>
        <_>
          <internalNodes>
            0 -1 60 -1.6113957390189171e-02</internalNodes>
          <leafValues>
            -8.4536969661712646e-01 2.5604212284088135e-01</leafValues></_></weakClassifiers></_>
    <!-- stage 5 -->
    <_>
      <maxWeakCount>11</maxWeakCount>
      <stageThreshold>-1.5239949226379395e+00</stageThreshold>
      <weakClassifiers>
        <_>
          <internalNodes>
            0 -1 88 9.1451667249202728e-03</internalNodes>
          <leafValues>
            -7.1757924556732178e-01 5.4634147882461548e-01</leafValues></_>
        <_>
          <internalNodes>
            0 -1 74 -3.7477714940905571e-03</internalNodes>
          <leafValues>
            4.0526312589645386e-01 -6.7153418064117432e-01</leafValues></_>
        <_>
          <internalNodes>
            0 -1 11 5.8663827367126942e-03</internalNodes>
          <leafValues>
            -5.6098115444183350e-01 4.8853349685668945e-01</leafValues></_>
        <_>
          <internalNodes>
            0 -1 19 1.7326619476079941e-02</internalNodes>
          <leafValues>
            -7.0907884836196899e-01 3.1807336211204529e-01</leafValues></_>
        <_>
          <internalNodes>
            0 -1 189 2.1480754949152470e-03</internalNodes>
          <leafValues>
            -4.9858534336090088e-01 4.8261272907257080e-01</leafValues></_>
        <_>
          <internalNodes>
            0 -1 117 1.4664115384221077e-02</internalNodes>
          <leafValues>
            -2.7785065770149231e-01 6.8998539447784424e-01</leafValues></_>
        <_>
          <internalNodes>
            0 -1 173 2.2074964363127947e-04</internalNodes>
          <leafValues>
            -2.1507117152214050e-01 8.3171349763870239e-01</leafValues></_>
        <_>
          <internalNodes>
            0 -1 26 1.6678604297339916e-03</internalNodes>
          <leafValues>
            -7.3446935415267944e-01 2.7596995234489441e-01</leafValues></_>
        <_>
          <internalNodes>
            0 -1 10 1.0427317023277283e-01</internalNodes>
          <leafValues>
            2.4025595188140869e-01 -8.4859937429428101e-01</leafValues></_>
        <_>
          <internalNodes>
            0 -1 162 -6.8510673008859158e-04</internalNodes>
          <leafValues>
            5.3559303283691406e-01 -4.0671417117118835e-01</leafValues></_>
        <_>
          <internalNodes>
            0 -1 4 -2.4448805488646030e-03</internalNodes>
          <leafValues>
            7.4498265981674194e-01 -2.7389898896217346e-01</leafValues></_></weakClassifiers></_>
    <!-- stage 6 -->
    <_>
      <maxWeakCount>11</maxWeakCount>
      <stageThreshold>-1.4055771827697754e+00</stageThreshold>
      <weakClassifiers>
        <_>
          <internalNodes>
            0 -1 134 1.1490096338093281e-02</internalNodes>
          <leafValues>
            -3.8461539149284363e-01 6.2671905755996704e-01</leafValues></_>
        <_>
          <internalNodes>
            0 -1 5 9.7122564911842346e-03</internalNodes>
          <leafValues>
            -8.4968167543411255e-01 2.7173593640327454e-01</leafValues></_>
        <_>
          <internalNodes>
            0 -1 177 -3.0660886317491531e-02</internalNodes>
          <leafValues>
            -7.5673747062683105e-01 3.0400845408439636e-01</leafValues></_>
        <_>
          <internalNodes>
            0 -1 79 -6.0320696793496609e-03</internalNodes>
          <leafValues>
            -8.7693572044372559e-01 1.6548906266689301e-01</leafValues></_>
        <_>
          <internalNodes>
            0 -1 30 -5.5186524987220764e-03</internalNodes>
          <leafValues>
            5.9824758768081665e-01 -3.5810461640357971e-01</leafValues></_>
        <_>
          <internalNodes>
            0 -1 120 -2.2840390447527170e-03</internalNodes>
          <leafValues>
            3.7838184833526611e-01 -4.9129012227058411e-01</leafValues></_>
        <_>
          <internalNodes>
            0 -1 193 -2.2289238870143890e-02</internalNodes>
          <leafValues>
            5.8282762765884399e-01 -3.2156333327293396e-01</leafValues></_>
        <_>
          <internalNodes>
            0 -1 58 -1.5968767926096916e-02</internalNodes>
          <leafValues>
            -9.2338931560516357e-01 2.2591798007488251e-01</leafValues></_>
        <_>
          <internalNodes>
            0 -1 104 -6.9979700492694974e-04</internalNodes>
          <leafValues>
            -8.4798091650009155e-01 1.6406355798244476e-01</leafValues></_>
        <_>
          <internalNodes>
            0 -1 66 -1.9967360422015190e-03</internalNodes>
          <leafValues>
            -5.1155728101730347e-01 3.2694014906883240e-01</leafValues></_>
        <_>
          <internalNodes>
            0 -1 116 2.3448718711733818e-03</internalNodes>
          <leafValues>
            -2.7858749032020569e-01 8.3031690120697021e-01</leafValues></_></weakClassifiers></_>
    <!-- stage 7 -->
    <_>
      <maxWeakCount>11</maxWeakCount>
      <stageThreshold>-1.2309950590133667e+00</stageThreshold>
      <weakClassifiers>
        <_>
          <internalNodes>
            0 -1 148 8.8103511370718479e-04</internalNodes>
          <leafValues>
            -6.2539684772491455e-01 4.9128368496894836e-01</leafValues></_>
        <_>
          <internalNodes>
            0 -1 15 6.9843367673456669e-03</internalNodes>
          <leafValues>
            -7.0462185144424438e-01 3.0839535593986511e-01</leafValues></_>
        <_>
          <internalNodes>
            0 -1 82 3.3020243048667908e-02</internalNodes>
          <leafValues>
            -2.9379746317863464e-01 6.4462006092071533e-01</leafValues></_>
        <_>
          <internalNodes>
            0 -1 45 1.7614932730793953e-02</internalNodes>
          <leafValues>
            -2.5519415736198425e-01 7.8310745954513550e-01</leafValues></_>
        <_>
          <internalNodes>
            0 -1 164 1.1143247684231028e-04</internalNodes>
          <leafValues>
            2.6746267080307007e-01 -6.8822836875915527e-01</leafValues></_>
        <_>
          <internalNodes>
            0 -1 7 6.5853103995323181e-02</internalNodes>
          <leafValues>
            2.0739068090915680e-01 -9.2373281717300415e-01</leafValues></_>
        <_>
          <internalNodes>
            0 -1 159 -7.3151653632521629e-03</internalNodes>
          <leafValues>
            6.3587427139282227e-01 -3.0128505825996399e-01</leafValues></_>
        <_>
          <internalNodes>
            0 -1 121 -2.0309628453105688e-03</internalNodes>
          <leafValues>
            3.0137097835540771e-01 -5.3064155578613281e-01</leafValues></_>
        <_>
          <internalNodes>
            0 -1 37 -1.0571796447038651e-02</internalNodes>
          <leafValues>
            -9.8144733905792236e-01 1.8696431815624237e-01</leafValues></_>
        <_>
          <internalNodes>
            0 -1 174 3.8461055373772979e-04</internalNodes>
          <leafValues>
            -2.3666216433048248e-01 9.1060066223144531e-01</leafValues></_>
        <_>
          <internalNodes>
            0 -1 76 -3.0416701920330524e-03</internalNodes>
          <leafValues>
            -7.6882123947143555e-01 2.2277384996414185e-01</leafValues></_></weakClassifiers></_>
    <!-- stage 8 -->
    <_>
      <maxWeakCount>10</maxWeakCount>
      <stageThreshold>-1.6001188755035400e+00</stageThreshold>
      <weakClassifiers>
        <_>
          <internalNodes>
            0 -1 51 -2.9715517302975059e-04</internalNodes>
          <leafValues>
            5.2672958374023438e-01 -8.0983608961105347e-01</leafValues></_>
        <_>
          <internalNodes>
            0 -1 24 6.1124682426452637e-02</internalNodes>
          <leafValues>
            -7.4938040971755981e-01 3.3905249834060669e-01</leafValues></_>
        <_>
          <internalNodes>
            0 -1 129 5.4600939620286226e-04</internalNodes>
          <leafValues>
            2.2332727909088135e-01 -9.7013652324676514e-01</leafValues></_>
        <_>
          <internalNodes>
            0 -1 188 3.4105245140381157e-04</internalNodes>
          <leafValues>
            -2.6050272583961487e-01 8.7628275156021118e-01</leafValues></_>
        <_>
          <internalNodes>
            0 -1 54 2.8645761311054230e-02</internalNodes>
          <leafValues>
            -3.7299698591232300e-01 4.9519872665405273e-01</leafValues></_>
        <_>
          <internalNodes>
            0 -1 158 3.5562233533710241e-03</internalNodes>
          <leafValues>
            -3.5582107305526733e-01 5.8969163894653320e-01</leafValues></_>
        <_>
          <internalNodes>
            0 -1 44 2.4491362273693085e-02</internalNodes>
          <leafValues>
            -2.7777639031410217e-01 8.2041221857070923e-01</leafValues></_>
        <_>
          <internalNodes>
            0 -1 149 4.9756832595448941e-05</internalNodes>
          <leafValues>
            4.6317502856254578e-01 -4.1003343462944031e-01</leafValues></_>
        <_>
          <internalNodes>
            0 -1 205 1.0883713141083717e-02</internalNodes>
          <leafValues>
            -4.1619187593460083e-01 5.0453472137451172e-01</leafValues></_>
        <_>
          <internalNodes>
            0 -1 133 4.2002210393548012e-03</internalNodes>
          <leafValues>
            -4.2906686663627625e-01 4.9252721667289734e-01</leafValues></_></weakClassifiers></_>
    <!-- stage 9 -->
    <_>
      <maxWeakCount>13</maxWeakCount>
      <stageThreshold>-1.4073311090469360e+00</stageThreshold>
      <weakClassifiers>
        <_>
          <internalNodes>
            0 -1 134 1.2866601347923279e-02</internalNodes>
          <leafValues>
            -2.7145358920097351e-01 5.7455265522003174e-01</leafValues></_>
        <_>
          <internalNodes>
            0 -1 65 7.5237676501274109e-02</internalNodes>
          <leafValues>
            -2.3335811495780945e-01 5.8308732509613037e-01</leafValues></_>
        <_>
          <internalNodes>
            0 -1 167 3.4467291086912155e-02</internalNodes>
          <leafValues>
            -2.6421496272087097e-01 6.5090197324752808e-01</leafValues></_>
        <_>
          <internalNodes>
            0 -1 99 4.8569808714091778e-03</internalNodes>
          <leafValues>
            -6.8392157554626465e-01 2.5106692314147949e-01</leafValues></_>
        <_>
          <internalNodes>
            0 -1 25 2.3204933386296034e-03</internalNodes>
          <leafValues>
            -4.6398016810417175e-01 3.3625173568725586e-01</leafValues></_>
        <_>
          <internalNodes>
            0 -1 105 -3.7802773294970393e-04</internalNodes>
          <leafValues>
            8.4614604711532593e-01 -1.7733342945575714e-01</leafValues></_>
        <_>
          <internalNodes>
            0 -1 105 2.7247931575402617e-04</internalNodes>
          <leafValues>
            -2.0069099962711334e-01 7.2543287277221680e-01</leafValues></_>
        <_>
          <internalNodes>
            0 -1 124 -1.0416798759251833e-03</internalNodes>
          <leafValues>
            4.4893831014633179e-01 -3.5433098673820496e-01</leafValues></_>
        <_>
          <internalNodes>
            0 -1 21 -3.1182458624243736e-03</internalNodes>
          <leafValues>
            -5.4231041669845581e-01 3.0673989653587341e-01</leafValues></_>
        <_>
          <internalNodes>
            0 -1 150 3.5033564199693501e-04</internalNodes>
          <leafValues>
            1.9793108105659485e-01 -7.7524125576019287e-01</leafValues></_>
        <_>
          <internalNodes>
            0 -1 171 6.1695808544754982e-03</internalNodes>
          <leafValues>
            -2.3117379844188690e-01 6.8428868055343628e-01</leafValues></_>
        <_>
          <internalNodes>
            0 -1 28 -2.3196214810013771e-02</internalNodes>
          <leafValues>
            7.4197435379028320e-01 -2.0165403187274933e-01</leafValues></_>
        <_>
          <internalNodes>
            0 -1 101 -3.0688596889376640e-03</internalNodes>
          <leafValues>
            -9.3903875350952148e-01 1.9241121411323547e-01</leafValues></_></weakClassifiers></_>
    <!-- stage 10 -->
    <_>
      <maxWeakCount>11</maxWeakCount>
      <stageThreshold>-1.4897319078445435e+00</stageThreshold>
      <weakClassifiers>
        <_>
          <internalNodes>
            0 -1 147 2.7335863560438156e-03</internalNodes>
          <leafValues>
            -7.3109245300292969e-01 5.6065571308135986e-01</leafValues></_>
        <_>
          <internalNodes>
            0 -1 83 2.2394467145204544e-02</internalNodes>
          <leafValues>
            -6.3123226165771484e-01 4.2109552025794983e-01</leafValues></_>
        <_>
          <internalNodes>
            0 -1 145 9.7303884103894234e-03</internalNodes>
          <leafValues>
            3.4125977754592896e-01 -8.0862426757812500e-01</leafValues></_>
        <_>
          <internalNodes>
            0 -1 14 1.0779494419693947e-02</internalNodes>
          <leafValues>
            -4.7711908817291260e-01 4.7656187415122986e-01</leafValues></_>
        <_>
          <internalNodes>
            0 -1 107 1.1191840283572674e-02</internalNodes>
          <leafValues>
            -4.7594955563545227e-01 4.7246736288070679e-01</leafValues></_>
        <_>
          <internalNodes>
            0 -1 154 5.2403903100639582e-04</internalNodes>
          <leafValues>
            2.4145457148551941e-01 -8.7559068202972412e-01</leafValues></_>
        <_>
          <internalNodes>
            0 -1 16 1.4697653241455555e-03</internalNodes>
          <leafValues>
            2.2732806205749512e-01 -7.7778887748718262e-01</leafValues></_>
        <_>
          <internalNodes>
            0 -1 208 -2.8836319688707590e-03</internalNodes>
          <leafValues>
            7.3253685235977173e-01 -3.4522113204002380e-01</leafValues></_>
        <_>
          <internalNodes>
            0 -1 172 -4.4683199375867844e-03</internalNodes>
          <leafValues>
            4.0298235416412354e-01 -5.2313017845153809e-01</leafValues></_>
        <_>
          <internalNodes>
            0 -1 203 6.3068782910704613e-03</internalNodes>
          <leafValues>
            -2.6553001999855042e-01 7.6585233211517334e-01</leafValues></_>
        <_>
          <internalNodes>
            0 -1 142 -3.0034763040021062e-04</internalNodes>
          <leafValues>
            -8.7876629829406738e-01 2.6580089330673218e-01</leafValues></_></weakClassifiers></_>
    <!-- stage 11 -->
    <_>
      <maxWeakCount>10</maxWeakCount>
      <stageThreshold>-1.0592883825302124e+00</stageThreshold>
      <weakClassifiers>
        <_>
          <internalNodes>
            0 -1 198 1.8948450684547424e-02</internalNodes>
          <leafValues>
            -2.2615803778171539e-01 6.9869512319564819e-01</leafValues></_>
        <_>
          <internalNodes>
            0 -1 111 2.6930468156933784e-03</internalNodes>
          <leafValues>
            -2.3436328768730164e-01 7.5419884920120239e-01</leafValues></_>
        <_>
          <internalNodes>
            0 -1 17 1.3904551975429058e-02</internalNodes>
          <leafValues>
            -9.0164887905120850e-01 2.3771533370018005e-01</leafValues></_>
        <_>
          <internalNodes>
            0 -1 119 -3.3871345221996307e-03</internalNodes>
          <leafValues>
            2.8726303577423096e-01 -6.3837742805480957e-01</leafValues></_>
        <_>
          <internalNodes>
            0 -1 188 3.0341072124429047e-04</internalNodes>
          <leafValues>
            -2.5203129649162292e-01 7.3185783624649048e-01</leafValues></_>
        <_>
          <internalNodes>
            0 -1 187 3.2111641485244036e-04</internalNodes>
          <leafValues>
            -1.9327720999717712e-01 8.1364631652832031e-01</leafValues></_>
        <_>
          <internalNodes>
            0 -1 22 9.7015704959630966e-03</internalNodes>
          <leafValues>
            -5.5448639392852783e-01 3.2740160822868347e-01</leafValues></_>
        <_>
          <internalNodes>
            0 -1 160 5.9177842922508717e-04</internalNodes>
          <leafValues>
            1.8242418766021729e-01 -9.5983207225799561e-01</leafValues></_>
        <_>
          <internalNodes>
            0 -1 92 1.6169786977116019e-04</internalNodes>
          <leafValues>
            -2.9997354745864868e-01 6.2089228630065918e-01</leafValues></_>
        <_>
          <internalNodes>
            0 -1 152 -8.6438246071338654e-03</internalNodes>
          <leafValues>
            -9.6414875984191895e-01 2.0810987055301666e-01</leafValues></_></weakClassifiers></_>
    <!-- stage 12 -->
    <_>
      <maxWeakCount>17</maxWeakCount>
      <stageThreshold>-1.4147402048110962e+00</stageThreshold>
      <weakClassifiers>
        <_>
          <internalNodes>
            0 -1 27 -6.9456454366445541e-03</internalNodes>
          <leafValues>
            7.0632910728454590e-01 -1.7153748869895935e-01</leafValues></_>
        <_>
          <internalNodes>
            0 -1 178 1.0361399501562119e-02</internalNodes>
          <leafValues>
            -2.7556622028350830e-01 5.4139232635498047e-01</leafValues></_>
        <_>
          <internalNodes>
            0 -1 184 -1.1657449416816235e-02</internalNodes>
          <leafValues>
            -9.5796072483062744e-01 1.9079022109508514e-01</leafValues></_>
        <_>
          <internalNodes>
            0 -1 173 2.2125602117739618e-04</internalNodes>
          <leafValues>
            -2.7158209681510925e-01 6.4040166139602661e-01</leafValues></_>
        <_>
          <internalNodes>
            0 -1 12 -2.5475080474279821e-04</internalNodes>
          <leafValues>
            -8.1677728891372681e-01 1.9471058249473572e-01</leafValues></_>
        <_>
          <internalNodes>
            0 -1 38 7.2829358279705048e-02</internalNodes>
          <leafValues>
            1.8847195804119110e-01 -7.5894886255264282e-01</leafValues></_>
        <_>
          <internalNodes>
            0 -1 174 2.9706864734180272e-04</internalNodes>
          <leafValues>
            -2.7435594797134399e-01 7.0187318325042725e-01</leafValues></_>
        <_>
          <internalNodes>
            0 -1 123 -1.5397211536765099e-03</internalNodes>
          <leafValues>
            5.6182825565338135e-01 -2.8411796689033508e-01</leafValues></_>
        <_>
          <internalNodes>
            0 -1 175 2.6570991030894220e-04</internalNodes>
          <leafValues>
            -2.2715082764625549e-01 6.4184552431106567e-01</leafValues></_>
        <_>
          <internalNodes>
            0 -1 93 -5.5429479107260704e-04</internalNodes>
          <leafValues>
            5.1415920257568359e-01 -2.6190546154975891e-01</leafValues></_>
        <_>
          <internalNodes>
            0 -1 46 -1.2525096535682678e-02</internalNodes>
          <leafValues>
            7.1487957239151001e-01 -2.1035923063755035e-01</leafValues></_>
        <_>
          <internalNodes>
            0 -1 201 -4.7115022316575050e-03</internalNodes>
          <leafValues>
            3.2968372106552124e-01 -5.2090811729431152e-01</leafValues></_>
        <_>
          <internalNodes>
            0 -1 151 -1.3272452633827925e-03</internalNodes>
          <leafValues>
            2.8625622391700745e-01 -5.2479642629623413e-01</leafValues></_>
        <_>
          <internalNodes>
            0 -1 122 -3.3968809293583035e-04</internalNodes>
          <leafValues>
            -7.7087515592575073e-01 1.8455204367637634e-01</leafValues></_>
        <_>
          <internalNodes>
            0 -1 39 3.4441570751368999e-03</internalNodes>
          <leafValues>
            -2.4754071235656738e-01 6.3182640075683594e-01</leafValues></_>
        <_>
          <internalNodes>
            0 -1 98 -2.1431825589388609e-03</internalNodes>
          <leafValues>
            3.4694916009902954e-01 -4.9739387631416321e-01</leafValues></_>
        <_>
          <internalNodes>
            0 -1 166 1.1799361556768417e-02</internalNodes>
          <leafValues>
            1.7397689819335938e-01 -8.6651390790939331e-01</leafValues></_></weakClassifiers></_>
    <!-- stage 13 -->
    <_>
      <maxWeakCount>13</maxWeakCount>
      <stageThreshold>-1.2812067270278931e+00</stageThreshold>
      <weakClassifiers>
        <_>
          <internalNodes>
            0 -1 55 2.9418934136629105e-02</internalNodes>
          <leafValues>
            4.9053627252578735e-01 -6.4401292800903320e-01</leafValues></_>
        <_>
          <internalNodes>
            0 -1 161 7.7171968296170235e-03</internalNodes>
          <leafValues>
            -6.2238323688507080e-01 3.2492759823799133e-01</leafValues></_>
        <_>
          <internalNodes>
            0 -1 94 -2.8649445623159409e-02</internalNodes>
          <leafValues>
            5.1709699630737305e-01 -3.1718409061431885e-01</leafValues></_>
        <_>
          <internalNodes>
            0 -1 128 3.8712364621460438e-03</internalNodes>
          <leafValues>
            -2.0795394480228424e-01 7.6777410507202148e-01</leafValues></_>
        <_>
          <internalNodes>
            0 -1 47 -1.8715301528573036e-02</internalNodes>
          <leafValues>
            7.7616292238235474e-01 -1.9899219274520874e-01</leafValues></_>
        <_>
          <internalNodes>
            0 -1 40 2.8581302613019943e-02</internalNodes>
          <leafValues>
            2.4274767935276031e-01 -6.7975503206253052e-01</leafValues></_>
        <_>
          <internalNodes>
            0 -1 89 1.2426909524947405e-03</internalNodes>
          <leafValues>
            -2.8344193100929260e-01 6.0908663272857666e-01</leafValues></_>
        <_>
          <internalNodes>
            0 -1 118 -2.0286995917558670e-02</internalNodes>
          <leafValues>
            -7.8436708450317383e-01 2.3956342041492462e-01</leafValues></_>
        <_>
          <internalNodes>
            0 -1 0 -1.7970928922295570e-02</internalNodes>
          <leafValues>
            4.0311875939369202e-01 -3.9566615223884583e-01</leafValues></_>
        <_>
          <internalNodes>
            0 -1 69 6.9279763847589493e-03</internalNodes>
          <leafValues>
            -7.4695056676864624e-01 2.3405525088310242e-01</leafValues></_>
        <_>
          <internalNodes>
            0 -1 202 -1.8070004880428314e-02</internalNodes>
          <leafValues>
            7.5233107805252075e-01 -2.3620811104774475e-01</leafValues></_>
        <_>
          <internalNodes>
            0 -1 196 2.3232199251651764e-02</internalNodes>
          <leafValues>
            -2.9626578092575073e-01 5.1131331920623779e-01</leafValues></_>
        <_>
          <internalNodes>
            0 -1 81 -2.4687158293090761e-04</internalNodes>
          <leafValues>
            2.5220710039138794e-01 -6.4178371429443359e-01</leafValues></_></weakClassifiers></_>
    <!-- stage 14 -->
    <_>
      <maxWeakCount>12</maxWeakCount>
      <stageThreshold>-9.8073440790176392e-01</stageThreshold>
      <weakClassifiers>
        <_>
          <internalNodes>
            0 -1 61 -7.6444735750555992e-03</internalNodes>
          <leafValues>
            5.9505701065063477e-01 -3.8666665554046631e-01</leafValues></_>
        <_>
          <internalNodes>
            0 -1 143 -8.9849607320502400e-05</internalNodes>
          <leafValues>
            -4.7714701294898987e-01 4.3692922592163086e-01</leafValues></_>
        <_>
          <internalNodes>
            0 -1 48 -5.3011616691946983e-03</internalNodes>
          <leafValues>
            4.0618684887886047e-01 -5.1089656352996826e-01</leafValues></_>
        <_>
          <internalNodes>
            0 -1 18 3.4319918602705002e-02</internalNodes>
          <leafValues>
            -3.9412465691566467e-01 4.0090221166610718e-01</leafValues></_>
        <_>
          <internalNodes>
            0 -1 146 2.6160795241594315e-03</internalNodes>
          <leafValues>
            -6.5980440378189087e-01 2.4567206203937531e-01</leafValues></_>
        <_>
          <internalNodes>
            0 -1 64 -1.0249495506286621e-02</internalNodes>
          <leafValues>
            -8.5897505283355713e-01 1.7350618541240692e-01</leafValues></_>
        <_>
          <internalNodes>
            0 -1 207 -1.3696567155420780e-02</internalNodes>
          <leafValues>
            6.6736108064651489e-01 -3.0750781297683716e-01</leafValues></_>
        <_>
          <internalNodes>
            0 -1 190 -3.3097271807491779e-03</internalNodes>
          <leafValues>
            2.9560253024101257e-01 -6.3770729303359985e-01</leafValues></_>
        <_>
          <internalNodes>
            0 -1 59 2.2182932123541832e-02</internalNodes>
          <leafValues>
            1.8997395038604736e-01 -8.2160365581512451e-01</leafValues></_>
        <_>
          <internalNodes>
            0 -1 209 1.0603508912026882e-02</internalNodes>
          <leafValues>
            -2.4496978521347046e-01 7.4156004190444946e-01</leafValues></_>
        <_>
          <internalNodes>
            0 -1 125 1.0660098865628242e-02</internalNodes>
          <leafValues>
            2.0936338603496552e-01 -8.2762211561203003e-01</leafValues></_>
        <_>
          <internalNodes>
            0 -1 52 -4.6395389363169670e-03</internalNodes>
          <leafValues>
            3.5369873046875000e-01 -4.7106552124023438e-01</leafValues></_></weakClassifiers></_>
    <!-- stage 15 -->
    <_>
      <maxWeakCount>15</maxWeakCount>
      <stageThreshold>-9.3216371536254883e-01</stageThreshold>
      <weakClassifiers>
        <_>
          <internalNodes>
            0 -1 36 -2.8532005380839109e-03</internalNodes>
          <leafValues>
            6.6702473163604736e-01 -3.0650153756141663e-01</leafValues></_>
        <_>
          <internalNodes>
            0 -1 132 -4.7576474025845528e-03</internalNodes>
          <leafValues>
            3.5162773728370667e-01 -6.9652074575424194e-01</leafValues></_>
        <_>
          <internalNodes>
            0 -1 130 -4.6260775998234749e-03</internalNodes>
          <leafValues>
            2.2634904086589813e-01 -7.5448727607727051e-01</leafValues></_>
        <_>
          <internalNodes>
            0 -1 204 7.5506321154534817e-03</internalNodes>
          <leafValues>
            -3.4630361199378967e-01 5.0559771060943604e-01</leafValues></_>
        <_>
          <internalNodes>
            0 -1 23 1.8687989562749863e-02</internalNodes>
          <leafValues>
            -4.2509439587593079e-01 3.5715115070343018e-01</leafValues></_>
        <_>
          <internalNodes>
            0 -1 192 2.0569661865010858e-04</internalNodes>
          <leafValues>
            2.4286898970603943e-01 -6.4717596769332886e-01</leafValues></_>
        <_>
          <internalNodes>
            0 -1 185 2.3580272682011127e-03</internalNodes>
          <leafValues>
            -2.8140726685523987e-01 5.9190505743026733e-01</leafValues></_>
        <_>
          <internalNodes>
            0 -1 155 6.6153547959402204e-04</internalNodes>
          <leafValues>
            -2.3271666467189789e-01 7.8593701124191284e-01</leafValues></_>
        <_>
          <internalNodes>
            0 -1 156 3.5959348315373063e-04</internalNodes>
          <leafValues>
            2.5157254934310913e-01 -7.5479751825332642e-01</leafValues></_>
        <_>
          <internalNodes>
            0 -1 210 -1.9971672445535660e-03</internalNodes>
          <leafValues>
            8.6469358205795288e-01 -1.9443534314632416e-01</leafValues></_>
        <_>
          <internalNodes>
            0 -1 43 -2.9051830060780048e-03</internalNodes>
          <leafValues>
            -8.9431846141815186e-01 2.0693290233612061e-01</leafValues></_>
        <_>
          <internalNodes>
            0 -1 78 5.0175502896308899e-02</internalNodes>
          <leafValues>
            1.4946548640727997e-01 -8.9442145824432373e-01</leafValues></_>
        <_>
          <internalNodes>
            0 -1 31 4.7577198594808578e-02</internalNodes>
          <leafValues>
            1.9550892710685730e-01 -7.0058763027191162e-01</leafValues></_>
        <_>
          <internalNodes>
            0 -1 144 6.8871641997247934e-04</internalNodes>
          <leafValues>
            -2.9069271683692932e-01 6.2067830562591553e-01</leafValues></_>
        <_>
          <internalNodes>
            0 -1 186 1.5218185726553202e-03</internalNodes>
          <leafValues>
            -1.6755235195159912e-01 7.6740145683288574e-01</leafValues></_></weakClassifiers></_>
    <!-- stage 16 -->
    <_>
      <maxWeakCount>13</maxWeakCount>
      <stageThreshold>-1.3295477628707886e+00</stageThreshold>
      <weakClassifiers>
        <_>
          <internalNodes>
            0 -1 182 1.6797294840216637e-02</internalNodes>
          <leafValues>
            -3.8832998275756836e-01 5.7037037611007690e-01</leafValues></_>
        <_>
          <internalNodes>
            0 -1 9 2.5779813528060913e-01</internalNodes>
          <leafValues>
            -2.8669503331184387e-01 6.5266954898834229e-01</leafValues></_>
        <_>
          <internalNodes>
            0 -1 163 -3.5772435367107391e-03</internalNodes>
          <leafValues>
            3.3026224374771118e-01 -6.2908422946929932e-01</leafValues></_>
        <_>
          <internalNodes>
            0 -1 33 1.1493166675791144e-03</internalNodes>
          <leafValues>
            2.3183956742286682e-01 -7.1096968650817871e-01</leafValues></_>
        <_>
          <internalNodes>
            0 -1 106 -8.6854514665901661e-04</internalNodes>
          <leafValues>
            7.5042289495468140e-01 -2.4767741560935974e-01</leafValues></_>
        <_>
          <internalNodes>
            0 -1 176 -4.1780649917200208e-04</internalNodes>
          <leafValues>
            8.2644921541213989e-01 -1.9316615164279938e-01</leafValues></_>
        <_>
          <internalNodes>
            0 -1 100 1.7855792539194226e-03</internalNodes>
          <leafValues>
            -1.7418044805526733e-01 7.5680923461914062e-01</leafValues></_>
        <_>
          <internalNodes>
            0 -1 115 3.4975907765328884e-03</internalNodes>
          <leafValues>
            -6.4258044958114624e-01 2.4230979382991791e-01</leafValues></_>
        <_>
          <internalNodes>
            0 -1 85 -6.4163103699684143e-02</internalNodes>
          <leafValues>
            -6.2960851192474365e-01 2.0086896419525146e-01</leafValues></_>
        <_>
          <internalNodes>
            0 -1 86 1.8162570893764496e-02</internalNodes>
          <leafValues>
            1.5488636493682861e-01 -9.0540975332260132e-01</leafValues></_>
        <_>
          <internalNodes>
            0 -1 41 1.7541788518428802e-02</internalNodes>
          <leafValues>
            -2.3819564282894135e-01 7.3929834365844727e-01</leafValues></_>
        <_>
          <internalNodes>
            0 -1 13 -9.9288839846849442e-03</internalNodes>
          <leafValues>
            5.9581857919692993e-01 -2.7500841021537781e-01</leafValues></_>
        <_>
          <internalNodes>
            0 -1 135 -1.2176476884633303e-03</internalNodes>
          <leafValues>
            2.5699374079704285e-01 -6.9250601530075073e-01</leafValues></_></weakClassifiers></_>
    <!-- stage 17 -->
    <_>
      <maxWeakCount>13</maxWeakCount>
      <stageThreshold>-1.3257057666778564e+00</stageThreshold>
      <weakClassifiers>
        <_>
          <internalNodes>
            0 -1 35 1.4804527163505554e-02</internalNodes>
          <leafValues>
            -5.1020407676696777e-01 4.8460292816162109e-01</leafValues></_>
        <_>
          <internalNodes>
            0 -1 170 -2.5127467233687639e-04</internalNodes>
          <leafValues>
            -5.9901398420333862e-01 2.8016376495361328e-01</leafValues></_>
        <_>
          <internalNodes>
            0 -1 131 -4.8228399828076363e-03</internalNodes>
          <leafValues>
            -5.5231875181198120e-01 2.7959996461868286e-01</leafValues></_>
        <_>
          <internalNodes>
            0 -1 67 8.3795338869094849e-03</internalNodes>
          <leafValues>
            -2.1270729601383209e-01 7.4522459506988525e-01</leafValues></_>
        <_>
          <internalNodes>
            0 -1 72 -1.2509637512266636e-02</internalNodes>
          <leafValues>
            5.4153490066528320e-01 -3.5912501811981201e-01</leafValues></_>
        <_>
          <internalNodes>
            0 -1 6 -5.1615465432405472e-02</internalNodes>
          <leafValues>
            -8.9035338163375854e-01 1.8683485686779022e-01</leafValues></_>
        <_>
          <internalNodes>
            0 -1 1 -2.4013458751142025e-03</internalNodes>
          <leafValues>
            5.4060941934585571e-01 -2.5043871998786926e-01</leafValues></_>
        <_>
          <internalNodes>
            0 -1 95 6.1354607343673706e-02</internalNodes>
          <leafValues>
            -2.6942309737205505e-01 5.6820863485336304e-01</leafValues></_>
        <_>
          <internalNodes>
            0 -1 42 4.7433264553546906e-02</internalNodes>
          <leafValues>
            -2.1948733925819397e-01 7.2439217567443848e-01</leafValues></_>
        <_>
          <internalNodes>
            0 -1 191 7.0457030087709427e-03</internalNodes>
          <leafValues>
            2.3036366701126099e-01 -7.7061432600021362e-01</leafValues></_>
        <_>
          <internalNodes>
            0 -1 103 1.0196494404226542e-03</internalNodes>
          <leafValues>
            -2.6917997002601624e-01 6.5638440847396851e-01</leafValues></_>
        <_>
          <internalNodes>
            0 -1 138 1.3665694277733564e-03</internalNodes>
          <leafValues>
            1.8943262100219727e-01 -8.1649053096771240e-01</leafValues></_>
        <_>
          <internalNodes>
            0 -1 80 -1.2504667975008488e-03</internalNodes>
          <leafValues>
            2.4464145302772522e-01 -5.6442332267761230e-01</leafValues></_></weakClassifiers></_>
    <!-- stage 18 -->
    <_>
      <maxWeakCount>15</maxWeakCount>
      <stageThreshold>-1.2599780559539795e+00</stageThreshold>
      <weakClassifiers>
        <_>
          <internalNodes>
            0 -1 68 1.4110979624092579e-02</internalNodes>
          <leafValues>
            -6.1216729879379272e-01 4.4444444775581360e-01</leafValues></_>
        <_>
          <internalNodes>
            0 -1 194 1.8521059304475784e-02</internalNodes>
          <leafValues>
            -3.1112617254257202e-01 4.8264035582542419e-01</leafValues></_>
        <_>
          <internalNodes>
            0 -1 97 -6.1709256842732430e-03</internalNodes>
          <leafValues>
            2.6437291502952576e-01 -5.2672398090362549e-01</leafValues></_>
        <_>
          <internalNodes>
            0 -1 20 -7.9440195113420486e-03</internalNodes>
          <leafValues>
            -8.9909952878952026e-01 1.5695507824420929e-01</leafValues></_>
        <_>
          <internalNodes>
            0 -1 188 4.1424192022532225e-04</internalNodes>
          <leafValues>
            -2.0874927937984467e-01 7.5321954488754272e-01</leafValues></_>
        <_>
          <internalNodes>
            0 -1 2 -2.3096997290849686e-02</internalNodes>
          <leafValues>
            5.4586368799209595e-01 -2.3014427721500397e-01</leafValues></_>
        <_>
          <internalNodes>
            0 -1 102 6.0284597566351295e-04</internalNodes>
          <leafValues>
            -1.4804658293724060e-01 7.9980242252349854e-01</leafValues></_>
        <_>
          <internalNodes>
            0 -1 70 -2.3677915334701538e-02</internalNodes>
          <leafValues>
            -8.8259160518646240e-01 1.6489689052104950e-01</leafValues></_>
        <_>
          <internalNodes>
            0 -1 195 -4.7585610300302505e-03</internalNodes>
          <leafValues>
            7.6244795322418213e-01 -2.3298715054988861e-01</leafValues></_>
        <_>
          <internalNodes>
            0 -1 56 2.8377756476402283e-02</internalNodes>
          <leafValues>
            -1.1950293928384781e-01 7.6670539379119873e-01</leafValues></_>
        <_>
          <internalNodes>
            0 -1 57 -8.9099416509270668e-03</internalNodes>
          <leafValues>
            6.9463837146759033e-01 -2.5592470169067383e-01</leafValues></_>
        <_>
          <internalNodes>
            0 -1 141 8.0866710050031543e-05</internalNodes>
          <leafValues>
            3.3439785242080688e-01 -4.3286716938018799e-01</leafValues></_>
        <_>
          <internalNodes>
            0 -1 153 2.2518480545841157e-04</internalNodes>
          <leafValues>
            1.9436721503734589e-01 -6.1311417818069458e-01</leafValues></_>
        <_>
          <internalNodes>
            0 -1 53 8.6713938799221069e-05</internalNodes>
          <leafValues>
            2.0176404714584351e-01 -5.8419728279113770e-01</leafValues></_>
        <_>
          <internalNodes>
            0 -1 71 8.6511060595512390e-02</internalNodes>
          <leafValues>
            1.5187223255634308e-01 -8.1762266159057617e-01</leafValues></_></weakClassifiers></_>
    <!-- stage 19 -->
    <_>
      <maxWeakCount>17</maxWeakCount>
      <stageThreshold>-1.1911413669586182e+00</stageThreshold>
      <weakClassifiers>
        <_>
          <internalNodes>
            0 -1 197 -6.2582888640463352e-03</internalNodes>
          <leafValues>
            -3.5866984724998474e-01 4.9653980135917664e-01</leafValues></_>
        <_>
          <internalNodes>
            0 -1 3 7.9103365540504456e-02</internalNodes>
          <leafValues>
            1.8111099302768707e-01 -8.1109106540679932e-01</leafValues></_>
        <_>
          <internalNodes>
            0 -1 62 -6.5284627489745617e-03</internalNodes>
          <leafValues>
            2.4057163298130035e-01 -5.6970053911209106e-01</leafValues></_>
        <_>
          <internalNodes>
            0 -1 169 4.0507190860807896e-03</internalNodes>
          <leafValues>
            1.5879270434379578e-01 -8.2099324464797974e-01</leafValues></_>
        <_>
          <internalNodes>
            0 -1 179 9.7488593310117722e-03</internalNodes>
          <leafValues>
            -2.2905726730823517e-01 7.9009270668029785e-01</leafValues></_>
        <_>
          <internalNodes>
            0 -1 49 2.7660898864269257e-02</internalNodes>
          <leafValues>
            -2.5533181428909302e-01 7.1570378541946411e-01</leafValues></_>
        <_>
          <internalNodes>
            0 -1 50 2.7048768242821097e-04</internalNodes>
          <leafValues>
            -5.8781331777572632e-01 2.8593480587005615e-01</leafValues></_>
        <_>
          <internalNodes>
            0 -1 34 1.8572047352790833e-02</internalNodes>
          <leafValues>
            -2.6544430851936340e-01 5.8793258666992188e-01</leafValues></_>
        <_>
          <internalNodes>
            0 -1 32 -1.2824552133679390e-02</internalNodes>
          <leafValues>
            7.9404169321060181e-01 -1.4273233711719513e-01</leafValues></_>
        <_>
          <internalNodes>
            0 -1 73 8.1820897758007050e-03</internalNodes>
          <leafValues>
            -1.9356745481491089e-01 6.7080003023147583e-01</leafValues></_>
        <_>
          <internalNodes>
            0 -1 137 7.5899166986346245e-03</internalNodes>
          <leafValues>
            -2.5155657529830933e-01 5.6542003154754639e-01</leafValues></_>
        <_>
          <internalNodes>
            0 -1 139 2.1393982751760632e-04</internalNodes>
          <leafValues>
            1.6385191679000854e-01 -9.3186789751052856e-01</leafValues></_>
        <_>
          <internalNodes>
            0 -1 165 -6.9165439344942570e-04</internalNodes>
          <leafValues>
            8.5058176517486572e-01 -1.7295733094215393e-01</leafValues></_>
        <_>
          <internalNodes>
            0 -1 165 1.7479402595199645e-04</internalNodes>
          <leafValues>
            -1.9268879294395447e-01 6.8789321184158325e-01</leafValues></_>
        <_>
          <internalNodes>
            0 -1 109 -5.1688002422451973e-03</internalNodes>
          <leafValues>
            6.9570791721343994e-01 -1.5925703942775726e-01</leafValues></_>
        <_>
          <internalNodes>
            0 -1 75 2.5707604363560677e-02</internalNodes>
          <leafValues>
            -1.9114175438880920e-01 6.9832736253738403e-01</leafValues></_>
        <_>
          <internalNodes>
            0 -1 141 8.8196160504594445e-05</internalNodes>
          <leafValues>
            3.2799351215362549e-01 -4.0427017211914062e-01</leafValues></_></weakClassifiers></_></stages>
  <features>
    <_>
      <rects>
        <_>
          0 2 12 38 -1.</_>
        <_>
          3 2 6 38 2.</_></rects>
      <tilted>0</tilted></_>
    <_>
      <rects>
        <_>
          0 5 2 30 -1.</_>
        <_>
          1 5 1 30 2.</_></rects>
      <tilted>0</tilted></_>
    <_>
      <rects>
        <_>
          0 10 9 30 -1.</_>
        <_>
          3 10 3 30 3.</_></rects>
      <tilted>0</tilted></_>
    <_>
      <rects>
        <_>
          0 11 28 18 -1.</_>
        <_>
          0 20 28 9 2.</_></rects>
      <tilted>0</tilted></_>
    <_>
      <rects>
        <_>
          0 12 4 11 -1.</_>
        <_>
          1 12 2 11 2.</_></rects>
      <tilted>0</tilted></_>
    <_>
      <rects>
        <_>
          0 20 40 2 -1.</_>
        <_>
          10 20 20 2 2.</_></rects>
      <tilted>0</tilted></_>
    <_>
      <rects>
        <_>
          1 10 35 20 -1.</_>
        <_>
          1 15 35 10 2.</_></rects>
      <tilted>0</tilted></_>
    <_>
      <rects>
        <_>
          1 15 29 10 -1.</_>
        <_>
          1 20 29 5 2.</_></rects>
      <tilted>0</tilted></_>
    <_>
      <rects>
        <_>
          1 20 14 7 -1.</_>
        <_>
          8 20 7 7 2.</_></rects>
      <tilted>0</tilted></_>
    <_>
      <rects>
        <_>
          2 0 33 15 -1.</_>
        <_>
          13 5 11 5 9.</_></rects>
      <tilted>0</tilted></_>
    <_>
      <rects>
        <_>
          2 12 36 16 -1.</_>
        <_>
          2 20 36 8 2.</_></rects>
      <tilted>0</tilted></_>
    <_>
      <rects>
        <_>
          2 15 20 6 -1.</_>
        <_>
          2 15 10 3 2.</_>
        <_>
          12 18 10 3 2.</_></rects>
      <tilted>0</tilted></_>
    <_>
      <rects>
        <_>
          2 18 30 8 -1.</_>
        <_>
          12 18 10 8 3.</_></rects>
      <tilted>0</tilted></_>
    <_>
      <rects>
        <_>
          2 19 6 18 -1.</_>
        <_>
          2 19 3 9 2.</_>
        <_>
          5 28 3 9 2.</_></rects>
      <tilted>0</tilted></_>
    <_>
      <rects>
        <_>
          3 13 6 11 -1.</_>
        <_>
          6 13 3 11 2.</_></rects>
      <tilted>0</tilted></_>
    <_>
      <rects>
        <_>
          3 21 16 6 -1.</_>
        <_>
          7 21 8 6 2.</_></rects>
      <tilted>0</tilted></_>
    <_>
      <rects>
        <_>
          3 21 16 10 -1.</_>
        <_>
          3 26 16 5 2.</_></rects>
      <tilted>0</tilted></_>
    <_>
      <rects>
        <_>
          4 6 18 27 -1.</_>
        <_>
          13 6 9 27 2.</_></rects>
      <tilted>0</tilted></_>
    <_>
      <rects>
        <_>
          4 7 32 4 -1.</_>
        <_>
          12 7 16 4 2.</_></rects>
      <tilted>0</tilted></_>
    <_>
      <rects>
        <_>
          4 9 10 19 -1.</_>
        <_>
          9 9 5 19 2.</_></rects>
      <tilted>0</tilted></_>
    <_>
      <rects>
        <_>
          4 18 24 6 -1.</_>
        <_>
          12 18 8 6 3.</_></rects>
      <tilted>0</tilted></_>
    <_>
      <rects>
        <_>
          4 19 30 15 -1.</_>
        <_>
          14 19 10 15 3.</_></rects>
      <tilted>0</tilted></_>
    <_>
      <rects>
        <_>
          4 21 15 5 -1.</_>
        <_>
          9 21 5 5 3.</_></rects>
      <tilted>0</tilted></_>
    <_>
      <rects>
        <_>
          4 21 12 9 -1.</_>
        <_>
          10 21 6 9 2.</_></rects>
      <tilted>0</tilted></_>
    <_>
      <rects>
        <_>
          5 3 30 19 -1.</_>
        <_>
          15 3 10 19 3.</_></rects>
      <tilted>0</tilted></_>
    <_>
      <rects>
        <_>
          5 10 6 7 -1.</_>
        <_>
          8 10 3 7 2.</_></rects>
      <tilted>0</tilted></_>
    <_>
      <rects>
        <_>
          5 12 14 21 -1.</_>
        <_>
          5 19 14 7 3.</_></rects>
      <tilted>0</tilted></_>
    <_>
      <rects>
        <_>
          6 10 10 8 -1.</_>
        <_>
          6 10 5 4 2.</_>
        <_>
          11 14 5 4 2.</_></rects>
      <tilted>0</tilted></_>
    <_>
      <rects>
        <_>
          6 12 24 8 -1.</_>
        <_>
          6 12 12 4 2.</_>
        <_>
          18 16 12 4 2.</_></rects>
      <tilted>0</tilted></_>
    <_>
      <rects>
        <_>
          6 22 12 4 -1.</_>
        <_>
          9 22 6 4 2.</_></rects>
      <tilted>0</tilted></_>
    <_>
      <rects>
        <_>
          7 11 10 6 -1.</_>
        <_>
          7 11 5 3 2.</_>
        <_>
          12 14 5 3 2.</_></rects>
      <tilted>0</tilted></_>
    <_>
      <rects>
        <_>
          7 13 27 14 -1.</_>
        <_>
          16 13 9 14 3.</_></rects>
      <tilted>0</tilted></_>
    <_>
      <rects>
        <_>
          7 15 12 6 -1.</_>
        <_>
          7 17 12 2 3.</_></rects>
      <tilted>0</tilted></_>
    <_>
      <rects>
        <_>
          7 22 28 8 -1.</_>
        <_>
          7 26 28 4 2.</_></rects>
      <tilted>0</tilted></_>
    <_>
      <rects>
        <_>
          8 1 3 26 -1.</_>
        <_>
          8 14 3 13 2.</_></rects>
      <tilted>0</tilted></_>
    <_>
      <rects>
        <_>
          8 4 24 9 -1.</_>
        <_>
          14 4 12 9 2.</_></rects>
      <tilted>0</tilted></_>
    <_>
      <rects>
        <_>
          8 5 6 14 -1.</_>
        <_>
          8 5 3 7 2.</_>
        <_>
          11 12 3 7 2.</_></rects>
      <tilted>0</tilted></_>
    <_>
      <rects>
        <_>
          8 6 14 25 -1.</_>
        <_>
          15 6 7 25 2.</_></rects>
      <tilted>0</tilted></_>
    <_>
      <rects>
        <_>
          8 11 24 12 -1.</_>
        <_>
          16 15 8 4 9.</_></rects>
      <tilted>0</tilted></_>
    <_>
      <rects>
        <_>
          8 13 10 6 -1.</_>
        <_>
          8 15 10 2 3.</_></rects>
      <tilted>0</tilted></_>
    <_>
      <rects>
        <_>
          8 14 24 17 -1.</_>
        <_>
          14 14 12 17 2.</_></rects>
      <tilted>0</tilted></_>
    <_>
      <rects>
        <_>
          8 18 24 6 -1.</_>
        <_>
          8 18 12 3 2.</_>
        <_>
          20 21 12 3 2.</_></rects>
      <tilted>0</tilted></_>
    <_>
      <rects>
        <_>
          9 8 26 14 -1.</_>
        <_>
          9 8 13 7 2.</_>
        <_>
          22 15 13 7 2.</_></rects>
      <tilted>0</tilted></_>
    <_>
      <rects>
        <_>
          9 10 16 12 -1.</_>
        <_>
          17 10 8 12 2.</_></rects>
      <tilted>0</tilted></_>
    <_>
      <rects>
        <_>
          9 12 24 8 -1.</_>
        <_>
          9 12 12 4 2.</_>
        <_>
          21 16 12 4 2.</_></rects>
      <tilted>0</tilted></_>
    <_>
      <rects>
        <_>
          9 13 24 6 -1.</_>
        <_>
          9 13 12 3 2.</_>
        <_>
          21 16 12 3 2.</_></rects>
      <tilted>0</tilted></_>
    <_>
      <rects>
        <_>
          9 14 20 6 -1.</_>
        <_>
          9 14 10 3 2.</_>
        <_>
          19 17 10 3 2.</_></rects>
      <tilted>0</tilted></_>
    <_>
      <rects>
        <_>
          9 14 22 6 -1.</_>
        <_>
          9 14 11 3 2.</_>
        <_>
          20 17 11 3 2.</_></rects>
      <tilted>0</tilted></_>
    <_>
      <rects>
        <_>
          9 15 12 6 -1.</_>
        <_>
          12 15 6 6 2.</_></rects>
      <tilted>0</tilted></_>
    <_>
      <rects>
        <_>
          9 17 26 8 -1.</_>
        <_>
          9 17 13 4 2.</_>
        <_>
          22 21 13 4 2.</_></rects>
      <tilted>0</tilted></_>
    <_>
      <rects>
        <_>
          9 20 9 4 -1.</_>
        <_>
          12 20 3 4 3.</_></rects>
      <tilted>0</tilted></_>
    <_>
      <rects>
        <_>
          9 22 21 6 -1.</_>
        <_>
          16 22 7 6 3.</_></rects>
      <tilted>0</tilted></_>
    <_>
      <rects>
        <_>
          9 24 3 9 -1.</_>
        <_>
          6 27 3 3 3.</_></rects>
      <tilted>1</tilted></_>
    <_>
      <rects>
        <_>
          9 27 1 4 -1.</_>
        <_>
          9 29 1 2 2.</_></rects>
      <tilted>0</tilted></_>
    <_>
      <rects>
        <_>
          10 3 20 12 -1.</_>
        <_>
          10 7 20 4 3.</_></rects>
      <tilted>0</tilted></_>
    <_>
      <rects>
        <_>
          10 9 20 18 -1.</_>
        <_>
          10 15 20 6 3.</_></rects>
      <tilted>0</tilted></_>
    <_>
      <rects>
        <_>
          10 13 20 8 -1.</_>
        <_>
          10 13 10 4 2.</_>
        <_>
          20 17 10 4 2.</_></rects>
      <tilted>0</tilted></_>
    <_>
      <rects>
        <_>
          10 14 18 6 -1.</_>
        <_>
          10 14 9 3 2.</_>
        <_>
          19 17 9 3 2.</_></rects>
      <tilted>0</tilted></_>
    <_>
      <rects>
        <_>
          10 16 14 19 -1.</_>
        <_>
          17 16 7 19 2.</_></rects>
      <tilted>0</tilted></_>
    <_>
      <rects>
        <_>
          10 17 18 15 -1.</_>
        <_>
          16 22 6 5 9.</_></rects>
      <tilted>0</tilted></_>
    <_>
      <rects>
        <_>
          10 18 24 9 -1.</_>
        <_>
          16 18 12 9 2.</_></rects>
      <tilted>0</tilted></_>
    <_>
      <rects>
        <_>
          10 22 20 4 -1.</_>
        <_>
          15 22 10 4 2.</_></rects>
      <tilted>0</tilted></_>
    <_>
      <rects>
        <_>
          10 22 20 7 -1.</_>
        <_>
          15 22 10 7 2.</_></rects>
      <tilted>0</tilted></_>
    <_>
      <rects>
        <_>
          10 24 2 4 -1.</_>
        <_>
          10 24 2 2 2.</_></rects>
      <tilted>1</tilted></_>
    <_>
      <rects>
        <_>
          11 6 21 3 -1.</_>
        <_>
          18 13 7 3 3.</_></rects>
      <tilted>1</tilted></_>
    <_>
      <rects>
        <_>
          11 8 27 9 -1.</_>
        <_>
          20 11 9 3 9.</_></rects>
      <tilted>0</tilted></_>
    <_>
      <rects>
        <_>
          11 14 6 20 -1.</_>
        <_>
          11 14 3 10 2.</_>
        <_>
          14 24 3 10 2.</_></rects>
      <tilted>0</tilted></_>
    <_>
      <rects>
        <_>
          11 15 8 6 -1.</_>
        <_>
          11 17 8 2 3.</_></rects>
      <tilted>0</tilted></_>
    <_>
      <rects>
        <_>
          12 4 16 17 -1.</_>
        <_>
          16 4 8 17 2.</_></rects>
      <tilted>0</tilted></_>
    <_>
      <rects>
        <_>
          12 6 16 14 -1.</_>
        <_>
          16 6 8 14 2.</_></rects>
      <tilted>0</tilted></_>
    <_>
      <rects>
        <_>
          12 9 16 22 -1.</_>
        <_>
          12 9 8 11 2.</_>
        <_>
          20 20 8 11 2.</_></rects>
      <tilted>0</tilted></_>
    <_>
      <rects>
        <_>
          12 10 26 20 -1.</_>
        <_>
          12 15 26 10 2.</_></rects>
      <tilted>0</tilted></_>
    <_>
      <rects>
        <_>
          12 13 6 9 -1.</_>
        <_>
          12 16 6 3 3.</_></rects>
      <tilted>0</tilted></_>
    <_>
      <rects>
        <_>
          12 16 7 6 -1.</_>
        <_>
          12 18 7 2 3.</_></rects>
      <tilted>0</tilted></_>
    <_>
      <rects>
        <_>
          12 22 16 4 -1.</_>
        <_>
          16 22 8 4 2.</_></rects>
      <tilted>0</tilted></_>
    <_>
      <rects>
        <_>
          13 0 12 9 -1.</_>
        <_>
          10 3 12 3 3.</_></rects>
      <tilted>1</tilted></_>
    <_>
      <rects>
        <_>
          13 12 4 26 -1.</_>
        <_>
          13 12 2 13 2.</_>
        <_>
          15 25 2 13 2.</_></rects>
      <tilted>0</tilted></_>
    <_>
      <rects>
        <_>
          13 12 5 6 -1.</_>
        <_>
          13 15 5 3 2.</_></rects>
      <tilted>0</tilted></_>
    <_>
      <rects>
        <_>
          13 12 20 19 -1.</_>
        <_>
          23 12 10 19 2.</_></rects>
      <tilted>0</tilted></_>
    <_>
      <rects>
        <_>
          13 16 15 8 -1.</_>
        <_>
          13 20 15 4 2.</_></rects>
      <tilted>0</tilted></_>
    <_>
      <rects>
        <_>
          13 21 8 3 -1.</_>
        <_>
          15 21 4 3 2.</_></rects>
      <tilted>0</tilted></_>
    <_>
      <rects>
        <_>
          13 22 8 2 -1.</_>
        <_>
          15 22 4 2 2.</_></rects>
      <tilted>0</tilted></_>
    <_>
      <rects>
        <_>
          14 1 18 3 -1.</_>
        <_>
          20 7 6 3 3.</_></rects>
      <tilted>1</tilted></_>
    <_>
      <rects>
        <_>
          14 3 12 19 -1.</_>
        <_>
          18 3 4 19 3.</_></rects>
      <tilted>0</tilted></_>
    <_>
      <rects>
        <_>
          14 4 12 17 -1.</_>
        <_>
          17 4 6 17 2.</_></rects>
      <tilted>0</tilted></_>
    <_>
      <rects>
        <_>
          14 6 23 24 -1.</_>
        <_>
          14 18 23 12 2.</_></rects>
      <tilted>0</tilted></_>
    <_>
      <rects>
        <_>
          14 12 12 16 -1.</_>
        <_>
          14 12 6 8 2.</_>
        <_>
          20 20 6 8 2.</_></rects>
      <tilted>0</tilted></_>
    <_>
      <rects>
        <_>
          14 14 14 6 -1.</_>
        <_>
          14 14 7 6 2.</_></rects>
      <tilted>1</tilted></_>
    <_>
      <rects>
        <_>
          14 16 12 6 -1.</_>
        <_>
          18 16 4 6 3.</_></rects>
      <tilted>0</tilted></_>
    <_>
      <rects>
        <_>
          14 18 3 3 -1.</_>
        <_>
          15 19 1 1 9.</_></rects>
      <tilted>0</tilted></_>
    <_>
      <rects>
        <_>
          14 18 4 6 -1.</_>
        <_>
          15 18 2 6 2.</_></rects>
      <tilted>0</tilted></_>
    <_>
      <rects>
        <_>
          14 19 7 4 -1.</_>
        <_>
          13 20 7 2 2.</_></rects>
      <tilted>1</tilted></_>
    <_>
      <rects>
        <_>
          14 22 3 1 -1.</_>
        <_>
          15 22 1 1 3.</_></rects>
      <tilted>0</tilted></_>
    <_>
      <rects>
        <_>
          14 22 4 1 -1.</_>
        <_>
          16 22 2 1 2.</_></rects>
      <tilted>0</tilted></_>
    <_>
      <rects>
        <_>
          15 0 6 14 -1.</_>
        <_>
          15 0 3 14 2.</_></rects>
      <tilted>1</tilted></_>
    <_>
      <rects>
        <_>
          15 4 18 15 -1.</_>
        <_>
          21 9 6 5 9.</_></rects>
      <tilted>0</tilted></_>
    <_>
      <rects>
        <_>
          15 9 16 1 -1.</_>
        <_>
          19 13 8 1 2.</_></rects>
      <tilted>1</tilted></_>
    <_>
      <rects>
        <_>
          15 10 9 4 -1.</_>
        <_>
          18 13 3 4 3.</_></rects>
      <tilted>1</tilted></_>
    <_>
      <rects>
        <_>
          15 11 6 12 -1.</_>
        <_>
          15 14 6 6 2.</_></rects>
      <tilted>0</tilted></_>
    <_>
      <rects>
        <_>
          15 16 9 8 -1.</_>
        <_>
          18 16 3 8 3.</_></rects>
      <tilted>0</tilted></_>
    <_>
      <rects>
        <_>
          15 17 3 2 -1.</_>
        <_>
          16 18 1 2 3.</_></rects>
      <tilted>1</tilted></_>
    <_>
      <rects>
        <_>
          15 17 16 5 -1.</_>
        <_>
          19 17 8 5 2.</_></rects>
      <tilted>0</tilted></_>
    <_>
      <rects>
        <_>
          15 18 1 3 -1.</_>
        <_>
          15 19 1 1 3.</_></rects>
      <tilted>0</tilted></_>
    <_>
      <rects>
        <_>
          15 18 4 4 -1.</_>
        <_>
          15 18 2 2 2.</_>
        <_>
          17 20 2 2 2.</_></rects>
      <tilted>0</tilted></_>
    <_>
      <rects>
        <_>
          15 18 8 4 -1.</_>
        <_>
          15 18 4 4 2.</_></rects>
      <tilted>1</tilted></_>
    <_>
      <rects>
        <_>
          15 20 2 2 -1.</_>
        <_>
          15 20 1 1 2.</_>
        <_>
          16 21 1 1 2.</_></rects>
      <tilted>0</tilted></_>
    <_>
      <rects>
        <_>
          15 21 3 2 -1.</_>
        <_>
          16 21 1 2 3.</_></rects>
      <tilted>0</tilted></_>
    <_>
      <rects>
        <_>
          16 8 22 8 -1.</_>
        <_>
          16 8 11 4 2.</_>
        <_>
          27 12 11 4 2.</_></rects>
      <tilted>0</tilted></_>
    <_>
      <rects>
        <_>
          16 12 7 8 -1.</_>
        <_>
          16 14 7 4 2.</_></rects>
      <tilted>0</tilted></_>
    <_>
      <rects>
        <_>
          16 12 8 4 -1.</_>
        <_>
          16 12 8 2 2.</_></rects>
      <tilted>1</tilted></_>
    <_>
      <rects>
        <_>
          16 13 8 6 -1.</_>
        <_>
          16 15 8 2 3.</_></rects>
      <tilted>0</tilted></_>
    <_>
      <rects>
        <_>
          16 15 6 3 -1.</_>
        <_>
          18 15 2 3 3.</_></rects>
      <tilted>0</tilted></_>
    <_>
      <rects>
        <_>
          16 16 8 7 -1.</_>
        <_>
          18 16 4 7 2.</_></rects>
      <tilted>0</tilted></_>
    <_>
      <rects>
        <_>
          16 16 9 9 -1.</_>
        <_>
          19 19 3 3 9.</_></rects>
      <tilted>0</tilted></_>
    <_>
      <rects>
        <_>
          16 16 9 6 -1.</_>
        <_>
          19 16 3 6 3.</_></rects>
      <tilted>0</tilted></_>
    <_>
      <rects>
        <_>
          16 17 9 3 -1.</_>
        <_>
          19 18 3 1 9.</_></rects>
      <tilted>0</tilted></_>
    <_>
      <rects>
        <_>
          16 19 3 4 -1.</_>
        <_>
          17 20 1 4 3.</_></rects>
      <tilted>1</tilted></_>
    <_>
      <rects>
        <_>
          17 1 8 14 -1.</_>
        <_>
          19 3 4 14 2.</_></rects>
      <tilted>1</tilted></_>
    <_>
      <rects>
        <_>
          17 5 17 12 -1.</_>
        <_>
          14 8 17 6 2.</_></rects>
      <tilted>1</tilted></_>
    <_>
      <rects>
        <_>
          17 12 6 8 -1.</_>
        <_>
          17 14 6 4 2.</_></rects>
      <tilted>0</tilted></_>
    <_>
      <rects>
        <_>
          17 18 5 4 -1.</_>
        <_>
          16 19 5 2 2.</_></rects>
      <tilted>1</tilted></_>
    <_>
      <rects>
        <_>
          17 18 10 4 -1.</_>
        <_>
          16 19 10 2 2.</_></rects>
      <tilted>1</tilted></_>
    <_>
      <rects>
        <_>
          17 20 6 1 -1.</_>
        <_>
          20 20 3 1 2.</_></rects>
      <tilted>0</tilted></_>
    <_>
      <rects>
        <_>
          17 23 3 4 -1.</_>
        <_>
          17 24 3 2 2.</_></rects>
      <tilted>0</tilted></_>
    <_>
      <rects>
        <_>
          17 24 6 8 -1.</_>
        <_>
          19 24 2 8 3.</_></rects>
      <tilted>0</tilted></_>
    <_>
      <rects>
        <_>
          18 13 8 7 -1.</_>
        <_>
          18 13 4 7 2.</_></rects>
      <tilted>1</tilted></_>
    <_>
      <rects>
        <_>
          18 14 6 12 -1.</_>
        <_>
          20 18 2 4 9.</_></rects>
      <tilted>0</tilted></_>
    <_>
      <rects>
        <_>
          18 14 4 12 -1.</_>
        <_>
          18 18 4 4 3.</_></rects>
      <tilted>0</tilted></_>
    <_>
      <rects>
        <_>
          18 16 3 6 -1.</_>
        <_>
          19 17 1 6 3.</_></rects>
      <tilted>1</tilted></_>
    <_>
      <rects>
        <_>
          18 18 6 3 -1.</_>
        <_>
          21 18 3 3 2.</_></rects>
      <tilted>0</tilted></_>
    <_>
      <rects>
        <_>
          18 18 22 6 -1.</_>
        <_>
          29 18 11 6 2.</_></rects>
      <tilted>0</tilted></_>
    <_>
      <rects>
        <_>
          19 6 1 16 -1.</_>
        <_>
          15 10 1 8 2.</_></rects>
      <tilted>1</tilted></_>
    <_>
      <rects>
        <_>
          19 12 8 11 -1.</_>
        <_>
          23 12 4 11 2.</_></rects>
      <tilted>0</tilted></_>
    <_>
      <rects>
        <_>
          19 15 1 12 -1.</_>
        <_>
          16 18 1 6 2.</_></rects>
      <tilted>1</tilted></_>
    <_>
      <rects>
        <_>
          19 15 6 9 -1.</_>
        <_>
          21 18 2 3 9.</_></rects>
      <tilted>0</tilted></_>
    <_>
      <rects>
        <_>
          19 16 3 21 -1.</_>
        <_>
          19 23 3 7 3.</_></rects>
      <tilted>0</tilted></_>
    <_>
      <rects>
        <_>
          19 17 6 6 -1.</_>
        <_>
          22 17 3 6 2.</_></rects>
      <tilted>0</tilted></_>
    <_>
      <rects>
        <_>
          19 17 18 3 -1.</_>
        <_>
          25 18 6 1 9.</_></rects>
      <tilted>0</tilted></_>
    <_>
      <rects>
        <_>
          19 18 3 3 -1.</_>
        <_>
          20 19 1 1 9.</_></rects>
      <tilted>0</tilted></_>
    <_>
      <rects>
        <_>
          19 18 4 3 -1.</_>
        <_>
          21 18 2 3 2.</_></rects>
      <tilted>0</tilted></_>
    <_>
      <rects>
        <_>
          19 18 5 6 -1.</_>
        <_>
          17 20 5 2 3.</_></rects>
      <tilted>1</tilted></_>
    <_>
      <rects>
        <_>
          19 19 2 3 -1.</_>
        <_>
          19 20 2 1 3.</_></rects>
      <tilted>0</tilted></_>
    <_>
      <rects>
        <_>
          19 19 3 2 -1.</_>
        <_>
          19 20 3 1 2.</_></rects>
      <tilted>0</tilted></_>
    <_>
      <rects>
        <_>
          19 20 2 2 -1.</_>
        <_>
          19 21 2 1 2.</_></rects>
      <tilted>0</tilted></_>
    <_>
      <rects>
        <_>
          19 22 3 3 -1.</_>
        <_>
          19 23 3 1 3.</_></rects>
      <tilted>0</tilted></_>
    <_>
      <rects>
        <_>
          20 12 3 12 -1.</_>
        <_>
          20 12 3 6 2.</_></rects>
      <tilted>1</tilted></_>
    <_>
      <rects>
        <_>
          20 13 3 16 -1.</_>
        <_>
          16 17 3 8 2.</_></rects>
      <tilted>1</tilted></_>
    <_>
      <rects>
        <_>
          20 13 13 8 -1.</_>
        <_>
          20 13 13 4 2.</_></rects>
      <tilted>1</tilted></_>
    <_>
      <rects>
        <_>
          20 16 6 2 -1.</_>
        <_>
          22 18 2 2 3.</_></rects>
      <tilted>1</tilted></_>
    <_>
      <rects>
        <_>
          20 18 1 4 -1.</_>
        <_>
          20 19 1 2 2.</_></rects>
      <tilted>0</tilted></_>
    <_>
      <rects>
        <_>
          21 13 12 1 -1.</_>
        <_>
          21 13 6 1 2.</_></rects>
      <tilted>1</tilted></_>
    <_>
      <rects>
        <_>
          21 14 6 16 -1.</_>
        <_>
          23 14 2 16 3.</_></rects>
      <tilted>0</tilted></_>
    <_>
      <rects>
        <_>
          21 14 3 6 -1.</_>
        <_>
          21 14 3 3 2.</_></rects>
      <tilted>1</tilted></_>
    <_>
      <rects>
        <_>
          21 17 2 2 -1.</_>
        <_>
          21 17 1 2 2.</_></rects>
      <tilted>1</tilted></_>
    <_>
      <rects>
        <_>
          21 17 1 9 -1.</_>
        <_>
          18 20 1 3 3.</_></rects>
      <tilted>1</tilted></_>
    <_>
      <rects>
        <_>
          21 18 4 2 -1.</_>
        <_>
          21 18 2 1 2.</_>
        <_>
          23 19 2 1 2.</_></rects>
      <tilted>0</tilted></_>
    <_>
      <rects>
        <_>
          21 18 2 2 -1.</_>
        <_>
          21 18 2 1 2.</_></rects>
      <tilted>1</tilted></_>
    <_>
      <rects>
        <_>
          21 22 16 4 -1.</_>
        <_>
          25 22 8 4 2.</_></rects>
      <tilted>0</tilted></_>
    <_>
      <rects>
        <_>
          22 9 6 4 -1.</_>
        <_>
          24 11 2 4 3.</_></rects>
      <tilted>1</tilted></_>
    <_>
      <rects>
        <_>
          22 11 1 9 -1.</_>
        <_>
          19 14 1 3 3.</_></rects>
      <tilted>1</tilted></_>
    <_>
      <rects>
        <_>
          22 16 2 4 -1.</_>
        <_>
          22 16 2 2 2.</_></rects>
      <tilted>1</tilted></_>
    <_>
      <rects>
        <_>
          22 16 9 6 -1.</_>
        <_>
          22 16 9 3 2.</_></rects>
      <tilted>1</tilted></_>
    <_>
      <rects>
        <_>
          22 18 4 5 -1.</_>
        <_>
          23 18 2 5 2.</_></rects>
      <tilted>0</tilted></_>
    <_>
      <rects>
        <_>
          22 18 6 5 -1.</_>
        <_>
          24 20 2 5 3.</_></rects>
      <tilted>1</tilted></_>
    <_>
      <rects>
        <_>
          22 19 1 2 -1.</_>
        <_>
          22 19 1 1 2.</_></rects>
      <tilted>1</tilted></_>
    <_>
      <rects>
        <_>
          22 21 3 1 -1.</_>
        <_>
          23 21 1 1 3.</_></rects>
      <tilted>0</tilted></_>
    <_>
      <rects>
        <_>
          23 8 12 8 -1.</_>
        <_>
          23 8 12 4 2.</_></rects>
      <tilted>1</tilted></_>
    <_>
      <rects>
        <_>
          23 12 15 9 -1.</_>
        <_>
          28 15 5 3 9.</_></rects>
      <tilted>0</tilted></_>
    <_>
      <rects>
        <_>
          23 14 15 4 -1.</_>
        <_>
          28 14 5 4 3.</_></rects>
      <tilted>0</tilted></_>
    <_>
      <rects>
        <_>
          23 14 7 6 -1.</_>
        <_>
          23 14 7 3 2.</_></rects>
      <tilted>1</tilted></_>
    <_>
      <rects>
        <_>
          23 15 8 3 -1.</_>
        <_>
          27 15 4 3 2.</_></rects>
      <tilted>0</tilted></_>
    <_>
      <rects>
        <_>
          23 16 4 6 -1.</_>
        <_>
          23 18 4 2 3.</_></rects>
      <tilted>0</tilted></_>
    <_>
      <rects>
        <_>
          23 17 6 6 -1.</_>
        <_>
          25 19 2 6 3.</_></rects>
      <tilted>1</tilted></_>
    <_>
      <rects>
        <_>
          23 19 2 2 -1.</_>
        <_>
          23 19 1 1 2.</_>
        <_>
          24 20 1 1 2.</_></rects>
      <tilted>0</tilted></_>
    <_>
      <rects>
        <_>
          23 20 2 2 -1.</_>
        <_>
          23 20 1 1 2.</_>
        <_>
          24 21 1 1 2.</_></rects>
      <tilted>0</tilted></_>
    <_>
      <rects>
        <_>
          23 21 2 2 -1.</_>
        <_>
          23 21 1 1 2.</_>
        <_>
          24 22 1 1 2.</_></rects>
      <tilted>0</tilted></_>
    <_>
      <rects>
        <_>
          23 21 2 4 -1.</_>
        <_>
          23 21 1 2 2.</_>
        <_>
          24 23 1 2 2.</_></rects>
      <tilted>0</tilted></_>
    <_>
      <rects>
        <_>
          24 7 9 10 -1.</_>
        <_>
          24 7 9 5 2.</_></rects>
      <tilted>1</tilted></_>
    <_>
      <rects>
        <_>
          24 10 10 8 -1.</_>
        <_>
          24 10 5 4 2.</_>
        <_>
          29 14 5 4 2.</_></rects>
      <tilted>0</tilted></_>
    <_>
      <rects>
        <_>
          24 13 7 9 -1.</_>
        <_>
          24 16 7 3 3.</_></rects>
      <tilted>0</tilted></_>
    <_>
      <rects>
        <_>
          24 14 3 8 -1.</_>
        <_>
          22 16 3 4 2.</_></rects>
      <tilted>1</tilted></_>
    <_>
      <rects>
        <_>
          24 14 15 11 -1.</_>
        <_>
          29 14 5 11 3.</_></rects>
      <tilted>0</tilted></_>
    <_>
      <rects>
        <_>
          24 14 15 13 -1.</_>
        <_>
          29 14 5 13 3.</_></rects>
      <tilted>0</tilted></_>
    <_>
      <rects>
        <_>
          24 14 6 8 -1.</_>
        <_>
          22 16 6 4 2.</_></rects>
      <tilted>1</tilted></_>
    <_>
      <rects>
        <_>
          24 14 6 14 -1.</_>
        <_>
          24 14 6 7 2.</_></rects>
      <tilted>1</tilted></_>
    <_>
      <rects>
        <_>
          24 15 8 1 -1.</_>
        <_>
          26 17 4 1 2.</_></rects>
      <tilted>1</tilted></_>
    <_>
      <rects>
        <_>
          24 16 5 3 -1.</_>
        <_>
          24 17 5 1 3.</_></rects>
      <tilted>0</tilted></_>
    <_>
      <rects>
        <_>
          24 19 2 2 -1.</_>
        <_>
          24 19 1 1 2.</_>
        <_>
          25 20 1 1 2.</_></rects>
      <tilted>0</tilted></_>
    <_>
      <rects>
        <_>
          24 20 2 2 -1.</_>
        <_>
          24 20 1 1 2.</_>
        <_>
          25 21 1 1 2.</_></rects>
      <tilted>0</tilted></_>
    <_>
      <rects>
        <_>
          25 10 6 8 -1.</_>
        <_>
          25 10 3 4 2.</_>
        <_>
          28 14 3 4 2.</_></rects>
      <tilted>0</tilted></_>
    <_>
      <rects>
        <_>
          26 10 4 8 -1.</_>
        <_>
          24 12 4 4 2.</_></rects>
      <tilted>1</tilted></_>
    <_>
      <rects>
        <_>
          26 16 6 15 -1.</_>
        <_>
          29 16 3 15 2.</_></rects>
      <tilted>0</tilted></_>
    <_>
      <rects>
        <_>
          26 19 4 7 -1.</_>
        <_>
          26 19 2 7 2.</_></rects>
      <tilted>1</tilted></_>
    <_>
      <rects>
        <_>
          27 1 12 20 -1.</_>
        <_>
          27 1 6 10 2.</_>
        <_>
          33 11 6 10 2.</_></rects>
      <tilted>0</tilted></_>
    <_>
      <rects>
        <_>
          27 2 13 8 -1.</_>
        <_>
          25 4 13 4 2.</_></rects>
      <tilted>1</tilted></_>
    <_>
      <rects>
        <_>
          27 12 12 2 -1.</_>
        <_>
          30 12 6 2 2.</_></rects>
      <tilted>0</tilted></_>
    <_>
      <rects>
        <_>
          28 0 5 12 -1.</_>
        <_>
          24 4 5 4 3.</_></rects>
      <tilted>1</tilted></_>
    <_>
      <rects>
        <_>
          28 36 12 3 -1.</_>
        <_>
          34 36 6 3 2.</_></rects>
      <tilted>0</tilted></_>
    <_>
      <rects>
        <_>
          29 3 10 9 -1.</_>
        <_>
          26 6 10 3 3.</_></rects>
      <tilted>1</tilted></_>
    <_>
      <rects>
        <_>
          30 5 7 9 -1.</_>
        <_>
          27 8 7 3 3.</_></rects>
      <tilted>1</tilted></_>
    <_>
      <rects>
        <_>
          30 12 8 15 -1.</_>
        <_>
          34 12 4 15 2.</_></rects>
      <tilted>0</tilted></_>
    <_>
      <rects>
        <_>
          30 20 8 7 -1.</_>
        <_>
          34 20 4 7 2.</_></rects>
      <tilted>0</tilted></_>
    <_>
      <rects>
        <_>
          32 3 8 8 -1.</_>
        <_>
          30 5 8 4 2.</_></rects>
      <tilted>1</tilted></_>
    <_>
      <rects>
        <_>
          32 8 6 15 -1.</_>
        <_>
          34 8 2 15 3.</_></rects>
      <tilted>0</tilted></_>
    <_>
      <rects>
        <_>
          32 8 6 6 -1.</_>
        <_>
          30 10 6 2 3.</_></rects>
      <tilted>1</tilted></_>
    <_>
      <rects>
        <_>
          32 17 8 20 -1.</_>
        <_>
          32 17 4 10 2.</_>
        <_>
          36 27 4 10 2.</_></rects>
      <tilted>0</tilted></_>
    <_>
      <rects>
        <_>
          32 26 8 4 -1.</_>
        <_>
          34 28 4 4 2.</_></rects>
      <tilted>1</tilted></_>
    <_>
      <rects>
        <_>
          33 8 6 16 -1.</_>
        <_>
          33 8 3 8 2.</_>
        <_>
          36 16 3 8 2.</_></rects>
      <tilted>0</tilted></_>
    <_>
      <rects>
        <_>
          34 13 4 18 -1.</_>
        <_>
          35 13 2 18 2.</_></rects>
      <tilted>0</tilted></_>
    <_>
      <rects>
        <_>
          34 13 4 22 -1.</_>
        <_>
          34 13 2 11 2.</_>
        <_>
          36 24 2 11 2.</_></rects>
      <tilted>0</tilted></_>
    <_>
      <rects>
        <_>
          35 12 2 12 -1.</_>
        <_>
          35 12 1 6 2.</_>
        <_>
          36 18 1 6 2.</_></rects>
      <tilted>0</tilted></_></features></cascade>
</opencv_storage>
