<?xml version="1.0"?>
<opencv_storage>
<cascade>
  <stageType>BOOST</stageType>
  <featureType>HAAR</featureType>
  <height>40</height>
  <width>40</width>
  <stageParams>
    <boostType>GAB</boostType>
    <minHitRate>9.9900001287460327e-01</minHitRate>
    <maxFalseAlarm>5.0000000000000000e-01</maxFalseAlarm>
    <weightTrimRate>9.4999999999999996e-01</weightTrimRate>
    <maxDepth>1</maxDepth>
    <maxWeakCount>100</maxWeakCount></stageParams>
  <featureParams>
    <maxCatCount>0</maxCatCount>
    <featSize>1</featSize>
    <mode>ALL</mode></featureParams>
  <stageNum>20</stageNum>
  <stages>
    <!-- stage 0 -->
    <_>
      <maxWeakCount>3</maxWeakCount>
      <stageThreshold>-7.9624485969543457e-01</stageThreshold>
      <weakClassifiers>
        <_>
          <internalNodes>
            0 -1 102 8.3278398960828781e-03</internalNodes>
          <leafValues>
            -8.8909429311752319e-01 8.1478017568588257e-01</leafValues></_>
        <_>
          <internalNodes>
            0 -1 82 1.1704218573868275e-02</internalNodes>
          <leafValues>
            -7.5495439767837524e-01 7.1436583995819092e-01</leafValues></_>
        <_>
          <internalNodes>
            0 -1 28 3.6168533843010664e-03</internalNodes>
          <leafValues>
            -5.8937412500381470e-01 8.4780377149581909e-01</leafValues></_></weakClassifiers></_>
    <!-- stage 1 -->
    <_>
      <maxWeakCount>4</maxWeakCount>
      <stageThreshold>-9.7509139776229858e-01</stageThreshold>
      <weakClassifiers>
        <_>
          <internalNodes>
            0 -1 104 1.3201322406530380e-02</internalNodes>
          <leafValues>
            -6.3819092512130737e-01 7.6110565662384033e-01</leafValues></_>
        <_>
          <internalNodes>
            0 -1 185 8.5216434672474861e-03</internalNodes>
          <leafValues>
            -4.7992855310440063e-01 8.6581319570541382e-01</leafValues></_>
        <_>
          <internalNodes>
            0 -1 117 6.0389214195311069e-04</internalNodes>
          <leafValues>
            -6.3471889495849609e-01 6.5097230672836304e-01</leafValues></_>
        <_>
          <internalNodes>
            0 -1 17 6.9680260494351387e-03</internalNodes>
          <leafValues>
            -5.0742322206497192e-01 7.7774697542190552e-01</leafValues></_></weakClassifiers></_>
    <!-- stage 2 -->
    <_>
      <maxWeakCount>5</maxWeakCount>
      <stageThreshold>-1.5710281133651733e+00</stageThreshold>
      <weakClassifiers>
        <_>
          <internalNodes>
            0 -1 70 -2.3709852248430252e-03</internalNodes>
          <leafValues>
            6.6962701082229614e-01 -7.5206613540649414e-01</leafValues></_>
        <_>
          <internalNodes>
            0 -1 78 3.0759340152144432e-03</internalNodes>
          <leafValues>
            -7.5684696435928345e-01 5.5529350042343140e-01</leafValues></_>
        <_>
          <internalNodes>
            0 -1 193 -1.6628172248601913e-02</internalNodes>
          <leafValues>
            5.5014789104461670e-01 -6.1102312803268433e-01</leafValues></_>
        <_>
          <internalNodes>
            0 -1 98 1.0687925387173891e-03</internalNodes>
          <leafValues>
            -3.5701480507850647e-01 7.9749423265457153e-01</leafValues></_>
        <_>
          <internalNodes>
            0 -1 25 4.1970396414399147e-03</internalNodes>
          <leafValues>
            -5.1577019691467285e-01 5.2430653572082520e-01</leafValues></_></weakClassifiers></_>
    <!-- stage 3 -->
    <_>
      <maxWeakCount>8</maxWeakCount>
      <stageThreshold>-1.5237640142440796e+00</stageThreshold>
      <weakClassifiers>
        <_>
          <internalNodes>
            0 -1 85 -7.5528826564550400e-03</internalNodes>
          <leafValues>
            6.9911503791809082e-01 -5.4131531715393066e-01</leafValues></_>
        <_>
          <internalNodes>
            0 -1 12 7.8964829444885254e-02</internalNodes>
          <leafValues>
            -7.4570977687835693e-01 5.0824999809265137e-01</leafValues></_>
        <_>
          <internalNodes>
            0 -1 169 -1.4217126881703734e-03</internalNodes>
          <leafValues>
            6.8978369235992432e-01 -3.9866697788238525e-01</leafValues></_>
        <_>
          <internalNodes>
            0 -1 23 7.0814965292811394e-03</internalNodes>
          <leafValues>
            -3.5045316815376282e-01 7.5023800134658813e-01</leafValues></_>
        <_>
          <internalNodes>
            0 -1 201 -1.3045107945799828e-02</internalNodes>
          <leafValues>
            6.8220388889312744e-01 -3.9575001597404480e-01</leafValues></_>
        <_>
          <internalNodes>
            0 -1 73 -6.1194840818643570e-03</internalNodes>
          <leafValues>
            4.1745707392692566e-01 -6.0530149936676025e-01</leafValues></_>
        <_>
          <internalNodes>
            0 -1 29 6.0818772763013840e-03</internalNodes>
          <leafValues>
            -3.8918969035148621e-01 6.4374172687530518e-01</leafValues></_>
        <_>
          <internalNodes>
            0 -1 46 1.4756022952497005e-02</internalNodes>
          <leafValues>
            -2.1875956654548645e-01 9.1561824083328247e-01</leafValues></_></weakClassifiers></_>
    <!-- stage 4 -->
    <_>
      <maxWeakCount>8</maxWeakCount>
      <stageThreshold>-1.5431571006774902e+00</stageThreshold>
      <weakClassifiers>
        <_>
          <internalNodes>
            0 -1 87 7.1070957928895950e-03</internalNodes>
          <leafValues>
            -6.6423356533050537e-01 5.5296081304550171e-01</leafValues></_>
        <_>
          <internalNodes>
            0 -1 188 7.8338067978620529e-03</internalNodes>
          <leafValues>
            -4.3443393707275391e-01 6.6755884885787964e-01</leafValues></_>
        <_>
          <internalNodes>
            0 -1 97 -2.2277090465649962e-04</internalNodes>
          <leafValues>
            6.8755847215652466e-01 -3.2390412688255310e-01</leafValues></_>
        <_>
          <internalNodes>
            0 -1 63 -9.6408361569046974e-03</internalNodes>
          <leafValues>
            7.8746992349624634e-01 -3.0770134925842285e-01</leafValues></_>
        <_>
          <internalNodes>
            0 -1 175 -2.1695122122764587e-03</internalNodes>
          <leafValues>
            6.1943721771240234e-01 -3.8942271471023560e-01</leafValues></_>
        <_>
          <internalNodes>
            0 -1 67 -7.7907084487378597e-03</internalNodes>
          <leafValues>
            7.4218690395355225e-01 -2.6484721899032593e-01</leafValues></_>
        <_>
          <internalNodes>
            0 -1 131 -4.1831214912235737e-04</internalNodes>
          <leafValues>
            -9.0308570861816406e-01 3.0841571092605591e-01</leafValues></_>
        <_>
          <internalNodes>
            0 -1 109 8.3392458036541939e-03</internalNodes>
          <leafValues>
            -4.7849252820014954e-01 4.1091126203536987e-01</leafValues></_></weakClassifiers></_>
    <!-- stage 5 -->
    <_>
      <maxWeakCount>10</maxWeakCount>
      <stageThreshold>-1.3299914598464966e+00</stageThreshold>
      <weakClassifiers>
        <_>
          <internalNodes>
            0 -1 70 -3.6067870678380132e-04</internalNodes>
          <leafValues>
            4.9124142527580261e-01 -8.5858583450317383e-01</leafValues></_>
        <_>
          <internalNodes>
            0 -1 26 1.9842263311147690e-02</internalNodes>
          <leafValues>
            -7.5613886117935181e-01 3.6105489730834961e-01</leafValues></_>
        <_>
          <internalNodes>
            0 -1 119 3.4202547976747155e-04</internalNodes>
          <leafValues>
            -6.0371953248977661e-01 3.9245718717575073e-01</leafValues></_>
        <_>
          <internalNodes>
            0 -1 99 1.1057016439735889e-02</internalNodes>
          <leafValues>
            -4.9794590473175049e-01 4.8757278919219971e-01</leafValues></_>
        <_>
          <internalNodes>
            0 -1 203 6.7646368406713009e-03</internalNodes>
          <leafValues>
            -3.6562243103981018e-01 6.5637558698654175e-01</leafValues></_>
        <_>
          <internalNodes>
            0 -1 49 -8.6320936679840088e-03</internalNodes>
          <leafValues>
            6.1594194173812866e-01 -3.1839019060134888e-01</leafValues></_>
        <_>
          <internalNodes>
            0 -1 112 -2.1624429151415825e-02</internalNodes>
          <leafValues>
            -8.3094292879104614e-01 2.8308808803558350e-01</leafValues></_>
        <_>
          <internalNodes>
            0 -1 111 -5.5957492440938950e-02</internalNodes>
          <leafValues>
            -8.6403727531433105e-01 1.6077686846256256e-01</leafValues></_>
        <_>
          <internalNodes>
            0 -1 8 -2.6449763681739569e-03</internalNodes>
          <leafValues>
            6.9882553815841675e-01 -2.9376766085624695e-01</leafValues></_>
        <_>
          <internalNodes>
            0 -1 167 2.9669492505490780e-03</internalNodes>
          <leafValues>
            -3.5320457816123962e-01 5.7048666477203369e-01</leafValues></_></weakClassifiers></_>
    <!-- stage 6 -->
    <_>
      <maxWeakCount>10</maxWeakCount>
      <stageThreshold>-1.0271174907684326e+00</stageThreshold>
      <weakClassifiers>
        <_>
          <internalNodes>
            0 -1 52 -3.4184310585260391e-02</internalNodes>
          <leafValues>
            -7.5919729471206665e-01 4.7063311934471130e-01</leafValues></_>
        <_>
          <internalNodes>
            0 -1 179 1.1256704106926918e-02</internalNodes>
          <leafValues>
            -3.3323946595191956e-01 6.7193698883056641e-01</leafValues></_>
        <_>
          <internalNodes>
            0 -1 42 -1.8077138811349869e-03</internalNodes>
          <leafValues>
            4.6847513318061829e-01 -4.3270438909530640e-01</leafValues></_>
        <_>
          <internalNodes>
            0 -1 54 1.2933193705976009e-02</internalNodes>
          <leafValues>
            -4.6033117175102234e-01 3.9762994647026062e-01</leafValues></_>
        <_>
          <internalNodes>
            0 -1 132 -1.9089886336587369e-05</internalNodes>
          <leafValues>
            1.7338319122791290e-01 -8.9490151405334473e-01</leafValues></_>
        <_>
          <internalNodes>
            0 -1 1 1.9840739667415619e-02</internalNodes>
          <leafValues>
            -4.2791384458541870e-01 4.6785935759544373e-01</leafValues></_>
        <_>
          <internalNodes>
            0 -1 157 -1.7658376600593328e-03</internalNodes>
          <leafValues>
            6.4076519012451172e-01 -3.2335913181304932e-01</leafValues></_>
        <_>
          <internalNodes>
            0 -1 59 -1.4187959022819996e-03</internalNodes>
          <leafValues>
            -8.7161368131637573e-01 2.2690404951572418e-01</leafValues></_>
        <_>
          <internalNodes>
            0 -1 56 3.4678608179092407e-02</internalNodes>
          <leafValues>
            -2.4226413667201996e-01 8.6353725194931030e-01</leafValues></_>
        <_>
          <internalNodes>
            0 -1 113 -2.6052987668663263e-03</internalNodes>
          <leafValues>
            7.8674155473709106e-01 -2.0212960243225098e-01</leafValues></_></weakClassifiers></_>
    <!-- stage 7 -->
    <_>
      <maxWeakCount>11</maxWeakCount>
      <stageThreshold>-1.2748521566390991e+00</stageThreshold>
      <weakClassifiers>
        <_>
          <internalNodes>
            0 -1 177 -3.6399766802787781e-02</internalNodes>
          <leafValues>
            -6.5870308876037598e-01 4.4267272949218750e-01</leafValues></_>
        <_>
          <internalNodes>
            0 -1 60 1.3255340047180653e-02</internalNodes>
          <leafValues>
            -6.7931646108627319e-01 2.8485497832298279e-01</leafValues></_>
        <_>
          <internalNodes>
            0 -1 40 1.8120785243809223e-03</internalNodes>
          <leafValues>
            -5.3498721122741699e-01 3.1861522793769836e-01</leafValues></_>
        <_>
          <internalNodes>
            0 -1 34 4.8714771866798401e-02</internalNodes>
          <leafValues>
            -2.3244860768318176e-01 7.3989397287368774e-01</leafValues></_>
        <_>
          <internalNodes>
            0 -1 35 -2.0714372396469116e-02</internalNodes>
          <leafValues>
            5.9839034080505371e-01 -3.1929293274879456e-01</leafValues></_>
        <_>
          <internalNodes>
            0 -1 43 -2.7095701545476913e-02</internalNodes>
          <leafValues>
            -6.7551165819168091e-01 3.1853884458541870e-01</leafValues></_>
        <_>
          <internalNodes>
            0 -1 194 9.0594701468944550e-03</internalNodes>
          <leafValues>
            -4.0107479691505432e-01 4.2752996087074280e-01</leafValues></_>
        <_>
          <internalNodes>
            0 -1 118 1.0712869698181748e-03</internalNodes>
          <leafValues>
            -4.3976426124572754e-01 3.4802985191345215e-01</leafValues></_>
        <_>
          <internalNodes>
            0 -1 53 -1.6937244683504105e-02</internalNodes>
          <leafValues>
            -7.0245331525802612e-01 2.5067499279975891e-01</leafValues></_>
        <_>
          <internalNodes>
            0 -1 170 4.8038503155112267e-03</internalNodes>
          <leafValues>
            1.5330281853675842e-01 -8.1447660923004150e-01</leafValues></_>
        <_>
          <internalNodes>
            0 -1 110 -2.6342440396547318e-02</internalNodes>
          <leafValues>
            -8.0622702836990356e-01 1.6684271395206451e-01</leafValues></_></weakClassifiers></_>
    <!-- stage 8 -->
    <_>
      <maxWeakCount>11</maxWeakCount>
      <stageThreshold>-1.2248028516769409e+00</stageThreshold>
      <weakClassifiers>
        <_>
          <internalNodes>
            0 -1 21 2.0401693880558014e-02</internalNodes>
          <leafValues>
            -3.9273926615715027e-01 6.2549799680709839e-01</leafValues></_>
        <_>
          <internalNodes>
            0 -1 156 -3.6393785849213600e-03</internalNodes>
          <leafValues>
            4.1303977370262146e-01 -4.9034199118614197e-01</leafValues></_>
        <_>
          <internalNodes>
            0 -1 145 3.6891084164381027e-04</internalNodes>
          <leafValues>
            -2.3919875919818878e-01 7.0392984151840210e-01</leafValues></_>
        <_>
          <internalNodes>
            0 -1 92 -6.2608700245618820e-03</internalNodes>
          <leafValues>
            -8.0394566059112549e-01 2.4384616315364838e-01</leafValues></_>
        <_>
          <internalNodes>
            0 -1 172 1.6050741076469421e-02</internalNodes>
          <leafValues>
            -4.9056860804557800e-01 3.1163963675498962e-01</leafValues></_>
        <_>
          <internalNodes>
            0 -1 77 1.4399845153093338e-02</internalNodes>
          <leafValues>
            2.4004721641540527e-01 -8.3844286203384399e-01</leafValues></_>
        <_>
          <internalNodes>
            0 -1 136 7.2783778887242079e-04</internalNodes>
          <leafValues>
            -4.9393942952156067e-01 3.5137125849723816e-01</leafValues></_>
        <_>
          <internalNodes>
            0 -1 166 -7.8639190178364515e-05</internalNodes>
          <leafValues>
            -8.4382796287536621e-01 1.9958132505416870e-01</leafValues></_>
        <_>
          <internalNodes>
            0 -1 178 5.3408937528729439e-03</internalNodes>
          <leafValues>
            1.3116952776908875e-01 -9.2895042896270752e-01</leafValues></_>
        <_>
          <internalNodes>
            0 -1 36 -2.2891511023044586e-01</internalNodes>
          <leafValues>
            -7.5891017913818359e-01 1.8289472162723541e-01</leafValues></_>
        <_>
          <internalNodes>
            0 -1 55 -1.4784970879554749e-01</internalNodes>
          <leafValues>
            -9.3893605470657349e-01 1.4235794544219971e-01</leafValues></_></weakClassifiers></_>
    <!-- stage 9 -->
    <_>
      <maxWeakCount>10</maxWeakCount>
      <stageThreshold>-1.3997792005538940e+00</stageThreshold>
      <weakClassifiers>
        <_>
          <internalNodes>
            0 -1 148 1.2337873689830303e-02</internalNodes>
          <leafValues>
            4.7734138369560242e-01 -8.4615385532379150e-01</leafValues></_>
        <_>
          <internalNodes>
            0 -1 27 1.2528502941131592e-01</internalNodes>
          <leafValues>
            -4.2471042275428772e-01 6.0091745853424072e-01</leafValues></_>
        <_>
          <internalNodes>
            0 -1 105 -8.7424973025918007e-03</internalNodes>
          <leafValues>
            4.5220983028411865e-01 -5.1146608591079712e-01</leafValues></_>
        <_>
          <internalNodes>
            0 -1 153 9.0013090812135488e-05</internalNodes>
          <leafValues>
            2.8435483574867249e-01 -7.9957890510559082e-01</leafValues></_>
        <_>
          <internalNodes>
            0 -1 198 1.2165682390332222e-02</internalNodes>
          <leafValues>
            -3.2619160413742065e-01 6.1800110340118408e-01</leafValues></_>
        <_>
          <internalNodes>
            0 -1 121 5.3761037997901440e-04</internalNodes>
          <leafValues>
            -5.1760900020599365e-01 4.2821225523948669e-01</leafValues></_>
        <_>
          <internalNodes>
            0 -1 18 9.9258180707693100e-03</internalNodes>
          <leafValues>
            -4.5834407210350037e-01 4.6593853831291199e-01</leafValues></_>
        <_>
          <internalNodes>
            0 -1 69 -3.3257957547903061e-03</internalNodes>
          <leafValues>
            3.0429247021675110e-01 -5.4555624723434448e-01</leafValues></_>
        <_>
          <internalNodes>
            0 -1 134 -9.9522306118160486e-04</internalNodes>
          <leafValues>
            -8.5563778877258301e-01 1.8069815635681152e-01</leafValues></_>
        <_>
          <internalNodes>
            0 -1 140 5.7114852825179696e-04</internalNodes>
          <leafValues>
            -2.6840385794639587e-01 7.4495613574981689e-01</leafValues></_></weakClassifiers></_>
    <!-- stage 10 -->
    <_>
      <maxWeakCount>10</maxWeakCount>
      <stageThreshold>-1.1054050922393799e+00</stageThreshold>
      <weakClassifiers>
        <_>
          <internalNodes>
            0 -1 81 1.2172855436801910e-02</internalNodes>
          <leafValues>
            -5.0877195596694946e-01 5.9343665838241577e-01</leafValues></_>
        <_>
          <internalNodes>
            0 -1 180 -5.0454447045922279e-03</internalNodes>
          <leafValues>
            5.1945531368255615e-01 -4.5768299698829651e-01</leafValues></_>
        <_>
          <internalNodes>
            0 -1 20 1.5328966081142426e-02</internalNodes>
          <leafValues>
            -4.3855091929435730e-01 4.4593936204910278e-01</leafValues></_>
        <_>
          <internalNodes>
            0 -1 205 -7.1423863992094994e-03</internalNodes>
          <leafValues>
            6.6654664278030396e-01 -2.7626961469650269e-01</leafValues></_>
        <_>
          <internalNodes>
            0 -1 125 -1.7157578840851784e-03</internalNodes>
          <leafValues>
            7.3654085397720337e-01 -2.6980599761009216e-01</leafValues></_>
        <_>
          <internalNodes>
            0 -1 159 2.4857325479388237e-04</internalNodes>
          <leafValues>
            -3.3546856045722961e-01 7.9398965835571289e-01</leafValues></_>
        <_>
          <internalNodes>
            0 -1 90 7.1467924863100052e-03</internalNodes>
          <leafValues>
            3.5932978987693787e-01 -6.7060083150863647e-01</leafValues></_>
        <_>
          <internalNodes>
            0 -1 51 1.7107348889112473e-02</internalNodes>
          <leafValues>
            -3.1763967871665955e-01 6.5540897846221924e-01</leafValues></_>
        <_>
          <internalNodes>
            0 -1 39 -1.7231568694114685e-02</internalNodes>
          <leafValues>
            7.7602267265319824e-01 -2.6201859116554260e-01</leafValues></_>
        <_>
          <internalNodes>
            0 -1 115 8.0635873600840569e-03</internalNodes>
          <leafValues>
            -4.0210238099098206e-01 5.1698315143585205e-01</leafValues></_></weakClassifiers></_>
    <!-- stage 11 -->
    <_>
      <maxWeakCount>11</maxWeakCount>
      <stageThreshold>-9.9092453718185425e-01</stageThreshold>
      <weakClassifiers>
        <_>
          <internalNodes>
            0 -1 151 8.1308069638907909e-05</internalNodes>
          <leafValues>
            5.0846093893051147e-01 -6.5311652421951294e-01</leafValues></_>
        <_>
          <internalNodes>
            0 -1 199 1.7078887671232224e-02</internalNodes>
          <leafValues>
            -3.5793074965476990e-01 5.8814525604248047e-01</leafValues></_>
        <_>
          <internalNodes>
            0 -1 7 5.5864483118057251e-02</internalNodes>
          <leafValues>
            -5.4319876432418823e-01 4.0425017476081848e-01</leafValues></_>
        <_>
          <internalNodes>
            0 -1 176 -1.5741972019895911e-03</internalNodes>
          <leafValues>
            3.5091814398765564e-01 -6.0342937707901001e-01</leafValues></_>
        <_>
          <internalNodes>
            0 -1 200 8.1877969205379486e-03</internalNodes>
          <leafValues>
            2.0669712126255035e-01 -7.9196333885192871e-01</leafValues></_>
        <_>
          <internalNodes>
            0 -1 84 -5.0073061138391495e-03</internalNodes>
          <leafValues>
            3.0770224332809448e-01 -5.6557369232177734e-01</leafValues></_>
        <_>
          <internalNodes>
            0 -1 206 -1.0039720684289932e-02</internalNodes>
          <leafValues>
            6.6237556934356689e-01 -2.8393927216529846e-01</leafValues></_>
        <_>
          <internalNodes>
            0 -1 129 -1.8008280545473099e-02</internalNodes>
          <leafValues>
            -9.4545930624008179e-01 1.9428527355194092e-01</leafValues></_>
        <_>
          <internalNodes>
            0 -1 143 7.1009108796715736e-04</internalNodes>
          <leafValues>
            -2.6762288808822632e-01 7.1578490734100342e-01</leafValues></_>
        <_>
          <internalNodes>
            0 -1 162 5.1953783258795738e-03</internalNodes>
          <leafValues>
            2.7936670184135437e-01 -6.9082283973693848e-01</leafValues></_>
        <_>
          <internalNodes>
            0 -1 4 -1.2126797810196877e-02</internalNodes>
          <leafValues>
            7.6945465803146362e-01 -2.4591872096061707e-01</leafValues></_></weakClassifiers></_>
    <!-- stage 12 -->
    <_>
      <maxWeakCount>11</maxWeakCount>
      <stageThreshold>-1.1483544111251831e+00</stageThreshold>
      <weakClassifiers>
        <_>
          <internalNodes>
            0 -1 38 5.1495276391506195e-02</internalNodes>
          <leafValues>
            4.9507203698158264e-01 -9.0378004312515259e-01</leafValues></_>
        <_>
          <internalNodes>
            0 -1 173 -1.8810736946761608e-03</internalNodes>
          <leafValues>
            3.0400389432907104e-01 -5.8012545108795166e-01</leafValues></_>
        <_>
          <internalNodes>
            0 -1 181 -5.9171305038034916e-03</internalNodes>
          <leafValues>
            2.5069385766983032e-01 -7.1820074319839478e-01</leafValues></_>
        <_>
          <internalNodes>
            0 -1 57 2.3578759282827377e-02</internalNodes>
          <leafValues>
            -2.1316690742969513e-01 7.9604673385620117e-01</leafValues></_>
        <_>
          <internalNodes>
            0 -1 44 -2.1129608154296875e-02</internalNodes>
          <leafValues>
            8.3862680196762085e-01 -3.3954370021820068e-01</leafValues></_>
        <_>
          <internalNodes>
            0 -1 127 -3.3056056126952171e-03</internalNodes>
          <leafValues>
            3.6192798614501953e-01 -6.3025414943695068e-01</leafValues></_>
        <_>
          <internalNodes>
            0 -1 72 9.8612830042839050e-03</internalNodes>
          <leafValues>
            -3.9210486412048340e-01 4.6671408414840698e-01</leafValues></_>
        <_>
          <internalNodes>
            0 -1 10 4.4919345527887344e-03</internalNodes>
          <leafValues>
            3.4609839320182800e-01 -4.8093277215957642e-01</leafValues></_>
        <_>
          <internalNodes>
            0 -1 120 5.7431065943092108e-04</internalNodes>
          <leafValues>
            -3.5246768593788147e-01 4.2889603972434998e-01</leafValues></_>
        <_>
          <internalNodes>
            0 -1 103 -1.3736872933804989e-03</internalNodes>
          <leafValues>
            5.4728955030441284e-01 -2.7813315391540527e-01</leafValues></_>
        <_>
          <internalNodes>
            0 -1 75 7.6596006751060486e-02</internalNodes>
          <leafValues>
            1.9443789124488831e-01 -9.2254382371902466e-01</leafValues></_></weakClassifiers></_>
    <!-- stage 13 -->
    <_>
      <maxWeakCount>11</maxWeakCount>
      <stageThreshold>-1.5870397090911865e+00</stageThreshold>
      <weakClassifiers>
        <_>
          <internalNodes>
            0 -1 76 5.7846486568450928e-02</internalNodes>
          <leafValues>
            -3.7010675668716431e-01 5.7061070203781128e-01</leafValues></_>
        <_>
          <internalNodes>
            0 -1 154 2.4789866074570455e-05</internalNodes>
          <leafValues>
            4.0097656846046448e-01 -5.6155192852020264e-01</leafValues></_>
        <_>
          <internalNodes>
            0 -1 91 2.5737786199897528e-03</internalNodes>
          <leafValues>
            -3.2540485262870789e-01 5.1612043380737305e-01</leafValues></_>
        <_>
          <internalNodes>
            0 -1 197 -3.0957546085119247e-02</internalNodes>
          <leafValues>
            6.1009222269058228e-01 -2.7033069729804993e-01</leafValues></_>
        <_>
          <internalNodes>
            0 -1 133 1.0359587031416595e-04</internalNodes>
          <leafValues>
            1.7540211975574493e-01 -9.4264423847198486e-01</leafValues></_>
        <_>
          <internalNodes>
            0 -1 15 -1.3163134455680847e-01</internalNodes>
          <leafValues>
            -8.4217292070388794e-01 1.8890239298343658e-01</leafValues></_>
        <_>
          <internalNodes>
            0 -1 3 -3.3956409897655249e-03</internalNodes>
          <leafValues>
            7.1418040990829468e-01 -2.6223364472389221e-01</leafValues></_>
        <_>
          <internalNodes>
            0 -1 135 7.9909113992471248e-05</internalNodes>
          <leafValues>
            1.7266054451465607e-01 -8.8237529993057251e-01</leafValues></_>
        <_>
          <internalNodes>
            0 -1 79 -1.3188690645620227e-03</internalNodes>
          <leafValues>
            2.0522296428680420e-01 -6.9225060939788818e-01</leafValues></_>
        <_>
          <internalNodes>
            0 -1 161 4.7780305612832308e-04</internalNodes>
          <leafValues>
            -2.1903483569622040e-01 7.9132211208343506e-01</leafValues></_>
        <_>
          <internalNodes>
            0 -1 160 6.2983087264001369e-04</internalNodes>
          <leafValues>
            -2.4194318056106567e-01 7.1210050582885742e-01</leafValues></_></weakClassifiers></_>
    <!-- stage 14 -->
    <_>
      <maxWeakCount>15</maxWeakCount>
      <stageThreshold>-1.1925508975982666e+00</stageThreshold>
      <weakClassifiers>
        <_>
          <internalNodes>
            0 -1 152 -2.1297026250977069e-05</internalNodes>
          <leafValues>
            -7.1428573131561279e-01 4.5592704415321350e-01</leafValues></_>
        <_>
          <internalNodes>
            0 -1 74 -6.5343901515007019e-03</internalNodes>
          <leafValues>
            2.9544112086296082e-01 -6.0295242071151733e-01</leafValues></_>
        <_>
          <internalNodes>
            0 -1 174 4.8541310243308544e-03</internalNodes>
          <leafValues>
            -3.1910595297813416e-01 5.3323847055435181e-01</leafValues></_>
        <_>
          <internalNodes>
            0 -1 9 4.5298520475625992e-02</internalNodes>
          <leafValues>
            -4.2128136754035950e-01 4.1064730286598206e-01</leafValues></_>
        <_>
          <internalNodes>
            0 -1 45 1.0743845254182816e-02</internalNodes>
          <leafValues>
            -3.3297702670097351e-01 5.1405233144760132e-01</leafValues></_>
        <_>
          <internalNodes>
            0 -1 64 1.6387550160288811e-02</internalNodes>
          <leafValues>
            -2.7714085578918457e-01 6.5005820989608765e-01</leafValues></_>
        <_>
          <internalNodes>
            0 -1 184 -1.2912211939692497e-02</internalNodes>
          <leafValues>
            7.1977031230926514e-01 -2.4631130695343018e-01</leafValues></_>
        <_>
          <internalNodes>
            0 -1 83 -3.1165745109319687e-02</internalNodes>
          <leafValues>
            -7.0027637481689453e-01 2.8574663400650024e-01</leafValues></_>
        <_>
          <internalNodes>
            0 -1 189 -8.6923269554972649e-03</internalNodes>
          <leafValues>
            5.7153272628784180e-01 -3.2756146788597107e-01</leafValues></_>
        <_>
          <internalNodes>
            0 -1 61 1.3321869075298309e-02</internalNodes>
          <leafValues>
            -3.0023258924484253e-01 4.7972691059112549e-01</leafValues></_>
        <_>
          <internalNodes>
            0 -1 107 1.7198146088048816e-04</internalNodes>
          <leafValues>
            -2.1197658777236938e-01 7.3110824823379517e-01</leafValues></_>
        <_>
          <internalNodes>
            0 -1 204 1.2442365288734436e-02</internalNodes>
          <leafValues>
            -3.4288856387138367e-01 4.0748521685600281e-01</leafValues></_>
        <_>
          <internalNodes>
            0 -1 122 3.9220909820869565e-04</internalNodes>
          <leafValues>
            -4.1688886284828186e-01 3.4234404563903809e-01</leafValues></_>
        <_>
          <internalNodes>
            0 -1 86 3.1483631581068039e-02</internalNodes>
          <leafValues>
            1.7478698492050171e-01 -8.2216680049896240e-01</leafValues></_>
        <_>
          <internalNodes>
            0 -1 80 -4.9517937004566193e-03</internalNodes>
          <leafValues>
            4.2293226718902588e-01 -3.4419533610343933e-01</leafValues></_></weakClassifiers></_>
    <!-- stage 15 -->
    <_>
      <maxWeakCount>13</maxWeakCount>
      <stageThreshold>-1.4417617321014404e+00</stageThreshold>
      <weakClassifiers>
        <_>
          <internalNodes>
            0 -1 41 2.0771441049873829e-03</internalNodes>
          <leafValues>
            -5.8104735612869263e-01 5.1530188322067261e-01</leafValues></_>
        <_>
          <internalNodes>
            0 -1 187 4.6067572839092463e-05</internalNodes>
          <leafValues>
            -5.7960253953933716e-01 3.2166999578475952e-01</leafValues></_>
        <_>
          <internalNodes>
            0 -1 11 2.5101661682128906e-01</internalNodes>
          <leafValues>
            -2.1962571144104004e-01 6.9656503200531006e-01</leafValues></_>
        <_>
          <internalNodes>
            0 -1 195 1.2736335396766663e-02</internalNodes>
          <leafValues>
            -2.5698509812355042e-01 5.8411520719528198e-01</leafValues></_>
        <_>
          <internalNodes>
            0 -1 155 -8.2718988414853811e-04</internalNodes>
          <leafValues>
            7.6297777891159058e-01 -2.0815184712409973e-01</leafValues></_>
        <_>
          <internalNodes>
            0 -1 137 -4.6313431812450290e-04</internalNodes>
          <leafValues>
            -9.1979956626892090e-01 1.6130401194095612e-01</leafValues></_>
        <_>
          <internalNodes>
            0 -1 100 7.1795070543885231e-03</internalNodes>
          <leafValues>
            -2.8228500485420227e-01 5.7498532533645630e-01</leafValues></_>
        <_>
          <internalNodes>
            0 -1 163 1.8554609268903732e-03</internalNodes>
          <leafValues>
            -3.6864498257637024e-01 4.0453284978866577e-01</leafValues></_>
        <_>
          <internalNodes>
            0 -1 47 -1.7847064882516861e-02</internalNodes>
          <leafValues>
            6.9800406694412231e-01 -2.1624331176280975e-01</leafValues></_>
        <_>
          <internalNodes>
            0 -1 24 9.7311791032552719e-03</internalNodes>
          <leafValues>
            -3.8327577710151672e-01 4.3532639741897583e-01</leafValues></_>
        <_>
          <internalNodes>
            0 -1 106 4.9263220280408859e-03</internalNodes>
          <leafValues>
            2.3347705602645874e-01 -6.8264740705490112e-01</leafValues></_>
        <_>
          <internalNodes>
            0 -1 108 -1.1283364146947861e-03</internalNodes>
          <leafValues>
            7.3626512289047241e-01 -2.0968769490718842e-01</leafValues></_>
        <_>
          <internalNodes>
            0 -1 33 1.0014439467340708e-03</internalNodes>
          <leafValues>
            2.7757546305656433e-01 -5.2861529588699341e-01</leafValues></_></weakClassifiers></_>
    <!-- stage 16 -->
    <_>
      <maxWeakCount>14</maxWeakCount>
      <stageThreshold>-1.3131599426269531e+00</stageThreshold>
      <weakClassifiers>
        <_>
          <internalNodes>
            0 -1 13 5.3510695695877075e-02</internalNodes>
          <leafValues>
            -2.2571820020675659e-01 6.3139933347702026e-01</leafValues></_>
        <_>
          <internalNodes>
            0 -1 22 9.7886882722377777e-03</internalNodes>
          <leafValues>
            -3.7744694948196411e-01 4.4065064191818237e-01</leafValues></_>
        <_>
          <internalNodes>
            0 -1 190 3.4405041951686144e-03</internalNodes>
          <leafValues>
            -4.9878984689712524e-01 3.2437905669212341e-01</leafValues></_>
        <_>
          <internalNodes>
            0 -1 142 -9.3100994126871228e-04</internalNodes>
          <leafValues>
            6.2166541814804077e-01 -2.1260187029838562e-01</leafValues></_>
        <_>
          <internalNodes>
            0 -1 138 -2.5952327996492386e-03</internalNodes>
          <leafValues>
            6.4044487476348877e-01 -2.1967880427837372e-01</leafValues></_>
        <_>
          <internalNodes>
            0 -1 182 7.8035579062998295e-03</internalNodes>
          <leafValues>
            1.8808931112289429e-01 -8.4489494562149048e-01</leafValues></_>
        <_>
          <internalNodes>
            0 -1 141 -2.2886595688760281e-03</internalNodes>
          <leafValues>
            6.1922073364257812e-01 -2.2572973370552063e-01</leafValues></_>
        <_>
          <internalNodes>
            0 -1 144 -5.7871243916451931e-04</internalNodes>
          <leafValues>
            5.4313898086547852e-01 -2.6093658804893494e-01</leafValues></_>
        <_>
          <internalNodes>
            0 -1 58 -1.1880801990628242e-02</internalNodes>
          <leafValues>
            -8.6567080020904541e-01 1.9069570302963257e-01</leafValues></_>
        <_>
          <internalNodes>
            0 -1 68 2.4028997868299484e-03</internalNodes>
          <leafValues>
            2.5221627950668335e-01 -5.7255721092224121e-01</leafValues></_>
        <_>
          <internalNodes>
            0 -1 192 1.6190879046916962e-02</internalNodes>
          <leafValues>
            -3.8845777511596680e-01 3.2275503873825073e-01</leafValues></_>
        <_>
          <internalNodes>
            0 -1 62 3.3497030381113291e-03</internalNodes>
          <leafValues>
            1.3004952669143677e-01 -9.1611307859420776e-01</leafValues></_>
        <_>
          <internalNodes>
            0 -1 207 -2.2739522682968527e-04</internalNodes>
          <leafValues>
            -6.1711138486862183e-01 1.7713293433189392e-01</leafValues></_>
        <_>
          <internalNodes>
            0 -1 5 1.3419964909553528e-01</internalNodes>
          <leafValues>
            1.6469193994998932e-01 -7.2784763574600220e-01</leafValues></_></weakClassifiers></_>
    <!-- stage 17 -->
    <_>
      <maxWeakCount>15</maxWeakCount>
      <stageThreshold>-1.5583351850509644e+00</stageThreshold>
      <weakClassifiers>
        <_>
          <internalNodes>
            0 -1 191 2.0795347169041634e-02</internalNodes>
          <leafValues>
            4.4145455956459045e-01 -9.2340427637100220e-01</leafValues></_>
        <_>
          <internalNodes>
            0 -1 14 1.5519080683588982e-02</internalNodes>
          <leafValues>
            -2.7805894613265991e-01 6.8989080190658569e-01</leafValues></_>
        <_>
          <internalNodes>
            0 -1 50 -1.4146113535389304e-03</internalNodes>
          <leafValues>
            3.1161132454872131e-01 -4.9202737212181091e-01</leafValues></_>
        <_>
          <internalNodes>
            0 -1 126 1.7969086766242981e-02</internalNodes>
          <leafValues>
            -2.1093910932540894e-01 7.1440345048904419e-01</leafValues></_>
        <_>
          <internalNodes>
            0 -1 171 8.9859021827578545e-03</internalNodes>
          <leafValues>
            -3.0664592981338501e-01 4.5296749472618103e-01</leafValues></_>
        <_>
          <internalNodes>
            0 -1 37 -3.0046787112951279e-02</internalNodes>
          <leafValues>
            6.7911213636398315e-01 -1.9641555845737457e-01</leafValues></_>
        <_>
          <internalNodes>
            0 -1 128 1.1994510889053345e-02</internalNodes>
          <leafValues>
            -2.1419537067413330e-01 6.9197082519531250e-01</leafValues></_>
        <_>
          <internalNodes>
            0 -1 66 3.7446834146976471e-02</internalNodes>
          <leafValues>
            2.1183492243289948e-01 -8.1960386037826538e-01</leafValues></_>
        <_>
          <internalNodes>
            0 -1 95 3.3496890682727098e-03</internalNodes>
          <leafValues>
            -5.3020340204238892e-01 2.8467112779617310e-01</leafValues></_>
        <_>
          <internalNodes>
            0 -1 139 1.2131279800087214e-03</internalNodes>
          <leafValues>
            -5.0319021940231323e-01 2.8922295570373535e-01</leafValues></_>
        <_>
          <internalNodes>
            0 -1 146 -9.6016406314447522e-04</internalNodes>
          <leafValues>
            7.8062868118286133e-01 -2.0470064878463745e-01</leafValues></_>
        <_>
          <internalNodes>
            0 -1 146 3.6157618160359561e-04</internalNodes>
          <leafValues>
            -2.4532757699489594e-01 4.9717283248901367e-01</leafValues></_>
        <_>
          <internalNodes>
            0 -1 202 -2.0037438720464706e-02</internalNodes>
          <leafValues>
            7.0587569475173950e-01 -1.8144614994525909e-01</leafValues></_>
        <_>
          <internalNodes>
            0 -1 149 -6.5882857888936996e-03</internalNodes>
          <leafValues>
            -7.6436460018157959e-01 2.1982282400131226e-01</leafValues></_>
        <_>
          <internalNodes>
            0 -1 164 2.8518629260361195e-03</internalNodes>
          <leafValues>
            1.2806414067745209e-01 -7.8210937976837158e-01</leafValues></_></weakClassifiers></_>
    <!-- stage 18 -->
    <_>
      <maxWeakCount>13</maxWeakCount>
      <stageThreshold>-1.0588552951812744e+00</stageThreshold>
      <weakClassifiers>
        <_>
          <internalNodes>
            0 -1 183 6.6688552498817444e-02</internalNodes>
          <leafValues>
            3.6929461359977722e-01 -8.7804877758026123e-01</leafValues></_>
        <_>
          <internalNodes>
            0 -1 71 1.8583104014396667e-02</internalNodes>
          <leafValues>
            -2.4471358954906464e-01 6.1209094524383545e-01</leafValues></_>
        <_>
          <internalNodes>
            0 -1 116 3.2237146515399218e-03</internalNodes>
          <leafValues>
            -1.7463919520378113e-01 7.3323571681976318e-01</leafValues></_>
        <_>
          <internalNodes>
            0 -1 114 -3.3564646728336811e-03</internalNodes>
          <leafValues>
            7.6251649856567383e-01 -1.9821821153163910e-01</leafValues></_>
        <_>
          <internalNodes>
            0 -1 19 -4.4461851939558983e-03</internalNodes>
          <leafValues>
            4.5068010687828064e-01 -3.3912324905395508e-01</leafValues></_>
        <_>
          <internalNodes>
            0 -1 89 4.1367979720234871e-03</internalNodes>
          <leafValues>
            -3.1195116043090820e-01 4.3411073088645935e-01</leafValues></_>
        <_>
          <internalNodes>
            0 -1 48 1.6795204952359200e-02</internalNodes>
          <leafValues>
            -2.2626887261867523e-01 6.3910478353500366e-01</leafValues></_>
        <_>
          <internalNodes>
            0 -1 168 -6.8786655901931226e-05</internalNodes>
          <leafValues>
            -5.2152252197265625e-01 2.8070315718650818e-01</leafValues></_>
        <_>
          <internalNodes>
            0 -1 30 -1.3782909512519836e-01</internalNodes>
          <leafValues>
            -7.3199570178985596e-01 1.3396668434143066e-01</leafValues></_>
        <_>
          <internalNodes>
            0 -1 96 -1.3277354883030057e-03</internalNodes>
          <leafValues>
            -8.4745693206787109e-01 1.6091199219226837e-01</leafValues></_>
        <_>
          <internalNodes>
            0 -1 16 8.1111907958984375e-02</internalNodes>
          <leafValues>
            6.2118403613567352e-02 -8.6712449789047241e-01</leafValues></_>
        <_>
          <internalNodes>
            0 -1 158 4.6832882799208164e-04</internalNodes>
          <leafValues>
            -5.2598530054092407e-01 2.1116839349269867e-01</leafValues></_>
        <_>
          <internalNodes>
            0 -1 2 3.0724365264177322e-02</internalNodes>
          <leafValues>
            1.3225187361240387e-01 -7.8210425376892090e-01</leafValues></_></weakClassifiers></_>
    <!-- stage 19 -->
    <_>
      <maxWeakCount>18</maxWeakCount>
      <stageThreshold>-1.2709106206893921e+00</stageThreshold>
      <weakClassifiers>
        <_>
          <internalNodes>
            0 -1 88 1.2119954917579889e-03</internalNodes>
          <leafValues>
            -7.2486770153045654e-01 3.7086558341979980e-01</leafValues></_>
        <_>
          <internalNodes>
            0 -1 93 8.5661917924880981e-02</internalNodes>
          <leafValues>
            -1.9220691919326782e-01 6.1760532855987549e-01</leafValues></_>
        <_>
          <internalNodes>
            0 -1 124 1.8226655665785074e-03</internalNodes>
          <leafValues>
            -1.6578197479248047e-01 6.7334300279617310e-01</leafValues></_>
        <_>
          <internalNodes>
            0 -1 123 -2.0032280590385199e-03</internalNodes>
          <leafValues>
            7.4267095327377319e-01 -1.3552588224411011e-01</leafValues></_>
        <_>
          <internalNodes>
            0 -1 196 1.7463804688304663e-03</internalNodes>
          <leafValues>
            -1.9570921361446381e-01 6.4786577224731445e-01</leafValues></_>
        <_>
          <internalNodes>
            0 -1 94 3.3567314967513084e-03</internalNodes>
          <leafValues>
            -2.7666470408439636e-01 3.8697585463523865e-01</leafValues></_>
        <_>
          <internalNodes>
            0 -1 65 1.6137991100549698e-02</internalNodes>
          <leafValues>
            -2.5324478745460510e-01 5.0269550085067749e-01</leafValues></_>
        <_>
          <internalNodes>
            0 -1 37 -2.1703150123357773e-02</internalNodes>
          <leafValues>
            5.8747595548629761e-01 -2.6448693871498108e-01</leafValues></_>
        <_>
          <internalNodes>
            0 -1 147 -2.1354969590902328e-02</internalNodes>
          <leafValues>
            -7.9023659229278564e-01 1.9286867976188660e-01</leafValues></_>
        <_>
          <internalNodes>
            0 -1 165 -1.5657281037420034e-03</internalNodes>
          <leafValues>
            1.9869571924209595e-01 -5.2368301153182983e-01</leafValues></_>
        <_>
          <internalNodes>
            0 -1 31 -9.6057327464222908e-03</internalNodes>
          <leafValues>
            -8.5348421335220337e-01 1.3735991716384888e-01</leafValues></_>
        <_>
          <internalNodes>
            0 -1 32 -1.0086251422762871e-02</internalNodes>
          <leafValues>
            -7.5190299749374390e-01 9.3569077551364899e-02</leafValues></_>
        <_>
          <internalNodes>
            0 -1 101 -1.4597492991015315e-03</internalNodes>
          <leafValues>
            2.2803178429603577e-01 -4.4077089428901672e-01</leafValues></_>
        <_>
          <internalNodes>
            0 -1 6 -2.1756915375590324e-03</internalNodes>
          <leafValues>
            5.2766942977905273e-01 -1.8852169811725616e-01</leafValues></_>
        <_>
          <internalNodes>
            0 -1 0 2.2810476366430521e-03</internalNodes>
          <leafValues>
            2.2668349742889404e-01 -5.2147340774536133e-01</leafValues></_>
        <_>
          <internalNodes>
            0 -1 130 1.3290923088788986e-02</internalNodes>
          <leafValues>
            8.4492847323417664e-02 -8.9775937795639038e-01</leafValues></_>
        <_>
          <internalNodes>
            0 -1 186 -9.9423504434525967e-04</internalNodes>
          <leafValues>
            3.3701863884925842e-01 -2.9695299267768860e-01</leafValues></_>
        <_>
          <internalNodes>
            0 -1 150 -7.0184068754315376e-03</internalNodes>
          <leafValues>
            -7.6518779993057251e-01 1.6162367165088654e-01</leafValues></_></weakClassifiers></_></stages>
  <features>
    <_>
      <rects>
        <_>
          0 0 12 4 -1.</_>
        <_>
          0 0 6 2 2.</_>
        <_>
          6 2 6 2 2.</_></rects>
      <tilted>0</tilted></_>
    <_>
      <rects>
        <_>
          0 0 14 26 -1.</_>
        <_>
          0 0 7 13 2.</_>
        <_>
          7 13 7 13 2.</_></rects>
      <tilted>0</tilted></_>
    <_>
      <rects>
        <_>
          0 0 40 2 -1.</_>
        <_>
          10 0 20 2 2.</_></rects>
      <tilted>0</tilted></_>
    <_>
      <rects>
        <_>
          0 4 2 25 -1.</_>
        <_>
          1 4 1 25 2.</_></rects>
      <tilted>0</tilted></_>
    <_>
      <rects>
        <_>
          0 6 15 3 -1.</_>
        <_>
          5 6 5 3 3.</_></rects>
      <tilted>0</tilted></_>
    <_>
      <rects>
        <_>
          0 8 40 24 -1.</_>
        <_>
          0 20 40 12 2.</_></rects>
      <tilted>0</tilted></_>
    <_>
      <rects>
        <_>
          0 12 2 16 -1.</_>
        <_>
          1 12 1 16 2.</_></rects>
      <tilted>0</tilted></_>
    <_>
      <rects>
        <_>
          0 20 26 16 -1.</_>
        <_>
          13 20 13 16 2.</_></rects>
      <tilted>0</tilted></_>
    <_>
      <rects>
        <_>
          0 22 6 4 -1.</_>
        <_>
          2 22 2 4 3.</_></rects>
      <tilted>0</tilted></_>
    <_>
      <rects>
        <_>
          1 9 14 15 -1.</_>
        <_>
          8 9 7 15 2.</_></rects>
      <tilted>0</tilted></_>
    <_>
      <rects>
        <_>
          2 0 36 1 -1.</_>
        <_>
          11 0 18 1 2.</_></rects>
      <tilted>0</tilted></_>
    <_>
      <rects>
        <_>
          2 1 30 15 -1.</_>
        <_>
          12 6 10 5 9.</_></rects>
      <tilted>0</tilted></_>
    <_>
      <rects>
        <_>
          2 5 36 25 -1.</_>
        <_>
          14 5 12 25 3.</_></rects>
      <tilted>0</tilted></_>
    <_>
      <rects>
        <_>
          2 7 36 6 -1.</_>
        <_>
          11 7 18 6 2.</_></rects>
      <tilted>0</tilted></_>
    <_>
      <rects>
        <_>
          2 8 36 1 -1.</_>
        <_>
          11 8 18 1 2.</_></rects>
      <tilted>0</tilted></_>
    <_>
      <rects>
        <_>
          2 8 38 32 -1.</_>
        <_>
          21 8 19 32 2.</_></rects>
      <tilted>0</tilted></_>
    <_>
      <rects>
        <_>
          2 12 28 18 -1.</_>
        <_>
          2 21 28 9 2.</_></rects>
      <tilted>0</tilted></_>
    <_>
      <rects>
        <_>
          2 18 6 8 -1.</_>
        <_>
          5 18 3 8 2.</_></rects>
      <tilted>0</tilted></_>
    <_>
      <rects>
        <_>
          2 19 8 7 -1.</_>
        <_>
          6 19 4 7 2.</_></rects>
      <tilted>0</tilted></_>
    <_>
      <rects>
        <_>
          3 6 12 3 -1.</_>
        <_>
          7 10 4 3 3.</_></rects>
      <tilted>1</tilted></_>
    <_>
      <rects>
        <_>
          3 11 12 15 -1.</_>
        <_>
          7 11 4 15 3.</_></rects>
      <tilted>0</tilted></_>
    <_>
      <rects>
        <_>
          3 12 10 14 -1.</_>
        <_>
          8 12 5 14 2.</_></rects>
      <tilted>0</tilted></_>
    <_>
      <rects>
        <_>
          3 14 12 12 -1.</_>
        <_>
          6 14 6 12 2.</_></rects>
      <tilted>0</tilted></_>
    <_>
      <rects>
        <_>
          3 14 12 3 -1.</_>
        <_>
          7 14 4 3 3.</_></rects>
      <tilted>0</tilted></_>
    <_>
      <rects>
        <_>
          3 14 14 12 -1.</_>
        <_>
          3 18 14 4 3.</_></rects>
      <tilted>0</tilted></_>
    <_>
      <rects>
        <_>
          3 15 12 3 -1.</_>
        <_>
          7 15 4 3 3.</_></rects>
      <tilted>0</tilted></_>
    <_>
      <rects>
        <_>
          3 19 36 8 -1.</_>
        <_>
          12 19 18 8 2.</_></rects>
      <tilted>0</tilted></_>
    <_>
      <rects>
        <_>
          4 5 33 9 -1.</_>
        <_>
          15 8 11 3 9.</_></rects>
      <tilted>0</tilted></_>
    <_>
      <rects>
        <_>
          4 23 16 2 -1.</_>
        <_>
          8 23 8 2 2.</_></rects>
      <tilted>0</tilted></_>
    <_>
      <rects>
        <_>
          5 0 18 6 -1.</_>
        <_>
          5 0 9 3 2.</_>
        <_>
          14 3 9 3 2.</_></rects>
      <tilted>0</tilted></_>
    <_>
      <rects>
        <_>
          5 4 35 18 -1.</_>
        <_>
          5 10 35 6 3.</_></rects>
      <tilted>0</tilted></_>
    <_>
      <rects>
        <_>
          5 18 24 9 -1.</_>
        <_>
          11 18 12 9 2.</_></rects>
      <tilted>0</tilted></_>
    <_>
      <rects>
        <_>
          5 18 26 6 -1.</_>
        <_>
          5 21 26 3 2.</_></rects>
      <tilted>0</tilted></_>
    <_>
      <rects>
        <_>
          5 33 2 4 -1.</_>
        <_>
          5 33 2 2 2.</_></rects>
      <tilted>1</tilted></_>
    <_>
      <rects>
        <_>
          7 13 12 12 -1.</_>
        <_>
          11 17 4 4 9.</_></rects>
      <tilted>0</tilted></_>
    <_>
      <rects>
        <_>
          7 17 22 8 -1.</_>
        <_>
          7 17 11 4 2.</_>
        <_>
          18 21 11 4 2.</_></rects>
      <tilted>0</tilted></_>
    <_>
      <rects>
        <_>
          8 1 32 38 -1.</_>
        <_>
          24 1 16 38 2.</_></rects>
      <tilted>0</tilted></_>
    <_>
      <rects>
        <_>
          8 11 22 10 -1.</_>
        <_>
          8 11 11 5 2.</_>
        <_>
          19 16 11 5 2.</_></rects>
      <tilted>0</tilted></_>
    <_>
      <rects>
        <_>
          8 11 26 15 -1.</_>
        <_>
          8 16 26 5 3.</_></rects>
      <tilted>0</tilted></_>
    <_>
      <rects>
        <_>
          8 12 20 8 -1.</_>
        <_>
          8 12 10 4 2.</_>
        <_>
          18 16 10 4 2.</_></rects>
      <tilted>0</tilted></_>
    <_>
      <rects>
        <_>
          8 15 8 8 -1.</_>
        <_>
          8 15 4 4 2.</_>
        <_>
          12 19 4 4 2.</_></rects>
      <tilted>0</tilted></_>
    <_>
      <rects>
        <_>
          9 2 28 3 -1.</_>
        <_>
          16 9 14 3 2.</_></rects>
      <tilted>1</tilted></_>
    <_>
      <rects>
        <_>
          9 10 6 8 -1.</_>
        <_>
          9 10 3 4 2.</_>
        <_>
          12 14 3 4 2.</_></rects>
      <tilted>0</tilted></_>
    <_>
      <rects>
        <_>
          9 11 12 28 -1.</_>
        <_>
          9 11 6 14 2.</_>
        <_>
          15 25 6 14 2.</_></rects>
      <tilted>0</tilted></_>
    <_>
      <rects>
        <_>
          9 12 18 8 -1.</_>
        <_>
          9 12 9 4 2.</_>
        <_>
          18 16 9 4 2.</_></rects>
      <tilted>0</tilted></_>
    <_>
      <rects>
        <_>
          9 14 9 12 -1.</_>
        <_>
          9 17 9 6 2.</_></rects>
      <tilted>0</tilted></_>
    <_>
      <rects>
        <_>
          9 14 20 6 -1.</_>
        <_>
          9 14 10 3 2.</_>
        <_>
          19 17 10 3 2.</_></rects>
      <tilted>0</tilted></_>
    <_>
      <rects>
        <_>
          9 18 20 6 -1.</_>
        <_>
          9 18 10 3 2.</_>
        <_>
          19 21 10 3 2.</_></rects>
      <tilted>0</tilted></_>
    <_>
      <rects>
        <_>
          9 18 26 6 -1.</_>
        <_>
          9 18 13 3 2.</_>
        <_>
          22 21 13 3 2.</_></rects>
      <tilted>0</tilted></_>
    <_>
      <rects>
        <_>
          9 24 3 9 -1.</_>
        <_>
          6 27 3 3 3.</_></rects>
      <tilted>1</tilted></_>
    <_>
      <rects>
        <_>
          10 12 9 7 -1.</_>
        <_>
          13 12 3 7 3.</_></rects>
      <tilted>0</tilted></_>
    <_>
      <rects>
        <_>
          10 12 22 8 -1.</_>
        <_>
          10 12 11 4 2.</_>
        <_>
          21 16 11 4 2.</_></rects>
      <tilted>0</tilted></_>
    <_>
      <rects>
        <_>
          10 17 21 18 -1.</_>
        <_>
          17 17 7 18 3.</_></rects>
      <tilted>0</tilted></_>
    <_>
      <rects>
        <_>
          10 20 10 13 -1.</_>
        <_>
          15 20 5 13 2.</_></rects>
      <tilted>0</tilted></_>
    <_>
      <rects>
        <_>
          11 1 19 10 -1.</_>
        <_>
          11 6 19 5 2.</_></rects>
      <tilted>0</tilted></_>
    <_>
      <rects>
        <_>
          11 2 24 27 -1.</_>
        <_>
          19 11 8 9 9.</_></rects>
      <tilted>0</tilted></_>
    <_>
      <rects>
        <_>
          11 11 20 10 -1.</_>
        <_>
          11 11 10 5 2.</_>
        <_>
          21 16 10 5 2.</_></rects>
      <tilted>0</tilted></_>
    <_>
      <rects>
        <_>
          11 12 22 8 -1.</_>
        <_>
          11 12 11 4 2.</_>
        <_>
          22 16 11 4 2.</_></rects>
      <tilted>0</tilted></_>
    <_>
      <rects>
        <_>
          11 14 12 15 -1.</_>
        <_>
          17 14 6 15 2.</_></rects>
      <tilted>0</tilted></_>
    <_>
      <rects>
        <_>
          11 14 14 10 -1.</_>
        <_>
          11 19 14 5 2.</_></rects>
      <tilted>0</tilted></_>
    <_>
      <rects>
        <_>
          12 2 16 18 -1.</_>
        <_>
          16 2 8 18 2.</_></rects>
      <tilted>0</tilted></_>
    <_>
      <rects>
        <_>
          12 4 19 9 -1.</_>
        <_>
          12 7 19 3 3.</_></rects>
      <tilted>0</tilted></_>
    <_>
      <rects>
        <_>
          12 9 10 1 -1.</_>
        <_>
          12 9 5 1 2.</_></rects>
      <tilted>1</tilted></_>
    <_>
      <rects>
        <_>
          12 12 5 12 -1.</_>
        <_>
          12 15 5 6 2.</_></rects>
      <tilted>0</tilted></_>
    <_>
      <rects>
        <_>
          12 12 18 8 -1.</_>
        <_>
          12 12 9 4 2.</_>
        <_>
          21 16 9 4 2.</_></rects>
      <tilted>0</tilted></_>
    <_>
      <rects>
        <_>
          12 12 20 8 -1.</_>
        <_>
          12 12 10 4 2.</_>
        <_>
          22 16 10 4 2.</_></rects>
      <tilted>0</tilted></_>
    <_>
      <rects>
        <_>
          12 13 24 16 -1.</_>
        <_>
          24 13 12 16 2.</_></rects>
      <tilted>0</tilted></_>
    <_>
      <rects>
        <_>
          12 14 14 6 -1.</_>
        <_>
          12 14 7 3 2.</_>
        <_>
          19 17 7 3 2.</_></rects>
      <tilted>0</tilted></_>
    <_>
      <rects>
        <_>
          12 19 8 10 -1.</_>
        <_>
          16 19 4 10 2.</_></rects>
      <tilted>0</tilted></_>
    <_>
      <rects>
        <_>
          12 21 15 6 -1.</_>
        <_>
          17 21 5 6 3.</_></rects>
      <tilted>0</tilted></_>
    <_>
      <rects>
        <_>
          12 22 16 5 -1.</_>
        <_>
          16 22 8 5 2.</_></rects>
      <tilted>0</tilted></_>
    <_>
      <rects>
        <_>
          13 3 8 9 -1.</_>
        <_>
          15 5 4 9 2.</_></rects>
      <tilted>1</tilted></_>
    <_>
      <rects>
        <_>
          13 6 6 10 -1.</_>
        <_>
          15 8 2 10 3.</_></rects>
      <tilted>1</tilted></_>
    <_>
      <rects>
        <_>
          13 7 8 26 -1.</_>
        <_>
          13 7 4 13 2.</_>
        <_>
          17 20 4 13 2.</_></rects>
      <tilted>0</tilted></_>
    <_>
      <rects>
        <_>
          13 9 10 22 -1.</_>
        <_>
          13 9 5 11 2.</_>
        <_>
          18 20 5 11 2.</_></rects>
      <tilted>0</tilted></_>
    <_>
      <rects>
        <_>
          13 10 18 15 -1.</_>
        <_>
          19 15 6 5 9.</_></rects>
      <tilted>0</tilted></_>
    <_>
      <rects>
        <_>
          13 12 15 15 -1.</_>
        <_>
          18 17 5 5 9.</_></rects>
      <tilted>0</tilted></_>
    <_>
      <rects>
        <_>
          13 15 8 12 -1.</_>
        <_>
          17 15 4 12 2.</_></rects>
      <tilted>0</tilted></_>
    <_>
      <rects>
        <_>
          13 17 15 2 -1.</_>
        <_>
          18 17 5 2 3.</_></rects>
      <tilted>0</tilted></_>
    <_>
      <rects>
        <_>
          13 22 15 4 -1.</_>
        <_>
          18 22 5 4 3.</_></rects>
      <tilted>0</tilted></_>
    <_>
      <rects>
        <_>
          13 27 13 8 -1.</_>
        <_>
          13 29 13 4 2.</_></rects>
      <tilted>0</tilted></_>
    <_>
      <rects>
        <_>
          14 2 12 21 -1.</_>
        <_>
          17 2 6 21 2.</_></rects>
      <tilted>0</tilted></_>
    <_>
      <rects>
        <_>
          14 6 12 15 -1.</_>
        <_>
          18 6 4 15 3.</_></rects>
      <tilted>0</tilted></_>
    <_>
      <rects>
        <_>
          14 7 13 22 -1.</_>
        <_>
          14 18 13 11 2.</_></rects>
      <tilted>0</tilted></_>
    <_>
      <rects>
        <_>
          14 8 11 10 -1.</_>
        <_>
          14 13 11 5 2.</_></rects>
      <tilted>0</tilted></_>
    <_>
      <rects>
        <_>
          14 11 12 9 -1.</_>
        <_>
          14 14 12 3 3.</_></rects>
      <tilted>0</tilted></_>
    <_>
      <rects>
        <_>
          14 15 12 18 -1.</_>
        <_>
          18 21 4 6 9.</_></rects>
      <tilted>0</tilted></_>
    <_>
      <rects>
        <_>
          14 15 12 8 -1.</_>
        <_>
          18 15 4 8 3.</_></rects>
      <tilted>0</tilted></_>
    <_>
      <rects>
        <_>
          14 16 8 7 -1.</_>
        <_>
          18 16 4 7 2.</_></rects>
      <tilted>0</tilted></_>
    <_>
      <rects>
        <_>
          14 17 6 2 -1.</_>
        <_>
          16 19 2 2 3.</_></rects>
      <tilted>1</tilted></_>
    <_>
      <rects>
        <_>
          14 22 22 8 -1.</_>
        <_>
          14 26 22 4 2.</_></rects>
      <tilted>0</tilted></_>
    <_>
      <rects>
        <_>
          15 16 4 5 -1.</_>
        <_>
          16 17 2 5 2.</_></rects>
      <tilted>1</tilted></_>
    <_>
      <rects>
        <_>
          15 20 5 6 -1.</_>
        <_>
          15 20 5 3 2.</_></rects>
      <tilted>1</tilted></_>
    <_>
      <rects>
        <_>
          16 0 16 16 -1.</_>
        <_>
          20 4 8 16 2.</_></rects>
      <tilted>1</tilted></_>
    <_>
      <rects>
        <_>
          16 7 18 6 -1.</_>
        <_>
          16 7 9 3 2.</_>
        <_>
          25 10 9 3 2.</_></rects>
      <tilted>0</tilted></_>
    <_>
      <rects>
        <_>
          16 9 20 6 -1.</_>
        <_>
          16 9 10 3 2.</_>
        <_>
          26 12 10 3 2.</_></rects>
      <tilted>0</tilted></_>
    <_>
      <rects>
        <_>
          16 18 5 4 -1.</_>
        <_>
          16 20 5 2 2.</_></rects>
      <tilted>0</tilted></_>
    <_>
      <rects>
        <_>
          16 19 4 1 -1.</_>
        <_>
          17 19 2 1 2.</_></rects>
      <tilted>0</tilted></_>
    <_>
      <rects>
        <_>
          16 22 4 3 -1.</_>
        <_>
          15 23 4 1 3.</_></rects>
      <tilted>1</tilted></_>
    <_>
      <rects>
        <_>
          17 0 9 13 -1.</_>
        <_>
          20 3 3 13 3.</_></rects>
      <tilted>1</tilted></_>
    <_>
      <rects>
        <_>
          17 0 10 9 -1.</_>
        <_>
          17 3 10 3 3.</_></rects>
      <tilted>0</tilted></_>
    <_>
      <rects>
        <_>
          17 10 5 6 -1.</_>
        <_>
          17 13 5 3 2.</_></rects>
      <tilted>0</tilted></_>
    <_>
      <rects>
        <_>
          17 14 6 12 -1.</_>
        <_>
          19 18 2 4 9.</_></rects>
      <tilted>0</tilted></_>
    <_>
      <rects>
        <_>
          17 14 5 3 -1.</_>
        <_>
          16 15 5 1 3.</_></rects>
      <tilted>1</tilted></_>
    <_>
      <rects>
        <_>
          17 15 6 12 -1.</_>
        <_>
          19 19 2 4 9.</_></rects>
      <tilted>0</tilted></_>
    <_>
      <rects>
        <_>
          17 18 7 8 -1.</_>
        <_>
          17 22 7 4 2.</_></rects>
      <tilted>0</tilted></_>
    <_>
      <rects>
        <_>
          17 19 4 6 -1.</_>
        <_>
          17 19 4 3 2.</_></rects>
      <tilted>1</tilted></_>
    <_>
      <rects>
        <_>
          17 24 3 1 -1.</_>
        <_>
          18 24 1 1 3.</_></rects>
      <tilted>0</tilted></_>
    <_>
      <rects>
        <_>
          17 28 6 2 -1.</_>
        <_>
          17 28 3 1 2.</_>
        <_>
          20 29 3 1 2.</_></rects>
      <tilted>0</tilted></_>
    <_>
      <rects>
        <_>
          18 1 6 14 -1.</_>
        <_>
          20 3 2 14 3.</_></rects>
      <tilted>1</tilted></_>
    <_>
      <rects>
        <_>
          18 6 18 6 -1.</_>
        <_>
          18 6 9 6 2.</_></rects>
      <tilted>1</tilted></_>
    <_>
      <rects>
        <_>
          18 7 20 11 -1.</_>
        <_>
          18 7 10 11 2.</_></rects>
      <tilted>1</tilted></_>
    <_>
      <rects>
        <_>
          18 12 10 14 -1.</_>
        <_>
          23 12 5 14 2.</_></rects>
      <tilted>0</tilted></_>
    <_>
      <rects>
        <_>
          18 13 4 10 -1.</_>
        <_>
          18 13 2 5 2.</_>
        <_>
          20 18 2 5 2.</_></rects>
      <tilted>0</tilted></_>
    <_>
      <rects>
        <_>
          18 13 4 6 -1.</_>
        <_>
          20 13 2 6 2.</_></rects>
      <tilted>0</tilted></_>
    <_>
      <rects>
        <_>
          18 13 6 9 -1.</_>
        <_>
          20 15 2 9 3.</_></rects>
      <tilted>1</tilted></_>
    <_>
      <rects>
        <_>
          18 14 4 4 -1.</_>
        <_>
          20 14 2 4 2.</_></rects>
      <tilted>0</tilted></_>
    <_>
      <rects>
        <_>
          18 18 4 4 -1.</_>
        <_>
          19 18 2 4 2.</_></rects>
      <tilted>0</tilted></_>
    <_>
      <rects>
        <_>
          18 18 4 5 -1.</_>
        <_>
          19 18 2 5 2.</_></rects>
      <tilted>0</tilted></_>
    <_>
      <rects>
        <_>
          18 19 4 2 -1.</_>
        <_>
          19 19 2 2 2.</_></rects>
      <tilted>0</tilted></_>
    <_>
      <rects>
        <_>
          18 19 3 4 -1.</_>
        <_>
          19 19 1 4 3.</_></rects>
      <tilted>0</tilted></_>
    <_>
      <rects>
        <_>
          18 20 4 3 -1.</_>
        <_>
          19 20 2 3 2.</_></rects>
      <tilted>0</tilted></_>
    <_>
      <rects>
        <_>
          18 21 4 2 -1.</_>
        <_>
          19 21 2 2 2.</_></rects>
      <tilted>0</tilted></_>
    <_>
      <rects>
        <_>
          18 22 3 3 -1.</_>
        <_>
          18 23 3 1 3.</_></rects>
      <tilted>0</tilted></_>
    <_>
      <rects>
        <_>
          18 23 8 2 -1.</_>
        <_>
          18 23 4 1 2.</_>
        <_>
          22 24 4 1 2.</_></rects>
      <tilted>0</tilted></_>
    <_>
      <rects>
        <_>
          18 23 5 3 -1.</_>
        <_>
          18 24 5 1 3.</_></rects>
      <tilted>0</tilted></_>
    <_>
      <rects>
        <_>
          19 5 12 3 -1.</_>
        <_>
          23 9 4 3 3.</_></rects>
      <tilted>1</tilted></_>
    <_>
      <rects>
        <_>
          19 5 10 16 -1.</_>
        <_>
          24 5 5 16 2.</_></rects>
      <tilted>0</tilted></_>
    <_>
      <rects>
        <_>
          19 7 4 9 -1.</_>
        <_>
          16 10 4 3 3.</_></rects>
      <tilted>1</tilted></_>
    <_>
      <rects>
        <_>
          19 13 10 10 -1.</_>
        <_>
          19 13 10 5 2.</_></rects>
      <tilted>1</tilted></_>
    <_>
      <rects>
        <_>
          19 15 12 5 -1.</_>
        <_>
          23 19 4 5 3.</_></rects>
      <tilted>1</tilted></_>
    <_>
      <rects>
        <_>
          19 16 3 6 -1.</_>
        <_>
          19 19 3 3 2.</_></rects>
      <tilted>0</tilted></_>
    <_>
      <rects>
        <_>
          19 16 6 7 -1.</_>
        <_>
          22 16 3 7 2.</_></rects>
      <tilted>0</tilted></_>
    <_>
      <rects>
        <_>
          19 18 4 3 -1.</_>
        <_>
          21 18 2 3 2.</_></rects>
      <tilted>0</tilted></_>
    <_>
      <rects>
        <_>
          19 18 4 4 -1.</_>
        <_>
          19 20 4 2 2.</_></rects>
      <tilted>0</tilted></_>
    <_>
      <rects>
        <_>
          19 19 2 1 -1.</_>
        <_>
          19 19 1 1 2.</_></rects>
      <tilted>1</tilted></_>
    <_>
      <rects>
        <_>
          19 19 4 1 -1.</_>
        <_>
          20 20 2 1 2.</_></rects>
      <tilted>1</tilted></_>
    <_>
      <rects>
        <_>
          19 19 4 2 -1.</_>
        <_>
          19 20 4 1 2.</_></rects>
      <tilted>0</tilted></_>
    <_>
      <rects>
        <_>
          19 21 4 4 -1.</_>
        <_>
          19 22 4 2 2.</_></rects>
      <tilted>0</tilted></_>
    <_>
      <rects>
        <_>
          19 21 12 11 -1.</_>
        <_>
          25 21 6 11 2.</_></rects>
      <tilted>0</tilted></_>
    <_>
      <rects>
        <_>
          19 22 2 3 -1.</_>
        <_>
          19 23 2 1 3.</_></rects>
      <tilted>0</tilted></_>
    <_>
      <rects>
        <_>
          19 22 3 4 -1.</_>
        <_>
          19 23 3 2 2.</_></rects>
      <tilted>0</tilted></_>
    <_>
      <rects>
        <_>
          19 23 2 2 -1.</_>
        <_>
          19 24 2 1 2.</_></rects>
      <tilted>0</tilted></_>
    <_>
      <rects>
        <_>
          19 23 2 3 -1.</_>
        <_>
          19 24 2 1 3.</_></rects>
      <tilted>0</tilted></_>
    <_>
      <rects>
        <_>
          19 24 1 4 -1.</_>
        <_>
          19 25 1 2 2.</_></rects>
      <tilted>0</tilted></_>
    <_>
      <rects>
        <_>
          19 26 1 3 -1.</_>
        <_>
          19 27 1 1 3.</_></rects>
      <tilted>0</tilted></_>
    <_>
      <rects>
        <_>
          19 28 2 3 -1.</_>
        <_>
          19 29 2 1 3.</_></rects>
      <tilted>0</tilted></_>
    <_>
      <rects>
        <_>
          20 8 8 22 -1.</_>
        <_>
          20 19 8 11 2.</_></rects>
      <tilted>0</tilted></_>
    <_>
      <rects>
        <_>
          20 10 14 4 -1.</_>
        <_>
          20 10 7 4 2.</_></rects>
      <tilted>1</tilted></_>
    <_>
      <rects>
        <_>
          20 14 12 3 -1.</_>
        <_>
          24 18 4 3 3.</_></rects>
      <tilted>1</tilted></_>
    <_>
      <rects>
        <_>
          20 15 9 4 -1.</_>
        <_>
          23 18 3 4 3.</_></rects>
      <tilted>1</tilted></_>
    <_>
      <rects>
        <_>
          20 16 6 8 -1.</_>
        <_>
          18 18 6 4 2.</_></rects>
      <tilted>1</tilted></_>
    <_>
      <rects>
        <_>
          20 17 2 4 -1.</_>
        <_>
          20 17 2 2 2.</_></rects>
      <tilted>1</tilted></_>
    <_>
      <rects>
        <_>
          20 17 20 8 -1.</_>
        <_>
          30 17 10 8 2.</_></rects>
      <tilted>0</tilted></_>
    <_>
      <rects>
        <_>
          20 19 1 3 -1.</_>
        <_>
          20 20 1 1 3.</_></rects>
      <tilted>0</tilted></_>
    <_>
      <rects>
        <_>
          20 19 4 4 -1.</_>
        <_>
          20 19 2 2 2.</_>
        <_>
          22 21 2 2 2.</_></rects>
      <tilted>0</tilted></_>
    <_>
      <rects>
        <_>
          20 19 4 6 -1.</_>
        <_>
          18 21 4 2 3.</_></rects>
      <tilted>1</tilted></_>
    <_>
      <rects>
        <_>
          20 20 2 4 -1.</_>
        <_>
          19 21 2 2 2.</_></rects>
      <tilted>1</tilted></_>
    <_>
      <rects>
        <_>
          20 20 10 10 -1.</_>
        <_>
          25 20 5 10 2.</_></rects>
      <tilted>0</tilted></_>
    <_>
      <rects>
        <_>
          20 23 1 3 -1.</_>
        <_>
          20 24 1 1 3.</_></rects>
      <tilted>0</tilted></_>
    <_>
      <rects>
        <_>
          20 26 1 4 -1.</_>
        <_>
          20 27 1 2 2.</_></rects>
      <tilted>0</tilted></_>
    <_>
      <rects>
        <_>
          20 28 1 3 -1.</_>
        <_>
          20 29 1 1 3.</_></rects>
      <tilted>0</tilted></_>
    <_>
      <rects>
        <_>
          21 13 3 10 -1.</_>
        <_>
          21 13 3 5 2.</_></rects>
      <tilted>1</tilted></_>
    <_>
      <rects>
        <_>
          21 14 4 10 -1.</_>
        <_>
          21 14 2 5 2.</_>
        <_>
          23 19 2 5 2.</_></rects>
      <tilted>0</tilted></_>
    <_>
      <rects>
        <_>
          21 16 8 2 -1.</_>
        <_>
          23 18 4 2 2.</_></rects>
      <tilted>1</tilted></_>
    <_>
      <rects>
        <_>
          21 16 8 8 -1.</_>
        <_>
          19 18 8 4 2.</_></rects>
      <tilted>1</tilted></_>
    <_>
      <rects>
        <_>
          21 18 2 1 -1.</_>
        <_>
          21 18 1 1 2.</_></rects>
      <tilted>1</tilted></_>
    <_>
      <rects>
        <_>
          22 14 10 4 -1.</_>
        <_>
          21 15 10 2 2.</_></rects>
      <tilted>1</tilted></_>
    <_>
      <rects>
        <_>
          22 19 2 1 -1.</_>
        <_>
          23 19 1 1 2.</_></rects>
      <tilted>0</tilted></_>
    <_>
      <rects>
        <_>
          22 20 3 4 -1.</_>
        <_>
          23 21 1 4 3.</_></rects>
      <tilted>1</tilted></_>
    <_>
      <rects>
        <_>
          23 6 6 18 -1.</_>
        <_>
          23 6 3 18 2.</_></rects>
      <tilted>1</tilted></_>
    <_>
      <rects>
        <_>
          23 13 5 8 -1.</_>
        <_>
          23 17 5 4 2.</_></rects>
      <tilted>0</tilted></_>
    <_>
      <rects>
        <_>
          23 14 16 13 -1.</_>
        <_>
          27 14 8 13 2.</_></rects>
      <tilted>0</tilted></_>
    <_>
      <rects>
        <_>
          23 14 10 8 -1.</_>
        <_>
          23 14 5 4 2.</_>
        <_>
          28 18 5 4 2.</_></rects>
      <tilted>0</tilted></_>
    <_>
      <rects>
        <_>
          23 15 3 9 -1.</_>
        <_>
          23 18 3 3 3.</_></rects>
      <tilted>0</tilted></_>
    <_>
      <rects>
        <_>
          23 15 8 6 -1.</_>
        <_>
          23 15 4 3 2.</_>
        <_>
          27 18 4 3 2.</_></rects>
      <tilted>0</tilted></_>
    <_>
      <rects>
        <_>
          23 17 6 5 -1.</_>
        <_>
          25 19 2 5 3.</_></rects>
      <tilted>1</tilted></_>
    <_>
      <rects>
        <_>
          24 8 8 10 -1.</_>
        <_>
          24 8 8 5 2.</_></rects>
      <tilted>1</tilted></_>
    <_>
      <rects>
        <_>
          24 11 8 8 -1.</_>
        <_>
          24 11 8 4 2.</_></rects>
      <tilted>1</tilted></_>
    <_>
      <rects>
        <_>
          25 8 8 10 -1.</_>
        <_>
          25 8 4 5 2.</_>
        <_>
          29 13 4 5 2.</_></rects>
      <tilted>0</tilted></_>
    <_>
      <rects>
        <_>
          25 9 7 6 -1.</_>
        <_>
          23 11 7 2 3.</_></rects>
      <tilted>1</tilted></_>
    <_>
      <rects>
        <_>
          25 11 14 15 -1.</_>
        <_>
          32 11 7 15 2.</_></rects>
      <tilted>0</tilted></_>
    <_>
      <rects>
        <_>
          25 15 2 10 -1.</_>
        <_>
          25 15 2 5 2.</_></rects>
      <tilted>1</tilted></_>
    <_>
      <rects>
        <_>
          26 9 6 15 -1.</_>
        <_>
          21 14 6 5 3.</_></rects>
      <tilted>1</tilted></_>
    <_>
      <rects>
        <_>
          26 13 3 12 -1.</_>
        <_>
          27 17 1 4 9.</_></rects>
      <tilted>0</tilted></_>
    <_>
      <rects>
        <_>
          26 14 12 7 -1.</_>
        <_>
          30 14 4 7 3.</_></rects>
      <tilted>0</tilted></_>
    <_>
      <rects>
        <_>
          26 19 2 7 -1.</_>
        <_>
          26 19 1 7 2.</_></rects>
      <tilted>1</tilted></_>
    <_>
      <rects>
        <_>
          27 13 4 8 -1.</_>
        <_>
          29 13 2 8 2.</_></rects>
      <tilted>0</tilted></_>
    <_>
      <rects>
        <_>
          28 5 8 6 -1.</_>
        <_>
          26 7 8 2 3.</_></rects>
      <tilted>1</tilted></_>
    <_>
      <rects>
        <_>
          28 9 12 6 -1.</_>
        <_>
          31 9 6 6 2.</_></rects>
      <tilted>0</tilted></_>
    <_>
      <rects>
        <_>
          28 20 3 12 -1.</_>
        <_>
          28 20 3 6 2.</_></rects>
      <tilted>1</tilted></_>
    <_>
      <rects>
        <_>
          29 8 6 16 -1.</_>
        <_>
          29 8 6 8 2.</_></rects>
      <tilted>1</tilted></_>
    <_>
      <rects>
        <_>
          29 10 9 15 -1.</_>
        <_>
          32 15 3 5 9.</_></rects>
      <tilted>0</tilted></_>
    <_>
      <rects>
        <_>
          29 13 10 12 -1.</_>
        <_>
          34 13 5 12 2.</_></rects>
      <tilted>0</tilted></_>
    <_>
      <rects>
        <_>
          29 14 9 14 -1.</_>
        <_>
          32 14 3 14 3.</_></rects>
      <tilted>0</tilted></_>
    <_>
      <rects>
        <_>
          29 26 10 14 -1.</_>
        <_>
          29 26 5 7 2.</_>
        <_>
          34 33 5 7 2.</_></rects>
      <tilted>0</tilted></_>
    <_>
      <rects>
        <_>
          29 32 3 4 -1.</_>
        <_>
          30 33 1 4 3.</_></rects>
      <tilted>1</tilted></_>
    <_>
      <rects>
        <_>
          30 3 9 15 -1.</_>
        <_>
          33 8 3 5 9.</_></rects>
      <tilted>0</tilted></_>
    <_>
      <rects>
        <_>
          30 14 9 12 -1.</_>
        <_>
          33 14 3 12 3.</_></rects>
      <tilted>0</tilted></_>
    <_>
      <rects>
        <_>
          31 5 8 8 -1.</_>
        <_>
          29 7 8 4 2.</_></rects>
      <tilted>1</tilted></_>
    <_>
      <rects>
        <_>
          31 7 6 18 -1.</_>
        <_>
          31 7 6 9 2.</_></rects>
      <tilted>1</tilted></_>
    <_>
      <rects>
        <_>
          32 0 6 28 -1.</_>
        <_>
          32 0 3 14 2.</_>
        <_>
          35 14 3 14 2.</_></rects>
      <tilted>0</tilted></_>
    <_>
      <rects>
        <_>
          32 3 8 9 -1.</_>
        <_>
          29 6 8 3 3.</_></rects>
      <tilted>1</tilted></_>
    <_>
      <rects>
        <_>
          32 9 4 6 -1.</_>
        <_>
          30 11 4 2 3.</_></rects>
      <tilted>1</tilted></_>
    <_>
      <rects>
        <_>
          32 15 8 24 -1.</_>
        <_>
          32 15 4 12 2.</_>
        <_>
          36 27 4 12 2.</_></rects>
      <tilted>0</tilted></_>
    <_>
      <rects>
        <_>
          34 5 4 18 -1.</_>
        <_>
          34 5 2 9 2.</_>
        <_>
          36 14 2 9 2.</_></rects>
      <tilted>0</tilted></_>
    <_>
      <rects>
        <_>
          34 12 6 17 -1.</_>
        <_>
          36 12 2 17 3.</_></rects>
      <tilted>0</tilted></_>
    <_>
      <rects>
        <_>
          35 35 2 5 -1.</_>
        <_>
          36 35 1 5 2.</_></rects>
      <tilted>0</tilted></_></features></cascade>
</opencv_storage>
